
Generation : 0
30737 0.74 0.96 -0.20 0.10 -0.10 0.03 0.53 0.40 
5930 0.90 0.63 0.37 -0.11 0.57 -0.24 0.08 0.92 
1559 -0.74 0.80 -0.22 0.38 -0.47 -0.20 0.86 0.48 
1508 -0.31 -0.59 -0.02 0.21 -0.73 0.32 0.00 -0.25 
1488 -0.83 0.75 -0.67 -0.34 0.82 0.20 -0.91 -0.05 
502 0.28 -0.05 0.95 -0.90 -0.86 -0.91 0.39 0.02 
441 -0.18 -0.63 -0.89 -0.44 -0.73 -0.15 0.81 0.95 
371 0.83 0.11 0.55 0.60 -0.76 -0.37 0.35 0.20 
320 -0.21 -0.53 0.65 0.09 0.15 0.85 0.45 -0.93 
310 0.28 0.01 0.40 0.03 0.00 0.16 -0.58 -0.16 
300 0.24 0.75 0.66 -0.89 0.45 0.37 0.94 0.01 
300 -0.99 0.49 -0.29 -0.95 -0.62 0.17 0.07 -0.38 
281 -0.65 0.60 -0.48 -0.79 -0.05 0.19 -0.15 0.87 
280 -0.82 0.22 0.94 -0.28 0.30 -0.00 0.20 0.82 
270 0.12 -0.41 0.43 0.17 -1.00 0.44 -0.18 0.64 
250 0.93 -0.03 -0.49 0.18 -0.01 -0.26 0.81 0.68 
250 -0.73 -0.03 0.50 -0.74 -0.64 -0.37 0.10 -0.98 
230 0.10 0.33 0.66 -0.34 0.78 0.49 0.29 -0.87 
230 -0.02 0.40 -0.46 0.77 -0.22 0.13 -0.94 -0.48 
230 -0.45 0.77 -0.81 -0.78 0.30 -0.19 -0.28 0.94 
220 -0.23 0.07 0.53 -0.52 0.14 0.66 0.69 0.32 
200 -0.95 0.57 0.25 0.98 0.19 0.48 0.16 0.39 
190 -0.68 -0.33 -0.53 -0.03 -0.06 -0.40 -0.99 -0.24 
190 0.80 0.59 0.56 0.81 0.95 -0.16 -0.63 -0.02 
180 0.67 0.85 -0.33 0.26 0.20 0.09 -0.64 -0.21 
180 -0.64 0.23 -0.89 -0.07 0.98 0.87 0.86 0.73 
160 -0.98 -0.34 -0.59 0.79 0.41 -0.44 -0.38 -0.63 
160 -0.93 0.27 -0.25 0.50 -0.96 -0.70 0.59 0.19 
150 0.62 -0.28 -0.30 0.56 0.64 -0.30 -0.72 0.52 
150 0.74 -0.32 0.59 0.94 -0.70 -0.00 -0.09 -0.64 
130 0.24 -0.04 -0.39 -0.25 0.59 0.39 0.18 0.08 
120 -0.44 0.47 0.30 0.39 0.08 -0.13 -0.85 -0.19 
110 0.07 0.33 -0.07 0.00 -0.14 0.28 -0.29 -0.76 
110 -0.73 0.61 -0.26 0.19 -0.86 0.03 0.36 0.52 
110 -0.12 -0.51 -0.67 0.15 -0.77 -0.53 0.87 0.41 
110 0.17 -0.58 -0.92 0.03 -0.49 -0.43 0.43 0.36 
100 0.63 0.60 0.77 -0.50 -0.08 0.90 -0.85 0.43 
100 -0.33 0.38 -0.58 -0.33 0.36 0.70 -0.12 -0.06 
100 -0.68 -0.53 -0.38 -0.08 0.80 0.13 0.94 0.69 
90 -0.24 -0.85 -0.72 -0.55 0.19 -0.79 0.00 0.14 
90 0.40 0.41 -0.37 0.72 0.03 -0.67 0.63 0.77 
80 -0.10 0.92 0.43 0.67 -0.45 0.97 0.37 0.62 
80 -0.61 -0.16 -0.18 0.31 -0.94 0.89 -0.66 0.82 
80 -0.65 -0.87 -0.63 0.45 -0.81 0.68 0.77 0.12 
80 0.76 -0.65 -0.64 -0.22 -0.34 0.10 0.02 0.86 
70 0.43 -0.27 0.87 0.18 -0.04 0.97 0.13 0.72 
70 0.97 0.61 0.53 -0.26 0.56 -0.16 0.97 0.15 
70 -0.08 -0.46 0.20 -0.74 0.68 0.07 0.39 0.35 
70 -0.54 0.24 0.07 0.35 -0.27 0.91 0.84 0.44 
70 0.73 -0.64 0.66 0.67 0.58 -0.39 0.67 -0.61 

Generation : 1
44890 -0.64 0.23 -0.89 -0.07 0.98 0.87 0.86 0.73 
41050 -0.65 -0.87 -0.63 -0.25 -0.81 0.39 -0.12 0.87 
11196 -0.65 0.38 -0.39 -0.79 -0.81 0.39 0.77 0.08 
6805 0.09 0.43 -0.45 0.97 -0.62 -0.96 0.41 -0.39 
6441 -0.65 -0.04 -0.58 -0.25 -0.81 0.68 -0.12 0.87 
854 -0.65 0.61 -0.38 -0.52 0.14 0.49 0.45 0.82 
703 0.24 -0.34 0.20 0.03 0.03 -0.67 0.13 0.82 
643 -0.95 0.66 -0.69 -0.28 -0.29 0.96 0.89 -0.89 
592 0.74 0.22 -0.39 -0.25 0.82 -0.37 0.18 0.86 
461 -0.85 0.83 0.75 0.69 0.22 -0.08 0.42 -0.17 
421 -0.45 -0.87 -0.59 0.18 -0.22 -0.43 -0.91 0.72 
391 -0.61 0.75 0.37 0.00 0.78 0.37 -0.99 -0.48 
331 0.90 -0.59 0.65 -0.89 0.98 -0.26 0.86 0.01 
330 -0.68 0.83 0.93 -0.12 0.72 0.93 1.03 -0.47 
250 0.41 0.71 -0.65 0.65 0.18 -0.12 -0.22 0.61 
230 0.90 0.33 0.30 0.38 0.98 0.20 0.43 -0.63 
220 -0.10 -0.28 0.65 0.26 -0.45 0.13 0.10 0.01 
210 -0.87 -0.09 -0.85 0.86 -0.77 0.88 0.40 0.56 
190 0.93 -0.53 -0.48 -0.34 0.78 -0.79 0.67 0.02 
180 -0.21 0.60 -0.92 -0.07 -0.27 -0.16 0.10 0.72 
180 0.62 -0.16 0.87 0.35 0.78 0.70 0.69 -0.21 
170 -0.68 0.61 0.30 0.60 -0.73 0.07 -0.85 -0.87 
160 -0.93 0.22 0.37 0.56 0.64 -0.37 -0.85 0.87 
150 0.40 0.40 -0.29 0.17 -0.86 -0.43 0.77 0.92 
150 -0.68 -0.58 0.50 0.21 -0.64 0.20 0.77 0.32 
150 0.90 0.59 -0.89 -0.55 -0.86 -0.79 0.59 0.48 
150 -0.64 0.55 -0.02 0.97 -1.05 0.88 0.89 0.34 
140 0.43 -0.03 -0.81 -0.22 -0.81 0.13 -0.85 -0.05 
140 -0.65 -0.64 0.56 0.21 0.00 0.32 -0.99 0.82 
140 -0.02 -0.34 0.66 -0.34 0.95 -0.00 0.39 0.82 
140 0.62 0.60 0.56 0.39 -0.04 0.19 0.08 0.94 
130 -0.73 0.01 0.79 0.28 0.63 -0.07 0.15 0.17 
130 -0.21 -0.51 0.66 0.15 -0.01 0.20 -0.85 0.14 
130 0.07 -0.33 -0.38 -0.89 -1.00 0.19 0.29 -0.24 
120 0.74 -0.32 -0.53 0.18 -1.00 0.20 0.16 0.64 
120 0.97 0.61 0.20 0.45 0.15 -0.37 0.87 0.64 
100 -0.23 0.60 -0.89 0.09 0.03 0.89 0.00 0.32 
100 0.00 0.46 0.55 -0.42 0.08 0.35 0.68 0.79 
100 -0.93 0.77 0.53 0.26 0.45 -0.67 0.07 0.14 
100 -0.65 -0.32 -0.33 0.98 0.03 0.91 0.39 0.62 
100 0.74 0.61 -0.64 0.67 -0.34 -0.43 0.84 -0.98 
100 -0.10 -0.58 0.94 0.77 0.08 -0.00 -0.72 -0.24 
100 -0.74 -0.85 0.43 0.39 -0.77 -0.40 0.63 -0.63 
90 -0.54 -0.32 0.77 0.17 -0.86 0.13 -0.28 0.35 
90 -0.24 -0.27 -0.02 0.39 0.56 0.39 0.07 0.73 
80 -0.64 0.23 -0.89 -0.07 0.98 0.87 0.86 0.73 
80 -0.65 -0.04 -0.39 -0.33 -0.81 0.70 0.18 0.87 
80 -0.33 -0.04 -0.63 0.45 -0.81 0.68 0.77 -0.06 
70 -0.56 0.42 -0.69 0.36 0.05 0.62 0.09 0.87 
60 0.24 0.38 -0.48 -0.33 0.36 0.70 -0.15 0.12 

Generation : 2
49382 -0.64 0.23 -0.89 -0.07 0.98 0.87 0.86 0.73 
32084 -0.64 0.31 -0.94 -0.50 0.07 0.97 0.80 0.91 
19257 -0.25 0.29 -0.28 -0.59 0.06 0.58 0.47 0.67 
9104 -0.64 0.61 -0.89 -0.07 0.03 0.89 0.89 0.32 
8418 -0.65 0.61 -0.89 -0.52 0.03 0.87 0.89 0.73 
6815 -0.78 0.64 -0.77 0.35 0.70 0.77 0.85 0.59 
4098 0.62 0.22 0.37 0.38 0.78 -0.37 0.63 0.32 
3482 -0.64 -0.27 -0.02 -0.07 0.03 -0.40 0.89 0.82 
3452 -0.65 -0.53 0.77 0.67 0.03 -0.67 0.86 0.48 
3140 0.44 -0.37 0.09 0.65 -0.81 0.99 -0.21 -0.71 
1679 -0.24 -0.58 0.56 0.56 0.22 -0.79 0.40 0.72 
1116 -0.73 0.23 0.75 -0.33 -0.29 0.70 0.45 -0.89 
894 0.09 0.22 -0.48 0.77 0.78 0.39 0.77 0.64 
491 0.41 0.71 0.94 0.17 -0.45 -0.43 0.13 0.14 
442 0.07 0.46 -0.53 0.17 0.82 -0.40 -0.22 0.64 
422 0.62 -0.03 -0.69 0.36 0.63 -0.96 0.59 -0.17 
401 -0.18 0.38 0.78 0.75 0.42 -0.44 -1.02 0.13 
330 0.40 -0.33 0.66 -0.22 0.56 -0.08 0.15 0.14 
250 -0.64 0.60 0.50 0.65 -0.64 -0.43 0.86 -0.17 
220 0.00 -0.87 0.75 -0.25 -0.29 0.70 0.45 -0.98 
200 0.07 -0.03 0.77 0.60 0.72 -0.67 0.87 0.01 
180 0.97 0.43 -0.58 -0.07 -0.81 0.49 -0.12 0.14 
180 -0.64 -0.03 -0.33 0.69 0.08 0.32 0.39 0.01 
160 -0.93 0.01 0.65 -0.52 -0.86 0.20 0.63 0.82 
160 -0.68 -0.87 -0.81 0.60 -0.64 -0.08 0.63 0.82 
160 0.24 0.83 -0.29 0.45 0.72 0.88 0.18 0.87 
160 0.62 -0.34 -0.48 -0.33 0.98 0.70 -0.85 0.82 
150 -0.68 -0.50 0.58 0.48 -0.03 0.41 0.10 0.63 
150 0.55 -0.17 0.76 -0.46 0.73 0.59 0.25 0.31 
140 -0.83 -0.18 0.80 0.18 -1.01 0.79 0.94 0.79 
140 -0.65 -0.28 0.20 0.18 0.05 0.13 -0.91 0.64 
140 0.00 0.60 -0.29 -0.25 -0.45 -0.79 -0.85 0.87 
120 -0.64 -0.87 0.93 0.98 0.00 0.13 0.68 0.87 
120 -0.68 -0.87 -0.38 -0.25 -1.05 0.68 -0.91 0.73 
110 0.90 0.75 -0.89 0.67 -0.81 0.91 -0.12 -0.17 
110 -0.10 -0.85 0.43 -0.25 -1.00 -0.07 0.86 0.34 
110 -0.85 0.43 0.66 -0.89 -0.81 -0.37 -0.99 -0.89 
110 0.40 -0.51 -0.48 0.26 0.78 -0.08 -0.22 -0.24 
110 -0.64 0.61 0.30 0.17 -0.64 0.49 0.67 0.61 
110 0.40 -0.87 -0.89 0.38 0.64 0.62 0.10 -0.87 
110 -0.02 -0.64 -0.65 -0.33 -0.73 0.88 0.45 -0.24 
100 -0.59 0.42 -1.02 -0.86 -0.78 0.91 0.36 0.09 
100 -0.10 0.61 -0.29 -0.07 0.98 0.68 0.42 -0.24 
100 0.50 0.62 -0.47 0.27 0.00 0.69 0.60 0.55 
100 0.13 0.56 0.27 -0.81 0.60 0.05 0.92 0.82 
90 -0.64 0.23 -0.89 -0.07 0.98 0.87 0.86 0.73 
80 -0.23 0.60 -0.69 -0.28 0.03 0.96 0.86 0.32 
80 -0.23 0.66 -0.89 0.09 0.03 0.87 0.86 0.73 
70 -0.64 0.61 -0.38 0.09 0.14 0.87 0.00 0.73 
60 -0.64 0.23 -0.89 -0.07 -0.29 0.49 0.45 0.82 

Generation : 3
24072 -0.64 0.23 -0.89 -0.07 0.98 0.87 0.86 0.73 
14997 -0.30 0.68 -0.93 -0.65 0.77 0.73 0.86 0.58 
5921 -0.64 0.23 -0.89 -0.07 0.03 0.87 0.85 0.67 
5155 -0.58 0.34 -0.37 -0.10 0.98 0.56 0.77 0.52 
4440 -0.64 0.23 -0.77 0.35 0.06 0.89 0.85 0.67 
3553 0.62 0.38 0.20 0.69 0.98 -0.07 0.47 0.32 
3392 -0.68 0.62 0.50 0.45 0.03 0.91 -0.91 0.82 
2496 -0.90 0.30 -0.11 0.17 0.36 -0.76 -0.80 0.40 
1751 0.55 -0.87 -1.02 0.67 0.03 0.62 0.10 0.87 
1297 -0.68 -0.27 0.80 0.09 0.72 -0.44 0.36 -0.17 
643 -0.65 0.64 0.37 -0.07 0.22 -0.43 0.89 -0.24 
603 0.55 0.70 -0.54 -0.22 0.72 0.67 0.16 -0.14 
582 -0.73 0.60 -0.65 -0.33 0.98 0.20 -0.85 0.34 
512 0.25 0.05 0.66 0.34 0.78 0.40 0.82 0.48 
402 -0.64 0.83 -0.48 -0.07 0.60 0.87 0.63 0.14 
351 -0.64 -0.17 0.66 -0.86 0.64 0.49 -0.91 0.13 
311 -0.65 0.61 0.78 -0.25 0.64 -0.67 0.45 -0.17 
290 -0.59 0.66 0.65 -0.07 0.78 -0.37 -0.99 0.13 
280 -0.25 0.01 -0.89 0.17 -0.64 0.62 -0.99 -0.71 
280 0.62 -0.51 -0.53 -0.07 0.08 0.70 0.45 0.31 
260 0.07 -0.64 -0.48 -0.52 0.00 0.13 0.67 0.14 
250 -0.75 -0.02 -0.50 0.74 -1.04 -0.59 0.94 0.26 
220 -0.23 0.22 -0.58 -0.86 -0.73 0.68 0.13 0.13 
210 -0.02 0.62 0.78 0.45 0.78 0.68 0.87 0.61 
200 -0.64 0.23 0.76 -0.33 0.98 0.88 -1.02 0.64 
190 0.40 0.23 0.20 0.38 0.14 0.13 0.25 0.01 
180 0.40 0.42 -0.89 -0.25 -0.78 0.87 0.63 0.48 
180 -0.24 -0.28 0.77 -0.50 0.63 0.91 0.86 0.01 
170 -0.01 0.08 -0.69 0.13 0.07 0.43 0.49 0.47 
170 -0.68 0.65 0.83 -0.26 0.94 0.65 -0.15 -0.23 
160 -0.64 0.61 0.09 0.60 0.98 0.91 0.89 0.91 
160 -0.02 0.61 -0.89 0.67 0.42 -0.37 0.63 0.32 
160 -0.83 0.21 -0.62 -0.07 -0.19 0.24 0.80 0.88 
150 -0.10 0.29 0.56 -0.33 0.98 0.97 -1.02 0.32 
140 0.50 0.75 0.75 0.65 -0.81 -0.44 0.42 0.09 
140 0.24 0.60 -0.89 -0.07 -0.86 -0.79 0.47 0.87 
130 -0.64 0.62 0.20 0.60 0.56 -0.08 0.68 -0.24 
130 0.19 -0.16 -1.09 -0.30 0.23 -0.53 0.05 0.95 
130 -0.65 0.58 0.70 0.55 -0.76 0.92 -0.92 0.39 
120 -0.78 -0.28 -0.29 0.98 -0.29 -0.37 0.86 0.09 
120 -0.24 -0.03 -0.28 0.26 -1.05 0.49 0.86 -0.17 
110 0.41 0.56 -0.58 0.09 -0.81 -0.96 -0.12 0.82 
100 -0.41 0.99 0.82 0.10 0.06 0.55 -0.68 0.86 
100 -0.70 0.52 -0.38 -0.78 -0.72 0.07 0.48 0.68 
100 -0.64 0.64 0.37 0.56 0.64 0.79 -0.85 0.64 
100 -0.64 0.23 -0.89 -0.07 0.98 0.87 0.86 0.73 
80 -0.66 0.69 -0.71 -0.00 0.13 0.58 0.84 0.58 
80 -0.64 0.61 -0.28 0.35 0.70 0.58 0.86 0.59 
70 -0.64 0.29 -0.28 0.35 0.03 0.77 0.47 0.73 
70 -0.16 0.36 -0.85 -0.03 0.12 0.80 0.99 0.76 

Generation : 4
22930 -0.64 0.83 -0.48 -0.07 0.60 0.87 0.63 0.14 
18650 -0.64 0.23 -0.89 -0.03 0.03 0.87 0.86 0.73 
17240 -0.64 0.23 -0.89 -0.07 0.03 0.87 0.86 0.73 
11026 -0.16 0.23 -0.89 -0.07 0.98 0.87 0.99 0.73 
9345 -0.64 0.23 -0.89 -0.03 0.98 0.87 0.86 0.73 
8679 -0.69 0.25 -0.40 -0.06 -0.07 0.67 0.78 0.54 
6817 -0.78 0.61 0.82 0.10 -1.04 -0.79 0.86 0.34 
5094 -0.64 0.23 -0.89 -0.07 0.63 -0.37 0.13 -0.17 
4792 -0.65 0.61 -1.02 -0.86 0.77 0.07 0.47 -0.24 
3683 0.59 0.69 0.17 0.71 0.71 -0.79 -0.95 0.06 
3613 -0.23 0.23 0.83 0.17 0.72 0.87 0.63 0.73 
3172 0.17 0.30 0.25 -0.05 -0.23 -0.33 0.82 0.87 
2919 0.20 0.56 -0.63 0.53 0.67 0.30 0.89 -0.09 
2224 0.40 0.56 -0.85 0.67 0.03 0.58 0.63 0.82 
1579 -0.64 0.58 -0.58 0.45 -0.86 0.13 0.77 0.87 
552 -0.58 -0.28 -0.48 0.26 0.06 0.24 0.84 0.40 
502 -0.64 -0.27 0.66 0.38 -0.64 0.20 -0.15 -0.23 
432 -0.30 0.52 0.76 0.09 0.72 -0.59 0.42 0.14 
432 0.81 -0.87 0.21 -0.59 0.61 -0.62 -0.99 0.09 
392 -0.64 0.64 -0.50 0.69 0.23 0.67 0.13 0.64 
361 -0.83 0.66 0.65 -0.03 -0.29 0.13 0.82 -0.24 
281 0.40 0.69 0.20 -0.07 -0.81 0.80 0.13 0.40 
250 -0.02 0.34 -0.71 -0.33 -0.72 -0.44 0.49 0.26 
240 -0.64 0.69 -0.85 -0.07 0.98 0.07 0.84 -0.24 
240 -0.69 0.61 0.62 -0.58 0.45 0.66 0.91 0.04 
240 -0.64 0.30 -0.65 0.13 0.98 -0.43 0.47 -0.17 
230 -0.01 -0.16 -0.53 0.13 0.77 -0.44 0.63 -0.24 
220 -0.83 0.60 0.50 -0.07 0.78 0.65 0.86 0.58 
200 -0.64 -0.03 0.77 0.35 -0.29 0.58 0.80 -0.23 
180 -0.64 0.52 0.50 -0.00 -0.78 0.92 -0.85 0.58 
170 0.19 -0.27 0.78 0.67 -0.81 0.92 -0.68 0.58 
170 -0.86 0.60 0.88 0.54 -0.70 0.95 -0.06 0.21 
160 -0.90 0.99 0.75 -0.03 0.07 0.92 -0.85 -0.14 
160 -0.56 0.71 0.12 0.34 0.84 0.86 0.90 0.40 
140 0.31 0.54 -0.56 0.38 0.81 0.65 0.78 0.66 
130 -0.64 0.64 -0.89 -0.26 0.56 0.58 0.16 0.59 
130 -0.70 -0.16 -0.11 0.17 0.03 -0.76 0.89 0.09 
120 -0.02 -0.17 -1.09 0.10 0.78 0.77 0.86 0.01 
120 -0.65 0.70 0.09 -0.07 0.72 0.89 0.16 0.31 
110 -0.24 0.29 0.09 -0.86 -0.19 0.43 0.87 0.34 
110 -0.64 0.62 -0.89 -0.10 -0.81 0.92 0.77 0.73 
110 -0.25 0.62 0.76 0.17 0.70 0.62 0.49 0.67 
100 0.44 -0.18 0.23 -0.98 0.94 -0.90 0.13 0.11 
100 0.19 0.23 -0.89 -0.03 0.42 0.62 -0.85 0.32 
90 -0.16 0.36 0.68 0.66 0.30 -0.78 -0.99 0.58 
90 -0.64 0.83 -0.48 -0.07 0.60 0.87 0.63 0.14 
90 -0.55 0.35 -0.78 -0.08 0.20 0.82 0.84 0.63 
80 -0.64 0.36 -0.89 -0.03 0.12 0.87 0.99 0.76 
80 -0.64 0.23 -0.89 -0.07 0.03 0.80 0.86 0.73 
70 -0.64 0.36 -0.89 -0.07 0.98 0.87 0.86 0.73 

Generation : 5
34384 -0.64 0.23 -0.89 -0.07 0.03 0.87 0.86 0.73 
26769 -0.64 0.23 -0.78 -0.08 0.60 0.87 0.86 0.73 
24018 -0.64 0.23 -0.89 -0.03 0.03 0.87 0.84 0.63 
12820 -0.64 0.35 -0.78 -0.07 0.20 0.82 0.86 0.73 
12759 -0.51 0.34 -0.48 0.02 0.62 0.78 0.62 0.16 
12568 -0.69 0.25 -0.89 0.53 -0.81 0.62 0.13 0.73 
11097 -0.64 -0.20 0.71 -0.10 0.99 0.09 -1.01 0.02 
7673 -0.56 0.36 0.09 -0.06 -1.04 -0.90 0.84 0.82 
6705 -0.86 0.69 -0.65 -0.00 0.70 0.30 0.86 0.40 
6354 -0.83 0.23 -0.78 0.69 0.03 0.65 0.86 -0.14 
3019 -0.16 0.25 0.21 0.13 -0.81 0.13 0.89 0.09 
2375 -0.64 0.23 0.23 0.09 0.61 0.65 0.42 0.11 
2133 -0.25 0.34 0.66 -0.03 0.70 0.87 0.77 0.26 
1619 -0.65 -0.27 -0.11 -0.03 -0.23 0.13 0.86 0.64 
1378 -0.64 0.71 0.25 -0.00 0.03 0.24 0.42 0.66 
734 0.25 -0.35 0.80 0.21 0.95 0.85 0.21 0.88 
552 0.86 0.36 -0.86 0.40 0.17 0.33 0.64 0.66 
472 0.17 -0.18 0.57 -0.06 0.25 0.93 0.83 0.60 
340 -0.01 0.36 -0.78 -0.07 -1.04 0.67 0.99 0.01 
250 -0.64 0.56 0.83 -0.07 0.98 -0.76 0.47 0.11 
230 -0.64 0.36 -0.89 0.35 0.84 0.67 0.47 -0.24 
230 0.17 0.29 -0.56 -0.00 0.03 -0.33 0.42 0.40 
230 -0.12 0.63 -0.56 -0.91 0.82 0.76 0.79 0.52 
220 -0.23 0.23 0.78 -0.33 0.20 0.24 0.86 0.01 
200 -0.64 0.66 0.23 -0.07 0.81 0.80 0.77 -0.24 
190 -0.70 0.23 0.23 0.17 0.03 0.92 -0.95 -0.23 
180 0.31 0.23 0.77 0.35 0.77 0.67 0.13 -0.09 
180 -0.02 0.62 0.78 0.13 0.60 0.87 0.89 0.64 
180 -0.89 0.22 -0.83 0.49 -0.57 -0.34 0.09 -0.21 
180 -0.70 -0.27 0.83 -0.33 -0.19 0.92 -0.85 0.54 
150 -0.86 0.66 -0.89 0.67 0.03 0.65 -0.85 0.73 
150 0.44 0.43 0.84 -0.11 -0.79 0.63 0.88 -0.16 
150 -0.64 0.35 0.12 0.35 -0.78 0.87 0.84 -0.17 
150 0.40 -0.17 -0.89 -0.05 0.72 0.65 0.87 -0.24 
130 -0.18 0.25 0.93 -0.17 -0.26 0.57 0.89 0.58 
130 -0.61 0.03 0.48 -0.02 0.82 0.49 -0.58 0.23 
130 -0.64 0.23 0.66 0.10 0.56 -0.44 0.89 0.32 
130 -0.58 -0.18 -0.85 -0.03 -0.81 0.92 0.87 0.58 
120 -0.25 0.61 0.66 -0.07 0.23 0.92 0.42 0.40 
110 0.42 0.89 0.11 0.68 -0.63 0.47 0.22 0.13 
110 0.59 0.56 0.25 0.53 0.78 0.13 0.13 -0.17 
100 -0.64 0.25 -0.71 0.67 0.07 0.62 -0.85 0.14 
100 -0.86 -0.16 -0.89 0.13 0.06 -0.90 0.63 0.14 
100 -0.00 -0.14 -0.94 -0.21 0.56 0.13 -1.04 -0.30 
100 -0.68 0.56 -0.73 0.16 0.59 0.89 1.06 0.69 
90 -0.64 0.23 -0.89 -0.07 0.03 0.87 0.86 0.73 
90 -0.65 0.73 -0.94 0.00 0.12 0.83 0.82 0.66 
80 -0.64 0.23 -0.48 -0.03 0.20 0.87 0.86 0.73 
80 -0.63 0.21 -0.83 -0.02 0.19 0.75 0.84 0.07 
70 -0.68 0.43 -0.77 0.01 0.50 0.93 0.54 0.13 

Generation : 6
87634 -0.64 0.23 -0.48 -0.03 0.20 0.87 0.86 0.73 
49956 -0.68 0.36 -0.89 -0.07 0.03 0.87 1.06 0.63 
26161 -0.64 0.23 -0.89 0.16 0.84 0.89 0.84 0.69 
22701 -0.59 0.24 -0.83 0.06 0.57 0.69 0.46 0.57 
21867 -0.70 0.33 -0.85 -0.13 0.49 0.61 0.99 0.63 
16392 -0.68 0.49 0.99 0.02 0.70 0.77 -0.80 0.53 
8799 -0.64 0.23 -0.11 -0.07 0.03 0.92 0.13 0.01 
8127 -0.86 0.23 -0.89 0.68 0.03 -0.34 0.77 0.14 
7350 0.44 0.23 -0.94 0.21 0.03 0.49 0.42 0.02 
6415 0.63 0.59 -0.84 -0.01 -0.07 0.72 -0.82 0.54 
4480 -0.86 0.36 0.23 0.10 -0.63 0.49 0.82 0.64 
3765 -0.68 0.73 -0.65 0.35 0.81 0.89 -1.04 0.82 
3533 -0.89 0.28 -0.96 -0.32 0.58 0.67 0.40 0.55 
3271 -0.64 0.22 -0.89 -0.07 0.60 0.24 0.42 0.64 
2486 -0.64 -0.18 -0.89 -0.00 0.84 0.92 0.89 0.60 
1942 0.82 -0.31 0.30 -0.47 0.12 0.34 0.44 -0.39 
1821 0.63 -0.16 -0.42 -0.12 0.23 -0.81 0.91 -0.19 
1448 0.32 0.48 0.24 0.16 0.36 -0.28 0.21 0.87 
1045 0.30 -0.74 0.12 0.94 0.07 0.12 -0.12 0.02 
845 -0.65 0.35 -0.56 -0.03 0.62 0.87 0.13 0.73 
723 0.50 0.28 0.83 -0.11 -0.17 0.65 0.87 -0.09 
412 0.86 0.36 -0.89 -0.91 0.82 0.33 0.47 -0.14 
411 -0.64 0.56 0.57 0.67 -0.81 0.57 0.83 0.40 
330 -0.69 0.56 -0.48 0.35 -0.81 0.78 0.86 0.07 
320 -0.64 0.29 -0.94 0.17 -1.04 0.13 -0.58 0.60 
290 -0.86 0.36 -0.86 -0.07 0.03 -0.90 0.84 0.14 
280 0.33 0.20 0.24 -0.07 0.26 0.85 0.84 0.05 
260 0.31 -0.27 0.80 0.35 -0.81 0.75 0.84 0.40 
250 -0.70 0.62 -0.89 -0.00 0.95 0.89 0.84 0.40 
220 -0.64 0.36 0.77 0.68 0.56 0.30 -1.01 -0.23 
210 -0.69 0.43 -0.56 -0.07 0.56 0.92 -0.85 0.23 
190 0.31 0.62 -0.48 0.49 0.60 -0.34 0.47 0.14 
190 -0.04 -0.18 -0.87 -0.03 -0.72 -0.82 0.95 0.68 
180 -0.64 0.66 -0.86 -0.17 0.03 0.13 0.21 0.66 
160 0.28 -0.35 -0.54 -0.05 0.08 0.86 0.88 -0.14 
140 -0.64 0.36 -0.11 -0.33 -0.81 0.87 0.77 0.14 
140 -0.64 0.56 0.21 -0.00 0.60 0.13 0.86 0.40 
130 -0.64 0.34 0.77 0.67 0.81 0.92 0.42 -0.24 
130 -0.68 0.89 0.84 -0.06 0.99 0.65 0.77 0.66 
120 -0.64 -0.27 0.11 -0.00 -0.78 0.80 0.77 0.07 
120 -0.86 0.43 -0.89 0.01 -0.81 0.47 0.63 0.63 
110 -0.64 -0.17 -0.78 -0.00 0.17 0.67 -1.01 0.40 
110 -0.65 0.25 -0.89 0.00 0.03 0.67 0.42 0.02 
100 -0.00 0.25 -0.89 0.02 0.03 0.82 0.84 0.54 
90 -0.70 0.43 0.93 0.35 -0.81 0.93 0.86 -0.23 
90 -0.59 0.32 -0.54 -0.06 0.28 0.91 0.84 0.68 
90 -0.68 0.56 -0.89 0.16 0.03 0.87 0.84 0.63 
90 -0.64 0.36 -0.89 -0.07 0.59 0.89 0.47 0.69 
80 -0.61 0.15 -0.88 -0.06 -0.00 0.66 0.78 -0.18 
70 -0.74 0.55 -0.99 -0.04 -0.03 0.65 0.97 0.61 

Generation : 7
41605 -0.70 0.62 -0.89 -0.00 0.95 0.89 0.84 0.40 
19205 -0.64 0.32 -0.54 -0.06 0.84 0.92 0.84 0.68 
17340 -0.64 -0.18 -0.89 -0.00 -0.00 0.92 0.84 0.69 
14934 -0.14 0.60 -0.27 0.63 0.27 0.22 -0.38 0.48 
13364 -0.59 -0.18 -0.89 -0.06 0.28 0.66 0.84 0.68 
12496 -0.62 0.28 0.84 -0.85 -0.02 0.96 0.72 0.78 
9746 -0.76 0.30 -0.99 0.40 0.65 0.87 0.99 -0.06 
7160 0.44 0.36 0.12 0.16 -0.81 0.33 1.06 0.40 
5092 -0.70 0.22 0.24 0.21 -0.17 0.67 -0.85 -0.23 
4903 0.55 0.39 -0.08 -0.09 0.09 0.93 -0.79 0.66 
4509 -0.64 0.59 -0.54 -0.07 0.81 0.86 0.47 0.87 
4369 -0.71 0.60 -0.54 0.53 0.10 0.41 0.72 0.60 
4259 0.95 -0.10 -0.50 -0.44 -0.92 -0.73 0.69 -0.79 
3039 -0.69 0.36 -0.89 -0.07 -0.81 0.89 0.84 0.23 
2405 -0.68 0.22 -0.11 -0.07 -0.81 0.89 0.47 0.40 
1579 -0.65 0.62 -0.89 -0.01 0.82 0.87 0.95 0.68 
1398 -0.64 0.49 -1.05 0.18 0.62 0.84 0.89 0.45 
1378 -0.69 0.33 -0.48 0.94 -0.81 0.89 0.42 0.14 
1176 -0.86 0.23 -0.89 0.00 -0.00 0.67 0.86 0.61 
1006 -0.61 -0.26 0.22 -0.03 0.03 -0.80 0.22 0.89 
925 -0.80 0.43 -0.97 -0.04 0.67 0.09 -0.18 0.15 
683 -0.64 0.24 -0.89 0.35 -0.63 0.30 0.77 0.54 
602 -0.64 0.35 -0.89 0.68 -0.07 0.13 0.88 0.14 
542 -0.81 -0.18 -0.94 -0.05 -0.86 0.13 0.96 0.57 
401 0.31 0.36 0.57 0.68 0.36 0.49 -1.04 0.60 
310 -0.65 0.56 0.24 0.16 -0.03 -0.28 0.86 -0.39 
300 -0.74 0.23 -0.89 0.94 0.36 0.92 0.77 0.63 
260 -0.70 0.55 0.99 -0.00 0.60 0.85 -1.01 0.40 
241 -0.86 0.43 0.99 -0.07 0.03 -0.90 0.84 0.14 
240 -0.68 0.23 0.84 0.94 -0.78 0.92 0.77 0.61 
220 -0.68 -0.74 -0.89 -0.06 -0.00 0.49 0.88 0.54 
210 -0.61 0.43 0.99 0.06 0.03 0.67 1.06 0.53 
200 0.82 0.43 0.84 0.68 0.23 0.24 -0.82 0.14 
190 -0.04 -0.27 -0.89 -0.07 0.57 0.80 0.77 0.64 
180 0.28 0.33 0.84 -0.32 0.60 -0.82 0.47 0.63 
180 -0.64 0.24 -0.83 -0.00 0.60 0.78 0.97 0.07 
170 -0.68 0.43 0.21 0.35 -0.00 0.82 0.84 0.63 
150 -0.70 0.23 0.12 0.35 0.17 0.93 0.77 0.14 
140 -0.86 -0.27 -0.86 0.16 -0.81 0.89 0.47 -0.19 
140 0.82 0.25 -0.89 -0.07 -0.72 0.87 0.42 0.23 
130 -0.74 0.35 -0.65 -0.07 0.58 -0.28 0.84 0.68 
120 0.86 0.28 0.12 -0.07 0.99 0.67 0.21 0.40 
110 -0.68 0.36 0.12 -0.06 -0.81 0.78 -0.85 0.53 
110 -0.64 -0.16 0.84 -0.07 0.23 0.65 0.88 0.66 
100 0.32 0.32 -0.56 0.01 -0.00 0.66 0.84 0.14 
90 -0.70 0.62 -0.89 -0.00 0.95 0.89 0.84 0.40 
90 -0.68 -0.13 -0.99 -0.13 0.20 0.99 0.77 0.69 
80 -0.61 0.23 -0.89 0.16 0.28 0.91 0.78 0.69 
70 -0.61 -0.18 -0.54 0.16 0.84 0.92 0.89 0.68 
70 -0.59 0.15 -0.89 -0.00 0.84 0.89 0.84 0.60 

Generation : 8
49330 -0.70 0.62 -0.89 -0.00 0.95 0.89 0.84 0.40 
29551 -0.64 -0.27 -0.89 -0.06 0.84 0.92 0.84 0.68 
27947 -0.64 -0.18 -0.54 -0.06 0.57 0.66 0.47 0.64 
23367 -0.64 -0.18 -0.89 -0.07 0.28 0.86 0.77 0.64 
16707 0.01 0.58 -0.47 -0.12 0.80 0.91 0.85 0.63 
15971 -0.61 0.36 -0.89 -0.07 0.36 0.92 1.06 0.66 
14713 -0.64 -0.18 -0.48 -0.07 0.65 0.82 0.84 0.66 
10785 -0.04 0.33 0.84 -0.00 -0.81 0.78 0.47 0.60 
10233 -0.57 0.30 -0.98 -0.12 0.77 0.24 1.01 0.74 
8216 -0.68 0.60 0.99 -0.06 -0.17 0.89 0.77 0.53 
6363 -0.64 0.36 0.12 -0.07 -0.00 0.13 0.84 0.69 
6293 -0.86 0.33 -0.89 0.68 -0.02 -0.73 0.77 0.68 
5981 -0.71 -0.26 0.12 -0.07 -0.03 0.66 0.89 0.14 
5135 -0.64 0.43 -0.86 0.16 -0.00 0.13 -1.01 0.40 
4782 0.55 0.43 -0.54 0.94 0.81 -0.90 0.88 0.40 
3803 0.55 0.43 -0.89 -0.07 0.95 0.92 0.86 0.40 
3393 -0.68 -0.16 0.24 -0.09 0.36 0.66 0.77 0.63 
3171 -0.52 0.44 -0.68 -0.04 0.90 0.99 0.81 0.48 
2365 0.86 0.43 -0.11 -0.07 0.95 0.49 0.84 0.68 
2244 -0.70 0.49 -0.91 0.09 0.29 0.44 0.84 0.48 
1459 -0.80 0.33 -0.89 -0.07 0.84 0.80 0.47 0.69 
1217 -0.81 0.43 -0.54 -0.07 0.82 0.33 0.88 0.89 
1116 0.28 0.32 0.12 0.35 0.03 -0.73 0.88 -0.06 
1086 -0.87 0.30 -0.83 0.03 -0.26 0.96 0.39 0.88 
814 0.82 0.55 -0.89 0.53 -0.81 0.93 0.77 0.40 
733 -0.64 -0.26 -0.89 0.94 -0.00 0.87 0.77 0.64 
412 -0.83 0.62 0.58 -0.90 0.06 0.52 0.74 0.67 
311 0.85 -0.39 -0.79 -0.68 0.80 -0.30 -0.70 -0.31 
280 -0.91 0.45 -0.96 0.62 0.45 0.86 0.72 0.20 
260 0.28 0.23 0.84 0.16 0.23 0.67 0.42 -0.79 
250 -0.68 0.23 0.99 -0.07 -0.78 -0.90 0.47 0.14 
250 0.82 0.39 0.12 -0.06 0.58 0.80 0.77 0.54 
220 0.31 0.23 0.84 -0.01 0.60 0.67 0.86 0.40 
190 -0.59 0.62 0.84 -0.05 0.23 0.85 0.47 0.45 
170 0.44 0.23 -0.65 -0.00 0.17 -0.28 -0.79 0.68 
140 -0.64 0.39 0.84 -0.06 0.03 0.78 -0.82 -0.23 
130 -0.61 0.15 -0.65 -0.07 -0.00 0.67 0.88 0.23 
120 -0.74 0.44 0.10 -0.89 0.57 0.77 0.92 0.40 
110 0.95 0.32 -0.56 -0.04 0.03 0.92 0.86 0.53 
110 -0.65 0.23 0.84 -0.06 0.23 -0.73 0.84 -0.23 
100 -0.68 0.43 0.12 -0.01 0.28 0.30 0.72 0.14 
100 -0.68 0.43 -0.94 -0.00 0.03 0.13 0.77 0.14 
100 -0.68 -0.13 -0.65 0.01 0.95 0.89 0.72 0.14 
90 -0.86 0.59 -0.54 0.21 0.60 0.49 0.96 0.54 
90 -0.68 0.36 0.12 -0.06 -0.81 0.87 0.84 0.69 
90 -0.70 0.62 -0.89 -0.00 0.95 0.89 0.84 0.40 
80 -0.59 -0.18 -0.54 -0.06 0.57 0.66 0.84 0.87 
80 -0.64 0.59 -0.54 -0.07 0.84 0.86 0.84 0.64 
70 -0.52 0.41 -0.61 -0.14 0.61 0.91 0.47 0.66 
70 -0.64 -0.18 -0.54 -0.06 0.84 0.92 0.77 0.68 

Generation : 9
41133 -0.64 -0.27 -0.89 -0.06 0.84 0.92 0.84 0.68 
22627 -0.64 0.44 -0.54 -0.00 0.95 0.89 0.77 0.48 
20747 -0.64 0.44 -0.89 -0.06 0.95 0.99 0.77 0.48 
19244 -0.70 -0.18 -0.54 -0.00 0.90 0.89 0.77 0.64 
15680 -0.52 0.62 -0.54 -0.07 0.84 0.92 0.81 0.40 
13009 0.01 0.43 0.84 -0.06 -0.00 0.78 0.86 0.40 
11320 -0.68 0.30 0.12 -0.00 0.28 0.13 0.84 0.45 
11249 0.85 0.32 -0.98 0.16 0.58 0.91 0.84 0.64 
10986 -0.86 0.62 0.10 -0.07 0.03 0.66 0.88 0.40 
10532 0.85 0.62 0.84 -0.06 0.57 0.93 1.06 -0.23 
9748 0.28 0.30 -0.54 -0.06 0.84 0.66 0.72 0.54 
9485 0.82 0.44 0.84 -0.06 0.77 0.78 0.39 0.68 
7450 -0.86 0.62 -0.89 -0.07 -0.17 0.33 0.72 -0.23 
6413 0.82 -0.13 -0.83 -0.14 0.81 0.93 0.84 0.64 
5699 -0.68 -0.18 -0.89 -0.06 0.57 0.92 0.96 0.14 
5517 -0.68 0.45 0.12 0.35 -0.00 0.80 -0.70 0.53 
5013 -0.61 0.23 0.84 -0.89 0.95 0.78 0.77 0.40 
4459 -0.68 0.49 -0.83 -0.90 0.03 0.67 0.77 0.63 
4007 -0.64 -0.18 0.84 -0.07 0.84 0.87 0.86 0.48 
3069 -0.57 -0.39 -0.91 0.53 0.36 0.92 0.84 0.20 
2224 -0.68 0.43 -0.47 -0.09 -0.72 0.78 0.78 -0.19 
1368 0.90 0.26 -0.62 -0.03 0.75 0.86 0.76 0.06 
1297 -0.71 0.30 -0.89 -0.07 -0.02 0.30 0.74 0.14 
864 -0.52 0.23 -0.54 0.03 0.60 0.78 0.72 0.40 
693 0.55 0.36 -0.86 0.21 -0.81 0.91 0.89 0.69 
653 0.55 0.62 0.12 -0.06 0.95 0.99 0.77 -0.79 
562 -0.70 0.62 0.12 -0.00 0.23 0.86 0.77 0.20 
372 -0.86 0.30 0.84 -0.12 -0.81 0.87 -0.70 0.74 
280 -0.69 0.26 -0.97 0.67 0.69 0.84 -0.73 0.43 
250 0.82 0.58 -0.65 0.01 -0.81 -0.73 0.47 0.40 
231 -0.68 -0.18 -0.89 0.09 0.36 0.99 0.86 0.68 
230 0.30 0.47 0.80 -0.10 -0.21 0.73 0.73 0.71 
180 -0.64 -0.27 -0.54 -0.07 0.77 0.87 0.88 0.23 
170 -0.64 0.32 -0.65 -0.06 0.03 0.66 0.47 0.40 
170 -0.59 -0.27 -0.56 -0.00 0.84 0.13 0.84 0.14 
160 -0.64 -0.27 0.10 -0.07 0.90 0.66 0.84 0.64 
160 -0.59 0.36 -0.54 -0.07 0.03 0.82 0.84 0.64 
160 0.22 0.17 0.52 -0.68 -0.58 -0.23 -0.76 0.03 
150 -0.53 0.15 -0.90 0.07 -0.73 0.49 0.68 0.73 
130 1.00 -0.22 -0.59 0.02 0.04 0.82 0.77 0.40 
130 0.82 -0.26 0.75 0.38 -0.71 -0.83 0.68 -0.88 
110 0.28 -0.26 0.99 -0.07 0.95 0.99 0.88 0.40 
110 -0.65 0.43 -0.61 -0.01 -0.78 0.92 0.88 0.68 
110 -0.80 -0.39 0.84 -0.07 -0.00 0.66 0.85 0.66 
100 0.36 0.21 -0.65 0.01 0.22 0.91 -0.72 -0.83 
100 -0.64 -0.27 -0.89 -0.06 0.84 0.92 0.84 0.68 
80 -0.64 0.44 -0.89 -0.00 0.90 0.89 0.77 0.48 
80 -0.70 -0.18 -0.68 -0.06 0.84 0.86 0.77 0.48 
80 -0.52 0.62 -0.54 -0.06 0.28 0.99 0.77 0.48 
60 -0.64 -0.18 -0.89 -0.00 0.90 0.99 0.81 0.68 

Generation : 10
32259 -0.64 -0.27 -0.54 -0.07 0.77 0.87 0.88 0.23 
29429 -0.68 -0.18 -0.89 0.09 0.36 0.66 0.86 0.68 
21422 -0.55 -0.12 -0.81 -0.09 -0.04 0.83 0.85 0.77 
19809 -0.68 0.29 -0.32 0.52 -0.37 -0.21 0.51 -0.39 
15399 -0.64 0.32 -0.89 -0.06 0.84 0.99 0.81 0.68 
14997 -0.52 -0.27 -0.54 0.67 -0.17 0.91 0.68 0.20 
14390 0.90 -0.18 0.52 0.53 0.95 0.30 0.81 0.48 
10856 -0.62 -0.36 -0.94 -0.10 0.88 0.23 0.90 0.37 
9294 0.36 0.52 -0.44 -0.19 0.78 0.76 0.84 0.60 
8842 -0.68 0.30 -0.65 -0.06 0.95 0.86 0.86 0.40 
8568 0.85 -0.18 0.75 -0.12 0.90 0.99 0.77 0.68 
8518 -0.70 -0.39 -0.54 -0.00 0.90 0.99 0.84 0.40 
8035 -0.68 -0.18 0.52 -0.07 0.84 0.86 0.47 0.69 
7451 -0.68 -0.18 -0.54 0.07 0.58 0.92 0.77 0.64 
7382 -0.64 -0.26 0.12 0.21 -0.02 0.92 1.06 0.40 
6726 0.41 -0.26 0.15 -0.08 0.87 0.98 0.75 0.52 
5890 0.82 0.30 -0.89 0.38 0.95 0.93 0.72 -0.83 
5639 -0.59 0.49 0.75 0.01 0.90 0.87 0.77 -0.23 
4993 0.82 0.44 0.84 -0.00 0.77 -0.83 0.77 0.48 
4500 -0.64 -0.27 -0.65 -0.00 0.69 0.82 0.84 0.23 
4419 -0.59 0.62 -0.98 0.05 -0.20 0.89 0.85 0.23 
3655 0.01 -0.18 -0.91 -0.00 -0.00 0.99 0.77 0.63 
3169 -0.68 0.21 -0.89 -0.06 0.77 0.80 0.88 0.40 
2294 -0.52 -0.39 -0.97 -0.07 0.84 0.78 -0.73 -0.23 
1992 -0.68 0.62 -0.89 -0.06 0.77 0.92 0.77 0.68 
1912 0.55 0.44 0.84 -0.01 0.95 0.86 0.72 0.64 
1681 -0.23 0.89 0.70 -0.18 0.20 0.67 -0.92 0.25 
1549 0.43 0.45 -0.62 0.04 0.15 0.96 0.97 0.53 
1328 0.30 0.15 -0.54 -0.68 0.77 0.91 0.86 0.68 
663 -0.59 -0.18 -0.54 -0.06 -0.58 0.92 -0.70 0.03 
461 -0.61 -0.18 -0.54 -0.06 0.03 0.84 0.72 0.40 
431 -0.70 0.43 -0.83 -0.07 0.81 0.86 0.77 0.69 
331 -0.59 0.45 -0.61 -0.06 0.36 0.99 0.96 0.48 
310 -0.69 0.62 -0.89 -0.90 0.75 0.91 0.81 0.64 
271 -0.64 -0.18 0.84 0.21 0.84 0.91 0.88 0.40 
251 -0.64 0.21 -0.54 -0.00 -0.00 0.87 0.86 0.63 
200 -0.80 0.62 -0.62 -0.01 0.84 0.89 0.68 0.48 
180 -0.64 -0.13 -0.89 -0.07 0.90 0.33 0.74 0.53 
170 -0.64 -0.27 -0.89 -0.00 0.84 0.91 0.84 0.48 
120 0.01 0.36 -0.59 0.02 0.95 0.99 0.77 0.68 
110 0.82 0.30 -0.65 -0.01 -0.02 0.89 0.68 0.45 
110 0.82 0.62 0.99 -0.00 0.03 0.99 0.84 0.48 
100 0.89 0.72 -0.84 -0.01 -0.73 0.75 0.94 0.63 
100 -0.64 -0.27 -0.89 -0.07 0.81 0.66 0.72 0.40 
90 -0.98 0.63 -0.26 -0.85 0.82 0.91 0.95 0.84 
90 -0.64 -0.27 -0.54 -0.07 0.77 0.87 0.88 0.23 
70 0.06 0.15 -0.78 -0.87 0.89 -0.18 0.65 0.14 
70 -0.64 -0.18 -0.89 -0.06 0.03 0.99 0.47 0.68 
70 -0.68 -0.58 0.46 0.99 -0.97 -0.66 0.69 -0.63 
70 -0.68 0.32 -0.89 -0.06 0.36 0.66 0.81 0.40 

Generation : 11
32794 -0.64 -0.27 -0.65 -0.00 0.69 0.82 0.84 0.23 
24845 -0.64 0.21 -0.26 -0.06 0.77 0.91 0.95 0.68 
24047 -0.60 0.41 -0.90 -0.84 0.76 0.74 0.93 0.19 
19064 -0.62 0.57 -0.45 -0.89 0.87 0.89 0.93 0.44 
15680 -0.64 0.21 -0.89 -0.07 0.77 0.87 0.88 0.40 
14351 0.85 0.21 -0.65 -0.01 -0.04 0.96 0.86 -0.83 
13956 -0.70 -0.18 -0.91 -0.08 -0.02 0.91 0.84 0.68 
13752 -0.64 0.62 -0.54 0.02 -0.37 0.99 0.86 0.48 
12316 -0.52 -0.13 -0.89 0.99 0.82 -0.83 0.97 0.48 
11107 -0.68 -0.13 0.12 0.52 0.84 0.91 0.81 0.37 
10664 -0.63 -0.28 -0.82 0.29 0.86 0.95 0.78 0.68 
10048 0.41 0.62 0.75 0.21 0.90 0.76 0.84 0.48 
9386 -0.70 0.68 -0.55 -0.01 -0.06 0.30 0.77 0.54 
8026 -0.59 -0.18 -0.89 -0.00 0.77 0.91 0.97 0.37 
7804 -1.07 -0.13 -0.55 0.00 -0.80 0.85 0.84 0.67 
7592 -0.47 0.80 -0.94 -0.04 -0.04 0.88 0.52 0.92 
5276 0.36 0.45 -0.89 -0.07 0.84 0.75 0.96 0.40 
5104 -0.55 -0.10 -0.98 0.01 0.80 0.81 0.63 0.45 
4077 -0.52 0.21 -0.89 -0.06 0.81 0.76 0.74 0.48 
4047 -0.77 0.51 -0.34 -0.08 0.76 0.97 0.78 0.30 
3835 -0.68 0.44 0.52 -0.90 0.90 0.86 0.86 0.48 
3181 0.06 -0.18 0.15 -0.01 0.69 0.86 0.47 0.53 
3130 -0.64 -0.18 0.84 0.21 0.89 0.91 0.81 0.48 
2707 0.36 0.52 -0.89 -0.00 -0.20 0.86 0.81 0.23 
1842 -0.70 0.72 0.52 0.01 0.82 0.98 0.86 -0.63 
1720 -0.35 -0.38 0.95 0.61 0.26 0.51 -0.02 -0.38 
804 0.85 -0.39 -0.62 -0.06 0.36 0.87 0.81 0.53 
795 -0.59 0.36 -0.54 -0.00 -0.97 0.99 0.96 0.40 
653 -0.64 0.63 -0.89 -0.19 -0.02 0.91 0.51 0.53 
633 -0.68 0.30 0.84 0.99 0.89 0.91 0.81 0.64 
401 -0.80 0.32 -0.81 -0.06 0.84 0.99 0.84 -0.83 
350 -0.70 -0.18 -0.89 -0.01 -0.58 0.66 0.75 0.45 
281 -0.40 0.65 0.97 0.93 0.06 0.56 -0.53 -0.33 
271 -0.59 -0.18 0.99 -0.07 0.36 -0.18 0.72 0.64 
270 0.12 -0.13 -0.37 0.86 -0.98 -0.19 -0.93 0.68 
240 -0.68 -0.18 0.75 -0.08 -0.00 0.92 0.88 0.68 
200 -0.64 -0.12 -0.89 -0.01 0.84 0.89 0.94 0.77 
160 0.82 0.62 -0.59 -0.18 -0.58 0.92 0.84 0.23 
140 -0.65 -0.17 -0.50 -0.05 0.85 0.89 0.81 0.21 
130 -0.73 0.35 0.75 0.13 0.96 -0.19 0.40 0.88 
110 0.43 -0.18 -0.94 -0.01 0.90 0.99 0.72 0.68 
110 -0.61 -0.13 -0.89 -0.08 0.95 -0.66 0.81 0.69 
110 -0.23 0.21 -0.89 -0.01 0.95 0.66 0.77 0.40 
110 -0.45 -0.24 0.46 0.01 0.73 1.03 0.80 0.46 
100 0.11 -0.73 -0.77 -0.87 -0.84 0.43 -0.81 0.67 
100 -0.64 -0.27 -0.65 -0.00 0.69 0.82 0.84 0.23 
100 -1.00 -0.28 -0.27 -0.06 0.91 0.81 0.87 0.32 
100 -0.64 0.21 -0.89 -0.07 0.77 0.87 0.81 0.40 
100 -0.68 0.21 -0.54 -0.06 0.77 0.99 0.88 0.84 
70 -0.68 -0.27 -0.89 -0.07 0.77 0.80 0.88 0.23 

Generation : 12
34979 -0.68 0.21 -0.54 -0.06 0.77 0.99 0.88 0.84 
27857 -0.23 0.21 -0.89 -0.01 -0.02 0.91 0.84 0.53 
23287 -0.64 -0.27 -0.89 -0.01 0.77 0.91 0.84 0.23 
23284 -0.61 0.23 -0.90 -0.24 -0.09 0.93 0.76 0.41 
21752 -0.64 -0.18 -0.89 -0.00 -0.02 0.82 0.84 0.37 
19939 0.13 -0.20 -0.91 -0.81 -0.46 0.38 0.77 0.18 
18720 -0.80 -0.13 -0.65 -0.00 0.84 0.66 0.81 0.64 
18692 -0.64 -0.18 -0.90 -0.07 -0.20 0.81 0.84 0.68 
17102 -0.64 -0.18 -0.37 -0.00 0.90 0.74 0.74 0.69 
14472 0.01 -0.92 -0.79 0.19 -0.35 -0.95 0.59 -0.16 
13545 0.41 0.62 -0.89 -0.06 0.91 0.86 0.93 0.68 
12819 0.12 0.21 -0.54 -0.07 0.84 -0.83 0.84 0.37 
12335 0.36 0.21 0.52 -0.01 0.36 -0.19 0.84 0.44 
11330 -0.47 -0.18 0.52 -0.89 0.77 0.88 0.84 0.45 
10059 0.86 -0.09 -0.95 -0.10 0.83 0.84 0.90 0.63 
8306 -0.68 -0.10 0.95 0.21 0.76 0.99 0.86 0.84 
7825 -0.64 0.32 -0.89 -0.84 0.87 0.81 0.84 0.64 
6021 -0.64 0.62 -0.54 -0.07 0.26 0.81 0.88 0.45 
4570 -0.68 0.51 -0.90 -0.07 0.69 -0.83 0.81 0.48 
3937 -0.63 0.21 -0.94 0.29 0.84 0.87 0.96 0.40 
3866 -0.61 0.80 0.97 -0.07 -0.98 0.91 0.86 0.19 
2828 -0.64 0.51 -0.89 -0.19 -0.97 0.74 0.93 0.67 
2758 0.12 -0.18 0.46 -0.06 0.89 0.56 0.84 0.46 
2415 -0.55 0.21 -0.89 -0.07 0.36 0.66 0.86 0.68 
1751 -0.64 -0.13 -0.34 -0.18 0.95 0.91 0.81 0.77 
693 0.40 0.81 -0.88 -0.17 0.98 0.84 0.70 0.39 
623 -0.59 0.51 -0.80 1.01 0.86 0.79 0.57 0.19 
583 -0.82 -0.08 -0.23 0.63 0.36 0.55 -0.68 0.11 
583 -0.64 0.32 -0.89 -0.01 0.06 0.76 0.47 0.92 
582 -0.68 -0.13 -0.89 -0.01 0.89 0.86 0.84 0.64 
281 -0.35 0.68 -0.26 0.29 0.77 0.87 0.88 0.30 
260 -0.68 0.21 0.75 -0.87 0.81 0.56 0.88 0.19 
240 -0.93 -0.35 -0.94 -0.01 0.64 0.94 0.62 0.38 
230 0.31 0.39 -0.46 -0.94 0.90 0.76 -0.72 0.20 
230 -1.07 0.21 -0.89 -0.00 -0.84 0.76 0.88 0.69 
220 -0.64 -0.39 -0.94 -0.04 0.06 -0.18 0.84 -0.83 
190 -0.68 0.28 -0.86 -0.00 0.86 0.93 0.80 0.84 
170 -0.23 0.62 0.95 -0.07 -0.20 0.97 0.81 0.69 
130 0.82 0.72 -0.45 -0.07 0.87 0.51 0.78 0.53 
130 0.43 0.84 -0.38 0.79 -0.16 0.30 0.52 -0.92 
120 -0.92 0.27 -0.67 0.06 -0.04 0.99 0.96 0.56 
110 -0.64 0.30 -0.54 0.52 0.90 0.92 0.51 0.48 
110 -0.60 -0.13 -0.89 0.01 0.89 0.99 0.97 0.68 
110 -0.25 -0.31 0.54 0.95 -0.08 0.75 0.82 0.64 
90 0.43 0.44 0.97 0.99 0.69 0.95 0.81 0.21 
90 -0.68 0.21 -0.54 -0.06 0.77 0.99 0.88 0.84 
90 -0.67 0.15 -0.57 0.06 0.68 0.58 0.90 0.30 
80 -0.23 -0.27 -0.89 -0.00 -0.02 0.66 0.77 0.37 
70 -0.72 0.29 -0.97 0.06 0.90 0.68 0.47 0.56 
70 -0.23 -0.18 -0.89 -0.00 -0.02 0.82 0.77 0.40 

Generation : 13
41122 -0.60 -0.13 -0.89 0.01 0.89 0.99 0.97 0.68 
35960 -0.64 -0.18 -0.89 -0.84 0.87 0.66 0.84 0.64 
34803 -0.64 -0.18 -0.89 -0.07 0.87 0.74 0.86 0.23 
34798 -0.55 -0.15 -0.40 -0.03 0.89 0.68 0.75 0.29 
29028 -0.64 0.21 -0.37 -0.00 0.77 0.91 0.84 0.69 
20844 -0.64 0.51 -0.95 -0.89 0.90 0.82 0.84 0.39 
17786 0.41 0.51 -0.54 -0.01 -0.09 0.76 0.70 0.40 
16628 -0.68 0.72 -0.89 0.06 -0.08 0.66 0.86 0.77 
14412 -0.23 -0.13 -0.89 -0.00 0.06 0.87 0.47 0.18 
13223 -0.55 0.51 -0.88 0.52 0.86 -0.18 0.84 0.68 
11823 -0.58 -0.11 -0.82 -0.10 0.94 1.02 0.86 0.65 
11026 0.12 0.28 -0.54 0.29 0.77 0.30 -0.68 0.48 
10311 -0.64 -0.27 -0.89 -0.01 0.77 -0.19 0.97 0.11 
9888 0.40 0.21 -0.54 -0.01 0.90 0.76 0.77 -0.83 
9476 -0.68 -0.13 -0.26 -0.01 0.89 0.30 0.84 0.41 
9311 -0.72 -0.18 -0.79 0.29 0.69 0.93 0.88 0.19 
8861 -0.64 0.21 0.52 -0.17 0.89 0.92 0.88 0.45 
7139 -0.64 0.15 -0.54 -0.04 0.84 0.79 0.97 0.37 
6777 -0.61 -0.18 -0.89 0.06 0.76 0.51 0.78 0.84 
6505 0.40 -0.92 -0.67 -0.87 0.84 0.93 0.88 0.64 
4842 -0.64 0.39 -0.79 -0.87 -0.20 0.56 0.84 0.37 
4662 0.86 -0.92 0.95 -0.01 0.69 0.99 0.84 0.68 
4046 -0.63 -0.21 0.55 0.07 0.82 0.98 0.76 0.73 
3362 0.86 -0.27 -0.80 -0.24 0.69 0.55 0.86 0.64 
3050 -0.68 0.96 0.11 -0.91 -0.25 0.01 -0.03 -0.53 
2759 0.36 -0.07 -0.80 -0.01 0.70 0.91 0.88 0.77 
1963 -0.23 0.21 -0.89 -0.07 -0.20 0.86 0.93 0.56 
1902 0.31 -0.18 -0.54 0.29 0.69 0.76 0.76 0.19 
693 -0.23 -0.18 -0.26 0.79 0.77 0.93 0.80 0.67 
472 0.40 0.32 -0.94 -0.84 0.77 0.81 0.84 0.67 
320 0.29 0.28 0.99 -0.01 0.26 0.56 0.62 0.34 
311 -0.64 0.32 -0.37 -0.00 0.91 0.55 0.86 0.63 
271 -0.25 -0.13 -0.89 -0.01 0.36 0.56 0.81 0.64 
250 -0.64 -0.31 -0.65 0.21 0.89 0.86 0.77 0.30 
231 0.40 -0.13 0.52 -0.24 -0.04 -0.18 0.52 0.68 
220 -0.61 0.29 -0.94 -0.84 0.76 -0.19 0.88 0.40 
220 -0.61 0.51 -0.89 0.29 -0.09 0.86 0.84 0.68 
220 0.01 -0.18 -0.89 0.01 -0.02 0.94 0.52 0.56 
220 0.01 0.21 -0.95 -0.07 0.95 0.88 0.47 0.38 
180 -0.67 -0.13 -0.89 -0.00 -0.02 0.79 0.84 0.19 
170 -0.47 0.72 0.95 0.29 -0.04 0.68 0.47 0.68 
170 0.11 0.86 -0.85 -0.32 -0.48 0.70 -0.16 -0.63 
140 0.13 0.80 -0.26 -0.84 0.77 0.76 0.84 0.19 
140 -0.64 -0.13 0.52 -0.01 -0.09 -0.83 0.84 0.30 
140 0.13 -0.13 0.54 0.06 0.77 -0.18 0.88 0.48 
130 -0.60 -0.13 -0.89 0.01 0.89 0.99 0.97 0.68 
120 -0.64 -0.27 -0.89 -0.01 0.77 0.91 0.84 0.23 
100 -0.64 -0.18 -0.37 -0.01 0.36 0.81 0.84 0.69 
90 -0.78 0.57 -0.95 -0.69 0.01 0.10 -0.35 0.61 
80 -0.55 0.21 -0.89 -0.00 0.77 0.66 0.74 0.23 

Generation : 14
204577 -0.64 -0.27 -0.89 -0.01 0.77 0.91 0.84 0.23 
37317 -0.25 -0.18 -0.37 -0.87 0.36 0.93 0.84 0.64 
33358 -0.64 -0.92 -0.37 -0.89 0.36 0.56 0.88 0.39 
21170 -0.64 -0.92 -0.37 -0.89 0.90 0.81 0.84 0.69 
16063 -0.64 -0.13 -0.95 -0.01 0.90 0.81 0.84 0.64 
15942 -0.56 -0.26 -0.48 -0.09 0.76 0.55 0.78 0.59 
15024 -0.32 0.76 -0.01 -0.50 -0.11 0.34 0.52 0.81 
14743 -0.61 -0.13 -0.54 0.06 0.95 0.86 0.86 0.68 
13495 0.85 -0.03 -0.85 -0.24 0.78 -0.11 0.84 0.77 
9164 -0.78 -0.13 -0.40 0.29 0.77 -0.18 0.77 0.19 
6303 -0.64 0.51 -0.54 -0.24 0.84 0.99 0.84 0.19 
6031 0.47 0.33 -0.41 0.06 0.90 -0.26 0.76 0.67 
4833 0.40 -0.18 -0.82 0.07 0.84 0.76 0.88 0.30 
4500 0.11 -0.13 -0.89 0.06 -0.20 0.93 0.84 0.11 
3644 -0.63 -0.13 -0.89 0.07 0.87 0.10 -0.35 0.11 
3241 -0.23 0.57 0.11 0.29 0.84 0.55 0.88 0.61 
2687 -0.23 0.32 -0.89 -0.07 -0.48 0.81 0.86 0.23 
2224 -0.55 0.32 -0.79 0.06 0.77 0.70 0.52 0.40 
1871 -0.64 0.51 -0.94 -0.00 0.77 0.99 0.47 -0.83 
1862 -0.64 -0.11 -0.89 0.79 0.69 0.81 0.84 0.23 
1841 -0.64 -0.13 -0.89 -0.01 0.77 0.68 0.86 0.56 
1811 -0.64 -0.31 -0.89 0.29 -0.48 0.56 0.88 0.69 
1770 0.40 0.86 -0.54 -0.89 0.26 0.56 0.84 0.67 
1549 0.82 0.98 -0.99 -0.13 -0.51 0.94 0.74 0.21 
1207 0.41 0.21 0.52 -0.84 0.77 0.86 0.84 0.48 
1167 -0.61 0.39 -0.54 0.06 0.77 0.93 0.88 0.69 
946 0.40 -0.18 -0.94 -0.24 -0.09 0.51 0.84 0.41 
925 -0.64 -0.18 -0.89 0.01 0.70 0.76 0.84 0.48 
784 -0.23 -0.18 0.52 -0.87 0.86 0.74 0.77 0.69 
714 0.01 -0.27 -0.95 -0.24 0.36 0.10 0.84 0.37 
714 0.42 -0.15 -0.99 0.33 0.94 0.94 0.95 0.43 
704 0.18 -0.16 0.60 0.09 1.00 0.52 0.89 0.71 
674 -0.56 -0.23 -0.74 -0.17 0.40 0.82 0.83 0.70 
502 0.43 -0.13 -0.88 -0.15 -0.18 1.01 0.69 0.74 
351 -0.64 -0.13 -0.79 -0.01 0.77 0.10 0.70 0.77 
301 0.41 -0.07 -0.89 0.29 0.89 0.56 0.88 0.68 
291 -0.60 1.05 -0.75 0.10 0.74 0.47 0.95 0.76 
281 0.43 -0.33 0.45 0.09 0.75 0.98 0.90 0.68 
261 -0.64 0.39 -0.89 0.01 0.89 0.93 0.86 -0.83 
241 -0.55 0.51 -0.89 0.01 0.69 0.87 0.86 0.30 
230 -0.64 -0.18 -0.54 -0.00 0.94 0.55 -0.03 0.68 
221 0.13 -0.27 -0.26 -0.01 0.87 0.93 0.86 0.77 
190 -0.13 0.29 -0.97 -0.11 -0.38 -0.01 0.50 -0.85 
180 -0.64 0.51 -0.37 0.29 -0.04 0.81 0.93 0.40 
180 0.31 -0.13 0.52 -0.69 0.89 0.93 0.70 0.41 
120 -0.64 -0.27 -0.89 -0.01 0.77 0.91 0.84 0.23 
120 0.40 -0.92 -0.37 -0.01 0.84 0.56 0.84 0.64 
100 0.40 -0.18 -0.67 -0.87 0.36 0.56 0.81 0.69 
90 0.40 0.51 -0.37 -0.01 0.36 0.81 0.84 0.64 
80 -0.23 -0.12 -0.97 -0.79 0.80 0.80 0.95 0.69 

Generation : 15
86393 -0.64 -0.92 -0.37 -0.89 0.36 0.56 0.88 0.39 
61386 -0.50 -0.10 -0.43 -0.88 0.82 0.81 0.84 0.74 
47829 -0.64 -0.18 -0.54 -0.09 0.36 0.55 0.78 0.19 
45834 -0.79 -0.69 -0.80 0.54 0.82 -0.03 0.45 0.18 
30337 -0.64 -0.92 -0.48 -0.09 0.36 0.55 0.84 0.69 
27958 -0.61 -0.26 -0.79 0.09 -0.11 0.81 0.86 -0.83 
24535 -0.64 -0.31 -0.54 0.07 0.36 0.56 0.84 0.43 
17301 0.43 -0.18 -0.89 0.01 0.77 0.56 0.84 0.68 
14039 0.39 0.91 -0.47 -0.01 0.97 0.95 0.77 0.51 
12297 -0.78 -0.16 -0.89 -0.01 -0.51 0.56 0.88 -0.83 
9910 0.42 -0.13 -0.79 0.79 0.77 1.01 0.86 0.43 
7422 -0.64 -0.18 -0.37 -0.24 0.77 0.56 0.84 0.68 
4953 0.40 -0.31 -0.95 -0.50 0.77 0.56 0.70 0.23 
3936 -0.64 -0.16 -0.94 -0.24 0.94 0.10 -0.03 -0.85 
3684 -0.64 0.32 -0.67 -0.89 0.69 0.93 0.84 0.23 
3543 -0.73 0.54 -0.59 -0.04 0.73 -0.17 0.74 0.70 
3362 0.35 -0.10 -0.48 -0.96 0.48 0.81 0.88 0.61 
2759 -0.31 -0.30 0.44 -0.08 0.28 0.09 0.90 0.59 
2748 0.13 0.39 -0.54 -0.17 0.89 0.70 0.84 0.69 
2254 0.51 -0.08 -0.96 -0.89 0.94 -0.24 1.03 0.70 
2245 0.43 -0.92 -0.54 0.07 1.00 0.86 0.74 0.77 
2194 -0.32 -0.12 -0.89 -0.15 0.36 0.76 0.84 0.64 
1440 0.43 -0.13 -0.85 0.01 0.77 1.01 0.86 0.69 
1378 0.81 0.69 -0.05 -0.12 -0.26 0.87 -0.20 -0.13 
1298 -0.64 -0.13 -0.37 -0.09 0.89 0.55 0.84 0.19 
1177 0.40 -0.18 -0.37 -0.69 0.74 0.93 0.89 0.74 
1147 -0.61 0.76 -0.99 -0.01 0.26 0.81 0.84 0.48 
855 0.40 0.51 -0.01 -0.69 0.75 0.87 0.86 0.69 
743 -0.26 -0.17 -0.40 -0.04 0.73 0.84 0.90 0.18 
714 -0.23 -0.26 -0.54 -0.79 -0.18 0.56 0.84 0.23 
654 -0.23 0.32 -0.89 -0.17 -0.18 0.93 0.77 -0.83 
612 -0.65 -0.03 -0.41 -0.90 0.70 0.75 0.80 0.66 
582 -0.23 -0.11 -0.54 -0.11 0.36 -0.11 0.81 0.43 
573 -0.55 -0.18 -0.37 0.06 0.86 0.91 -0.03 0.56 
522 -0.64 -0.18 -0.85 0.07 0.80 0.81 0.89 0.68 
432 0.47 0.57 -0.79 -0.50 0.84 0.94 -0.03 0.69 
341 -0.78 0.86 -0.89 0.01 0.87 -0.01 0.84 0.59 
291 0.42 -0.13 -0.54 -0.07 0.89 0.55 0.95 0.19 
291 -0.60 -0.27 -0.94 0.14 0.92 0.75 0.88 0.38 
281 -0.64 0.76 -0.94 -0.15 0.94 0.55 0.52 0.48 
260 -0.64 0.86 -0.40 0.06 -0.18 0.81 0.86 0.21 
250 -0.64 -0.13 0.52 0.29 -0.20 0.81 0.88 0.76 
250 0.18 -0.33 -0.89 0.01 0.94 0.70 0.86 0.64 
190 -0.23 -0.13 -0.97 -0.79 0.78 0.74 0.84 -0.83 
140 -0.23 -0.07 -0.37 -0.17 0.77 -0.18 0.84 0.30 
140 0.73 0.44 0.60 -0.24 0.68 -0.06 -0.38 -0.85 
130 -0.56 -0.18 -0.37 -0.24 0.90 0.55 0.78 0.59 
120 -0.70 -0.36 -0.58 -0.19 0.86 0.95 0.74 0.71 
80 -0.64 -0.18 -0.48 -0.87 0.90 0.81 0.78 0.59 
80 -0.61 0.43 -0.42 -0.23 0.84 0.88 0.82 0.61 

Generation : 16
65115 -0.64 -0.18 -0.48 -0.87 0.90 0.81 0.78 0.59 
56029 -0.60 -0.92 -0.54 -0.90 0.92 0.75 0.88 0.39 
55865 -0.58 -0.88 -0.43 0.19 0.63 0.78 0.83 0.10 
49099 -0.67 -0.28 -0.44 -0.93 0.34 0.69 0.83 0.75 
44694 -0.64 -0.27 -0.94 -0.89 0.70 0.75 0.88 0.19 
23676 -0.55 -0.72 -0.06 0.44 -0.86 0.23 -0.03 -0.10 
22941 -0.64 -0.13 -0.48 -0.24 0.80 0.81 0.84 0.59 
19721 -0.61 0.69 -0.54 0.06 0.77 0.56 0.86 -0.85 
17180 -0.73 -0.27 -0.95 -0.01 0.80 0.81 0.84 0.18 
14250 -0.59 -0.11 -0.27 -0.20 0.81 0.78 0.94 0.77 
13212 0.05 -0.75 -0.92 -0.22 0.86 -0.07 0.85 0.41 
12355 -0.55 0.39 -0.54 -0.79 0.84 0.94 0.74 0.21 
11732 -0.74 0.21 -0.87 -0.65 -0.43 -0.08 -0.95 -0.53 
11431 0.35 -0.31 -0.42 -0.96 0.94 1.01 0.88 -0.83 
10816 0.13 -0.92 -0.54 -0.15 0.70 0.55 0.88 0.59 
8449 -0.57 -0.10 0.50 0.73 0.22 0.60 0.91 0.70 
8075 -0.64 -0.13 -0.79 -0.15 -0.18 0.76 0.84 0.69 
7814 -0.61 -0.18 -0.79 -0.09 0.77 -0.18 0.86 0.69 
6414 -0.64 -0.19 -0.83 -0.87 0.96 0.79 0.90 0.24 
5800 -0.64 -0.08 -0.05 -0.89 0.48 0.86 0.52 0.59 
5115 -0.64 -0.03 -0.79 -0.79 0.94 0.93 0.88 0.59 
3080 -0.23 -0.18 -0.54 -0.19 0.36 0.56 0.90 0.61 
2768 0.18 0.39 -0.89 -0.24 0.94 1.01 -0.03 0.69 
2184 0.35 0.57 -0.89 0.07 0.84 0.56 0.78 0.23 
1689 0.13 -0.13 -0.99 -0.04 0.94 -0.24 0.88 0.59 
904 0.43 -0.18 -0.85 0.01 0.78 0.75 -0.03 0.19 
693 0.13 -0.24 -0.95 -0.02 -0.21 0.90 0.92 0.59 
412 -0.61 0.93 -0.70 -0.15 0.70 0.79 0.83 -0.93 
412 0.40 0.86 -0.89 -0.50 0.36 0.70 -0.20 0.64 
382 -0.55 0.70 0.50 -0.45 0.88 0.79 0.74 0.72 
331 -0.31 -0.11 -0.89 -0.24 0.92 0.56 0.81 0.59 
331 0.47 -0.18 -0.89 0.01 0.73 0.94 0.90 -0.13 
290 -0.64 -0.27 -0.89 -0.17 0.77 0.55 0.77 -0.83 
281 0.39 -0.18 -0.79 -0.24 0.84 -0.24 0.89 -0.13 
280 0.39 -0.13 -0.40 -0.11 -0.18 0.81 0.81 0.43 
251 0.35 -0.26 -0.43 -0.24 -0.26 0.76 -0.03 -0.13 
250 -0.32 -0.13 -0.79 -0.09 0.36 0.09 0.86 0.69 
240 -0.23 0.76 -0.43 0.09 -0.26 -0.24 0.84 0.21 
210 0.21 -0.20 -0.99 -0.24 0.85 0.58 0.76 0.37 
180 -0.61 0.44 -0.37 -0.24 0.77 0.55 0.77 0.68 
180 -0.64 -0.26 0.52 -0.50 0.89 0.09 -0.03 -0.83 
170 0.43 0.44 -0.94 0.09 0.87 0.93 0.86 0.68 
160 0.43 0.43 -0.37 -0.69 0.90 -0.18 0.88 0.61 
160 0.43 -0.18 -0.37 0.07 0.82 0.81 0.45 0.38 
130 -0.35 -0.09 -0.99 0.15 0.65 0.93 0.87 0.39 
120 -0.64 -0.18 -0.48 -0.87 0.90 0.81 0.78 0.59 
100 -0.64 -0.03 -0.41 0.14 0.92 0.75 0.88 0.38 
90 -0.05 0.02 0.66 0.13 0.93 0.18 -0.38 -0.32 
90 -0.64 -0.92 -0.37 -0.09 0.36 0.56 0.88 0.66 
70 -0.64 -0.18 -0.94 -0.09 0.92 0.75 0.80 0.66 

Generation : 17
161987 -0.55 0.39 -0.54 -0.79 0.84 0.94 0.74 0.21 
147473 -0.67 -0.28 -0.94 -0.90 0.70 0.93 0.88 0.19 
123451 -0.64 -0.27 -0.44 -0.79 0.92 0.75 0.83 0.19 
95543 -0.64 -0.92 -0.54 -0.89 0.34 0.75 0.88 0.75 
78327 -0.60 -0.03 -0.79 -0.89 0.92 0.93 0.88 0.19 
41575 0.39 0.39 -0.54 -0.15 0.89 -0.24 0.88 0.39 
39325 -0.55 -0.18 -0.79 -0.50 0.94 0.79 0.84 0.18 
36575 0.18 -0.03 -0.79 -0.93 -0.26 -0.07 0.88 -0.13 
33611 -0.64 -0.13 -0.54 -0.69 0.88 0.55 0.84 -0.85 
32016 0.39 -0.26 -0.79 0.07 -0.43 0.81 0.90 0.72 
24060 0.43 -0.75 -0.48 -0.50 0.94 1.01 0.52 -0.32 
21924 -0.38 -0.23 -0.53 0.04 0.40 0.61 0.69 0.29 
15419 -0.67 -0.26 -0.85 0.13 -0.18 0.75 0.74 0.64 
14833 -0.64 -0.18 -0.99 -0.09 0.70 0.56 0.91 0.59 
13011 0.13 -0.28 -0.41 -0.15 0.36 -0.18 -0.38 -0.13 
12577 0.13 0.44 0.50 -0.24 0.36 0.56 -0.03 0.64 
8922 0.18 -0.11 -0.79 -0.15 0.92 0.56 0.84 0.19 
5387 -0.64 -0.92 -0.40 -0.45 0.92 0.56 -0.03 0.59 
5124 -0.65 0.86 -0.55 -0.16 0.41 0.70 0.89 0.31 
5113 0.43 -0.18 -0.99 -0.24 0.36 0.79 0.86 0.69 
4802 -0.74 -0.18 -0.54 -0.96 0.90 1.01 0.88 -0.10 
3844 -0.66 -0.27 -0.48 -0.93 -0.33 -0.13 0.87 0.60 
3624 -0.57 0.70 -0.37 -0.79 0.22 0.55 0.86 -0.13 
3140 -0.64 -0.92 -0.79 -0.15 0.77 0.78 0.88 0.59 
3041 -0.20 -0.97 0.86 0.53 0.46 0.10 0.19 -0.27 
2657 0.39 -0.26 -0.05 -0.15 0.80 1.01 -0.03 0.38 
2426 -0.64 -0.18 -0.48 -0.24 0.92 -0.18 0.84 0.39 
2346 -0.64 0.93 -0.89 -0.24 0.94 0.81 0.88 0.69 
995 -0.64 -0.11 0.50 0.09 0.92 0.75 -0.95 0.59 
784 -0.73 -0.08 -0.54 -0.79 0.36 0.86 0.87 0.70 
653 -0.49 -0.85 -1.00 -0.19 0.89 0.89 0.87 0.61 
461 0.39 -0.11 0.50 -0.50 0.73 0.70 0.88 0.61 
421 -0.58 -0.09 -0.40 -0.79 0.90 0.90 0.90 0.39 
421 -0.64 -0.19 -0.83 -0.09 0.85 0.79 -0.03 -0.13 
412 -0.23 0.44 -0.89 0.07 0.92 0.81 0.88 0.77 
371 -0.65 0.87 -0.44 -0.13 0.81 -0.16 0.01 -0.25 
310 0.21 -0.13 0.66 -0.02 -0.21 0.75 0.77 0.43 
241 -0.67 0.02 -0.37 -0.79 -0.86 0.70 0.84 0.59 
190 -0.73 -0.16 0.46 -0.10 0.80 1.01 0.75 0.09 
180 -0.74 -0.26 -0.42 -0.89 -0.21 0.75 0.81 0.59 
170 -0.61 -0.75 -0.37 -0.15 0.84 -0.18 0.86 -0.83 
160 -0.69 -0.22 -0.84 0.18 0.89 0.08 0.93 0.57 
150 -0.32 0.44 -0.06 -0.04 0.70 -0.24 0.89 0.59 
130 0.40 0.70 0.52 -0.89 0.78 0.79 0.88 0.59 
120 -0.32 -0.09 -0.41 -0.15 -0.21 0.75 -0.95 -0.10 
120 -0.55 0.39 -0.54 -0.79 0.84 0.94 0.74 0.21 
100 -0.64 -0.28 -0.79 -0.90 0.94 0.93 0.83 0.19 
100 -0.64 -0.03 -0.44 -0.93 0.92 0.69 0.88 0.19 
90 -0.64 -0.28 -0.94 -0.89 0.34 0.75 0.83 0.75 
80 -0.67 -0.28 -0.54 -0.90 0.70 0.75 0.88 0.19 

Generation : 18
195469 -0.67 -0.28 -0.54 -0.90 0.70 0.75 0.88 0.19 
84698 -0.64 -0.13 -0.54 -0.89 0.84 0.75 0.84 -0.85 
83460 -0.60 -0.92 -0.54 -0.69 0.92 0.94 0.88 -0.85 
62264 -0.64 -0.92 -0.54 -0.69 0.34 0.94 0.84 0.19 
47062 -0.64 0.39 -0.54 -0.79 0.84 0.93 0.74 0.19 
40378 -0.59 -0.09 -0.91 -0.91 -0.45 0.77 0.66 0.74 
33461 -0.74 -0.28 -0.99 -0.79 0.34 0.10 0.84 0.19 
30447 -0.67 -0.16 -0.48 -0.15 0.40 1.01 0.19 0.19 
28936 -0.69 -0.22 -0.37 -0.89 0.92 0.86 0.84 0.75 
21993 -0.39 -1.01 -0.04 -0.80 0.97 -0.10 -0.01 0.52 
18904 0.13 0.70 -0.79 -0.09 0.41 0.69 0.52 0.38 
17343 0.43 0.86 -0.83 -0.89 0.22 1.01 0.88 -0.32 
16529 -0.65 -0.16 -0.79 0.07 -0.86 0.78 0.69 -0.85 
7894 0.18 -0.28 -0.55 -0.13 0.70 -0.16 0.74 0.19 
7390 -0.32 -0.18 -0.79 -0.15 0.92 1.01 0.84 0.59 
7361 -0.62 -0.11 -0.31 -0.89 0.82 -0.19 -0.00 -0.39 
7179 -0.67 -0.19 0.50 -0.24 0.77 -0.18 0.87 0.60 
6554 0.13 -0.09 -0.54 -0.79 0.92 0.75 0.84 -0.32 
6332 0.21 -0.08 -0.44 -0.15 -0.18 -0.07 0.75 0.31 
5729 -0.55 -0.26 -0.79 0.18 0.92 -0.18 0.93 0.43 
4882 -0.64 0.86 -0.48 -0.02 0.92 0.55 0.88 0.19 
4652 -0.64 -0.27 -0.37 -0.15 0.84 -0.07 -0.03 0.59 
3321 -0.72 0.78 -0.55 -0.11 0.87 1.07 0.78 0.25 
2638 -0.55 -0.28 -0.06 -0.50 0.94 0.79 0.86 0.59 
2114 -0.67 -0.11 -0.54 -0.45 -0.43 -0.18 0.91 0.59 
2002 -0.64 -0.26 -0.79 -0.15 0.81 0.61 0.87 -0.13 
1740 0.15 -0.23 0.52 0.98 -0.11 0.07 0.41 -0.89 
985 -0.57 0.02 -0.48 0.13 0.70 0.93 -0.95 0.19 
633 0.40 0.70 -0.37 0.09 0.90 -0.13 0.69 0.09 
602 0.11 -0.91 -0.48 -0.73 0.97 -0.22 0.88 0.77 
472 0.53 -0.16 -0.57 0.02 -0.23 0.70 0.00 0.61 
441 -0.74 -0.18 -0.79 -0.15 0.34 -0.18 -0.03 0.77 
441 -0.64 -0.13 -0.55 -0.79 0.94 -0.24 0.88 0.39 
391 -0.55 0.44 -0.85 -0.90 -0.26 0.75 0.88 0.59 
391 0.43 -0.92 -0.84 -0.04 0.34 0.75 0.84 0.72 
351 -0.65 -0.18 0.50 -0.15 -0.21 -0.13 0.88 0.38 
281 -0.73 0.44 -0.54 -0.09 -0.21 0.86 0.88 0.69 
271 -0.67 -0.75 0.50 -0.15 0.94 0.75 0.84 0.77 
240 -0.65 -0.26 -0.44 -0.04 0.40 0.75 0.83 0.69 
200 -0.64 -0.16 -0.41 -0.15 0.94 1.01 0.83 0.39 
190 0.21 -0.75 0.50 -0.89 -0.21 -0.18 0.83 0.43 
180 -0.32 0.02 -0.54 -0.10 0.22 0.89 0.88 0.59 
170 -0.55 0.33 -0.87 -0.94 0.75 0.49 0.86 0.84 
130 0.38 -0.05 0.98 -0.54 -0.05 -0.39 -0.93 0.50 
120 -0.64 -0.28 -0.48 -0.89 0.94 0.70 0.75 0.19 
110 0.71 0.03 -0.08 0.87 0.28 0.79 0.07 0.86 
90 0.38 0.02 0.82 -0.40 -0.87 -0.14 -0.50 -0.23 
80 -0.60 -0.03 -0.54 -0.89 0.92 0.94 0.84 0.21 
80 -0.64 -0.13 -0.54 -0.89 0.88 0.94 0.88 0.21 
70 -0.64 -0.03 -0.79 -0.89 0.84 0.75 0.74 -0.85 

Generation : 19
158731 -0.64 -0.28 -0.48 -0.89 0.94 0.70 0.75 0.19 
97609 -0.67 -0.22 -0.54 -0.90 0.70 0.94 0.88 0.19 
82081 -0.60 -0.28 -0.37 -0.89 0.92 0.86 0.88 -0.85 
74777 -0.69 -0.92 -0.54 -0.89 0.92 0.94 0.84 -0.85 
57157 -0.70 -0.04 -0.38 -0.81 0.60 0.96 0.74 0.23 
55405 -0.62 0.70 -0.84 -0.15 -0.21 0.75 0.83 0.75 
47810 -0.96 -0.98 0.22 0.71 -0.56 0.22 0.93 -0.53 
24493 -0.79 -0.28 -0.35 0.96 0.95 0.73 -0.85 0.16 
23798 -0.59 0.70 -0.57 -0.89 -0.23 0.79 -0.01 0.86 
10551 -0.64 -0.13 0.82 0.07 0.34 0.93 -0.95 0.09 
7842 -0.74 -0.28 0.50 -0.09 -0.87 0.70 0.07 0.19 
6455 -0.50 0.90 -0.47 -0.87 0.95 -0.12 0.76 -0.83 
4340 0.38 -0.18 -0.83 -0.89 0.34 0.75 0.84 -0.32 
4329 0.13 0.44 0.50 0.18 0.90 -0.18 0.69 -0.32 
3924 -0.39 -0.11 -0.79 -0.15 -0.86 0.69 0.88 0.59 
3674 0.13 -0.27 -0.04 -0.15 0.40 0.89 0.84 0.72 
2878 -0.67 0.83 -0.54 -0.81 0.77 0.77 0.78 -0.31 
2324 -0.60 -0.75 0.75 -0.14 0.85 -0.06 0.96 0.51 
1278 -0.60 0.78 0.98 -0.54 0.94 0.75 0.88 0.59 
885 -0.67 0.78 -0.91 -0.94 0.81 1.07 0.84 -0.32 
723 0.11 -0.66 -0.91 -0.77 0.40 0.68 0.81 0.31 
683 -0.61 -0.08 -0.89 -0.94 0.31 -0.12 -0.05 0.49 
502 0.38 -0.13 -0.48 -0.04 0.92 0.79 0.00 0.69 
481 0.18 -0.11 0.50 -0.80 0.84 -0.07 0.88 0.31 
401 -0.55 -0.05 -0.08 0.09 0.34 -0.22 0.88 0.21 
371 0.45 -0.20 0.28 0.33 0.33 0.29 -0.98 -0.72 
291 -0.63 -0.29 -0.85 -0.05 -0.20 -0.21 0.82 0.59 
260 -0.52 -0.06 -0.32 -0.08 0.85 0.49 0.74 0.25 
250 0.36 -0.14 -0.54 -0.19 -0.45 0.95 0.80 -0.79 
221 0.13 0.78 0.82 -0.11 0.70 0.94 0.66 0.21 
210 -0.62 -0.04 -0.46 -0.10 -0.16 1.08 0.05 0.62 
210 -0.74 -0.26 -0.91 0.18 0.88 -0.13 0.52 -0.32 
210 -0.54 -0.56 -0.64 -0.05 0.51 -0.65 -0.92 -0.98 
210 -0.64 0.02 -0.54 0.98 0.87 -0.13 0.84 0.19 
210 0.05 -0.44 -0.53 0.70 -0.17 -0.56 0.39 -0.32 
200 -0.64 -0.75 -0.06 0.87 0.94 0.86 0.88 0.19 
180 -0.10 0.07 -0.06 0.91 0.60 0.37 0.51 0.79 
170 -0.12 -0.71 -0.26 -0.62 -0.83 0.21 -0.65 0.81 
160 -0.74 -0.28 -0.44 0.02 0.34 -0.18 0.83 0.69 
160 -0.55 -0.18 0.98 -0.79 0.70 0.75 -0.00 0.09 
150 0.43 -0.28 -0.54 -0.79 0.92 -0.24 0.87 0.43 
140 -0.60 -0.11 -0.37 -0.04 0.34 -0.18 0.84 0.19 
130 -0.61 -0.12 -0.37 -0.88 0.41 -0.24 0.38 0.65 
110 0.43 -0.27 -0.31 -0.40 0.81 0.75 0.19 -0.23 
110 0.21 0.70 -0.37 -0.15 0.94 0.75 0.88 0.61 
110 -0.64 -0.28 -0.48 -0.89 0.94 0.70 0.75 0.19 
90 -0.50 -0.01 -0.56 -0.63 0.86 0.85 0.80 0.85 
90 -0.60 -0.22 -0.54 -0.90 0.92 0.75 0.88 -0.85 
80 -0.69 -0.28 -0.37 -0.90 0.92 0.86 0.84 -0.85 
80 -0.07 -0.58 0.57 -0.24 -0.67 -0.10 0.03 -0.26 

Generation : 20
451508 -0.64 -0.28 -0.48 -0.89 0.94 0.70 0.75 0.19 
71423 -0.60 -0.01 -0.37 -0.90 0.86 0.86 0.84 0.85 
61647 -0.67 -0.01 -0.54 -0.90 0.92 0.85 0.88 -0.85 
54326 -0.67 -0.28 -0.56 -0.63 0.70 0.86 0.88 0.85 
43210 -0.60 -0.22 -0.37 -0.89 0.92 0.94 0.88 0.85 
30499 -0.67 -0.98 0.98 -0.79 0.92 0.95 0.88 -0.32 
28930 -0.67 -0.26 0.75 0.07 0.60 0.93 0.84 0.19 
22710 -0.54 0.78 0.22 0.02 0.84 -0.65 -0.92 0.09 
21018 0.45 -0.56 -0.37 0.91 0.34 0.73 -0.95 -0.32 
20726 -0.67 -0.26 0.57 0.91 0.40 -0.12 0.75 0.31 
19428 -0.55 0.02 0.35 0.93 0.31 0.82 0.93 0.68 
16585 -1.04 -0.12 0.45 -0.65 0.99 0.84 0.67 0.35 
14580 -0.74 -0.22 -0.79 0.70 -0.23 0.75 0.83 -0.32 
14431 -0.79 -0.13 -0.26 -0.04 0.40 1.07 0.51 0.21 
7432 -0.52 0.78 -0.82 0.66 -0.22 0.78 0.77 0.63 
7261 -0.61 0.02 -0.08 -0.80 0.51 0.94 0.03 0.19 
6102 0.13 -0.92 -0.32 -0.79 0.34 0.68 0.84 0.21 
5709 0.13 -0.13 -0.37 0.96 -0.87 -0.13 -0.92 0.79 
4823 -0.96 -0.44 -0.54 -0.05 0.92 0.21 0.74 -0.32 
3110 -0.57 -0.20 -0.65 0.26 0.96 0.94 0.86 0.66 
3060 -0.22 0.34 -0.94 0.10 0.89 0.71 0.80 0.10 
2819 0.45 0.44 -0.54 -0.10 0.60 0.73 0.88 0.19 
2777 0.36 -0.44 -0.54 -0.88 0.81 0.79 0.84 0.69 
1499 -0.64 -0.99 -0.60 0.53 -0.24 -0.49 0.01 -0.09 
663 -0.98 0.74 0.14 -0.57 0.08 -0.26 0.94 -0.42 
643 0.38 0.44 -0.04 -0.80 0.40 0.73 -0.85 0.09 
613 -0.63 -0.33 -0.51 -0.75 0.39 -0.25 0.78 -0.35 
441 -0.61 0.78 -0.06 -0.15 -0.17 -0.06 0.78 -0.26 
391 0.13 0.07 -0.44 -0.54 0.34 0.22 0.93 0.31 
361 -0.60 -0.71 -0.53 -0.54 0.40 0.75 0.88 0.59 
341 -0.13 0.75 0.52 -0.81 0.37 0.77 0.95 0.51 
250 -0.12 0.70 -0.83 -0.54 -0.20 0.70 0.75 0.19 
241 0.45 0.78 0.50 0.07 0.94 -0.24 -0.65 0.51 
230 -0.62 -0.20 -0.54 -0.10 0.85 -0.12 0.52 -0.83 
220 -0.61 0.07 -0.91 0.33 0.92 0.86 0.88 0.59 
220 0.11 -0.34 -0.94 0.06 0.35 0.90 0.80 0.16 
200 0.13 0.70 -0.54 0.18 0.87 0.96 0.88 -0.85 
170 -0.01 -0.98 -0.35 -0.86 0.16 0.60 -0.95 0.27 
150 0.38 -0.28 0.75 -0.89 0.60 0.75 0.81 0.19 
140 -0.72 -0.21 -0.88 -0.19 0.37 0.85 0.60 0.26 
130 -0.70 -0.27 -0.48 0.98 0.92 0.95 0.75 0.81 
120 -0.55 -0.12 -0.26 0.18 0.34 -0.13 0.88 0.79 
120 -0.61 -0.11 0.28 -0.14 -0.20 0.75 -0.85 0.23 
120 -0.80 -0.12 -0.91 -0.13 1.01 0.87 0.89 -0.31 
120 -0.60 -0.14 -0.86 -0.82 0.70 0.35 0.73 0.17 
120 -0.64 -0.28 -0.48 -0.89 0.94 0.70 0.75 0.19 
110 -0.62 -0.26 -0.38 -0.99 0.85 0.86 0.80 -0.78 
110 -0.60 -0.28 -0.37 -0.90 0.86 0.86 0.84 -0.85 
100 -0.67 -0.01 -0.54 -0.90 0.70 0.86 0.88 0.85 
80 -0.69 -0.28 -0.56 -0.90 0.70 0.86 0.80 0.85 

Generation : 21
132515 -0.60 -0.28 -0.37 -0.90 0.86 0.86 0.84 -0.85 
102564 -0.62 -0.01 -0.37 -0.90 0.86 0.75 0.88 0.85 
96732 -0.67 -0.26 -0.53 -0.54 0.40 0.86 0.84 0.59 
76821 -0.74 0.04 -0.41 -1.01 0.39 0.93 0.97 0.58 
70082 -0.69 0.03 -0.53 -0.88 0.90 0.82 0.83 -0.73 
64571 -0.31 0.83 -0.31 0.39 0.44 0.93 0.91 -0.45 
60028 0.13 0.78 0.45 -0.54 0.94 0.96 0.94 0.19 
56777 -0.54 -0.56 -0.44 -0.14 0.92 0.71 0.88 0.85 
49796 -0.61 -0.28 -0.37 0.66 0.34 0.94 0.88 0.19 
26660 -0.72 0.78 -0.37 0.98 -0.23 0.75 0.80 0.19 
18097 -0.62 0.70 -0.91 -0.86 0.37 0.77 0.01 0.85 
12991 0.13 -0.14 -0.51 -0.90 0.40 0.75 0.84 0.19 
8751 -0.67 -0.27 0.98 -0.86 0.40 0.86 0.75 -0.42 
8085 0.45 -0.12 -0.37 -0.19 0.35 -0.13 0.86 -0.32 
6184 -0.67 0.70 0.50 -0.54 0.84 0.86 -0.85 0.85 
5497 -0.62 -0.22 -0.32 -0.79 0.89 0.22 0.74 -0.83 
4922 -0.60 0.44 -0.54 -0.10 0.39 0.86 0.52 0.21 
4752 -0.57 -0.28 -0.65 -0.90 0.94 0.86 0.74 0.10 
3624 -0.60 0.78 -0.37 0.18 0.34 0.94 0.93 0.17 
3272 -0.73 -0.23 -0.26 0.94 0.91 -0.09 0.65 0.18 
3221 -0.55 0.75 0.75 -0.90 -0.23 0.84 0.84 0.16 
2637 0.13 -0.44 -0.56 -0.90 0.60 0.82 0.78 0.19 
1861 0.45 -0.20 -0.32 -0.04 0.51 0.84 0.74 0.31 
1056 -0.88 0.04 -0.83 -0.54 0.83 0.77 -0.92 0.56 
744 -0.47 -0.32 -0.71 -0.07 0.84 0.89 0.74 -0.86 
491 0.13 -0.28 0.35 0.18 0.92 0.86 0.83 -0.32 
422 0.55 -0.34 -0.34 -0.61 0.82 0.65 0.91 0.49 
401 0.38 -0.99 -0.26 0.91 0.16 0.95 0.78 0.19 
391 -0.67 -0.26 -0.48 0.07 0.60 0.21 0.88 0.59 
381 -1.04 -0.44 -0.54 0.33 0.89 0.71 0.80 0.19 
351 0.13 -0.34 -0.48 -0.88 0.87 0.85 0.93 0.23 
260 -0.52 -0.98 -0.04 -0.90 0.86 0.35 0.03 0.10 
260 -0.12 -0.27 -0.83 -0.63 0.60 0.95 0.81 -0.31 
260 -0.01 -0.01 -0.54 -0.80 0.92 0.73 0.84 0.85 
220 -0.67 -0.71 -0.48 -0.80 0.31 -0.25 0.78 0.31 
200 -0.98 0.07 0.75 -0.54 0.99 0.73 0.88 -0.35 
190 0.36 -0.28 0.35 -0.79 0.40 0.85 0.83 0.79 
170 -0.54 0.84 -0.95 -0.91 0.30 -0.13 -0.92 0.10 
170 -0.80 -0.28 0.35 -0.10 -0.23 0.94 0.89 0.69 
170 -1.11 0.76 -0.46 -0.23 0.25 -0.20 0.76 -0.12 
160 0.36 -0.21 -0.54 0.18 0.96 0.68 0.93 -0.32 
160 -0.79 -0.28 0.50 -0.75 0.40 0.96 0.93 0.19 
150 0.45 -0.01 -0.44 -0.79 0.86 0.82 -0.95 0.85 
140 -0.67 -0.26 -0.83 0.70 0.08 0.96 -0.95 0.31 
130 -0.67 -0.56 -0.53 -0.54 -0.87 -0.13 0.88 0.09 
120 -0.51 -0.37 -0.30 -0.92 0.95 0.94 0.75 -0.86 
100 -0.60 -0.71 -0.54 -0.90 0.86 0.85 0.88 0.85 
90 -0.56 -0.08 -0.53 -0.49 0.90 0.94 0.86 0.65 
90 -0.60 -0.71 -0.53 -0.90 0.92 0.75 0.88 -0.85 
80 -0.67 -0.01 -0.38 -0.99 0.40 0.86 0.80 -0.78 

Generation : 22
239361 -0.74 0.04 -0.41 -1.01 0.39 0.93 0.97 0.58 
131376 -0.17 0.02 -0.25 0.13 -0.94 0.85 -0.21 0.47 
109135 -0.12 0.03 -0.53 -0.49 0.92 0.82 0.88 -0.31 
86050 -0.56 -0.27 -0.53 -0.63 0.60 0.82 0.83 0.65 
79467 -0.52 -0.29 -0.55 -0.56 0.83 1.03 0.84 -0.75 
66780 -0.51 -0.28 -0.54 -0.86 0.35 0.86 -0.95 -0.73 
47106 0.48 0.98 -0.68 0.79 -0.00 -0.92 0.66 0.89 
41877 -1.11 -0.01 -0.53 -0.75 0.92 0.22 0.83 0.85 
40437 -0.62 -0.28 -0.71 -0.04 0.94 0.77 0.01 0.31 
40183 0.13 -0.14 -0.53 0.98 0.40 0.86 0.83 0.85 
38898 0.45 -0.28 -0.48 0.94 0.87 0.86 0.88 0.65 
38522 0.13 -0.26 0.75 -0.23 -0.23 0.65 0.84 0.49 
35572 -0.12 0.76 0.98 -0.10 -0.23 0.85 0.93 0.56 
28759 -0.55 -0.21 -0.54 -0.90 0.92 0.73 0.93 0.21 
25332 0.65 0.83 0.79 0.48 -0.19 0.06 0.47 -0.68 
19950 0.89 -0.95 0.03 -0.73 0.22 -0.63 0.80 -0.16 
19275 0.36 0.03 -0.54 -0.86 0.39 0.75 0.84 0.10 
12730 -0.52 -0.44 -0.48 -1.01 0.31 0.86 0.88 -0.42 
10342 0.13 -0.01 -0.83 -0.86 0.30 0.89 0.97 -0.85 
9092 -0.73 0.82 -0.88 -0.62 0.53 -0.08 0.82 0.25 
6073 -0.51 0.74 -0.32 -0.82 -0.33 0.79 0.90 -0.82 
4501 -0.31 -0.01 -0.54 -0.61 0.86 0.93 0.88 0.23 
3825 -0.67 0.75 -0.83 0.66 -0.87 0.86 0.80 0.19 
3796 -0.83 -0.02 0.37 0.87 0.80 0.79 0.79 0.26 
3362 0.53 -0.20 0.47 -0.10 -0.87 0.95 -0.87 -0.68 
3181 -0.88 -0.28 -0.83 -0.88 0.83 0.77 0.84 -0.86 
2103 -0.69 0.07 -0.37 -0.54 0.25 0.71 0.65 -0.35 
612 -0.67 -0.26 -0.95 -0.99 0.34 0.85 0.80 0.49 
482 -0.62 -0.34 -0.32 -0.10 0.92 0.71 -0.92 -0.32 
320 -0.01 -0.26 -0.65 -0.90 0.92 0.86 0.88 0.17 
310 0.38 -0.37 0.50 -0.86 0.34 0.96 -0.92 0.18 
310 0.34 -0.62 -0.73 -0.46 -0.80 0.85 0.92 -0.26 
301 -0.61 -0.56 0.50 -0.99 0.39 0.75 0.74 -0.32 
280 -0.57 -0.27 -0.53 -0.54 0.84 0.75 0.74 0.49 
270 -0.51 -0.01 -0.56 -0.54 0.25 0.22 0.83 -0.12 
170 -0.62 0.04 -0.54 -0.90 0.90 0.82 -0.85 0.59 
160 0.45 -0.01 -0.91 -0.54 0.34 0.77 0.93 0.85 
160 -0.67 -0.98 -0.31 -0.99 0.51 0.86 0.84 -0.32 
160 -0.67 -0.26 -0.53 -0.61 0.34 0.94 0.74 -0.12 
130 -0.01 -0.01 -0.54 -0.90 0.39 0.93 0.93 0.10 
130 0.13 -0.27 0.98 0.94 0.40 0.75 0.74 0.17 
120 -0.74 -0.26 -0.54 -0.88 0.86 0.95 0.84 0.19 
110 -0.67 -0.20 0.35 -0.90 0.60 0.94 0.65 0.49 
110 -0.67 -0.12 0.75 -0.54 0.08 0.86 0.84 -0.42 
110 -0.55 0.76 -0.32 -0.80 0.82 0.86 0.80 -0.85 
90 -0.74 0.04 -0.41 -1.01 0.39 0.93 0.97 0.58 
90 -0.53 0.08 -0.47 -0.40 0.91 1.02 0.85 -0.73 
90 -0.60 -0.71 -0.53 -0.49 0.90 0.95 0.86 0.65 
70 -0.59 -0.68 -0.91 -0.53 0.96 0.80 0.98 -0.27 
70 -0.12 -0.08 -0.83 -0.90 0.92 0.82 0.81 -0.73 

Generation : 23
193035 -0.56 -0.27 -0.53 -0.63 0.60 0.82 0.83 0.65 
130766 -0.60 -0.01 -0.65 -0.49 0.83 0.93 0.88 0.65 
124162 -0.52 -0.29 -0.53 -0.90 0.86 0.86 0.88 0.23 
110230 -0.40 -0.23 -0.47 -0.97 0.79 0.92 0.88 0.24 
101911 -0.24 -0.38 -0.56 -0.67 0.82 0.86 0.79 0.62 
88139 0.72 0.09 -0.63 0.28 -0.92 0.57 0.50 0.88 
87173 -0.61 -0.09 -0.47 -0.95 0.71 1.04 0.83 0.65 
69074 -0.53 -0.01 -0.83 -0.90 -0.87 0.75 0.97 0.21 
66797 0.13 -0.27 0.79 -0.10 0.25 0.77 0.93 -0.12 
65950 -0.62 -0.01 -0.91 -0.61 0.94 0.96 0.84 -0.86 
56344 -0.56 -0.01 0.98 0.79 -0.33 0.71 -0.92 0.21 
47515 0.13 0.02 -0.91 -0.99 -0.00 0.82 0.86 0.10 
32332 0.65 -0.02 0.75 0.48 0.80 0.95 0.65 -0.32 
22983 -0.55 -0.20 0.98 -0.10 -0.87 0.82 0.80 -0.73 
19448 -0.67 -0.28 -0.53 -0.99 0.94 1.02 0.86 -0.12 
15670 -0.55 0.75 -0.54 0.79 0.92 0.75 0.74 0.49 
8256 -0.60 -0.08 0.79 -0.86 0.31 0.85 0.65 -0.31 
5547 -0.62 -0.02 0.75 -0.99 0.34 0.93 0.84 0.58 
5014 0.03 -0.03 0.40 -0.01 0.95 0.30 1.02 -0.04 
3986 -0.67 -0.68 -0.91 -0.62 0.92 0.79 0.84 0.23 
3372 -0.62 0.03 0.37 -0.86 0.92 0.95 0.93 -0.73 
2909 0.13 -0.68 -0.32 -0.62 0.35 0.80 0.88 0.25 
2868 0.45 0.04 -0.54 -0.54 0.08 0.65 0.74 0.65 
2517 -0.59 -0.12 -0.53 -0.82 -0.19 0.96 0.74 -0.85 
2506 -0.12 0.03 0.79 -0.56 -0.33 0.79 0.74 -0.32 
2335 -0.62 -0.01 0.47 0.94 0.92 0.86 0.84 -0.86 
2102 -0.55 -0.44 -0.53 -0.90 0.25 0.86 0.90 0.85 
2074 -0.51 0.76 0.75 -0.56 0.83 0.93 -0.85 0.31 
1963 -0.77 -0.32 -0.50 -0.73 0.85 0.81 0.74 0.55 
1599 -0.74 -0.26 -0.54 -0.90 0.92 0.75 0.83 0.47 
794 -0.67 -0.14 -0.53 -0.54 0.92 0.71 0.93 0.59 
300 -0.74 -0.27 -0.37 -1.01 -0.23 0.71 -0.21 0.47 
260 -0.69 -0.66 -0.32 -0.02 -1.02 0.88 0.70 -0.73 
230 -0.62 -0.14 -0.47 -0.80 -0.19 0.71 0.93 0.18 
200 -0.12 -0.01 -0.41 -0.61 -0.80 0.22 0.74 0.18 
200 0.34 -0.56 0.50 0.87 0.96 0.71 0.84 -0.26 
160 -0.69 0.74 -0.47 -0.10 0.39 0.95 0.84 0.17 
120 0.89 0.07 -0.53 -0.63 -0.23 0.85 0.01 0.31 
120 -0.83 -0.34 -0.48 -0.63 0.53 0.77 0.85 0.65 
110 -0.69 -0.01 -0.37 -0.90 -0.87 0.75 0.90 0.19 
110 -0.04 -0.19 -0.67 -0.59 0.84 0.86 0.83 0.16 
100 0.54 -0.34 -0.54 -0.61 0.86 0.74 0.99 0.45 
100 0.48 -0.01 -0.53 -0.63 0.92 1.02 -0.87 0.89 
100 -0.67 -0.26 -0.53 -0.82 -0.33 0.06 0.83 -0.12 
100 -0.51 -0.37 0.50 0.98 -0.87 0.86 -0.92 -0.16 
100 -0.63 -0.29 -0.58 -0.64 0.61 0.83 0.90 0.57 
90 -0.01 -0.26 -0.65 -0.56 0.83 0.95 0.86 0.17 
90 -0.60 -0.01 -0.54 -0.49 0.83 0.86 0.88 0.23 
90 -0.60 -0.01 -0.55 -0.56 0.92 0.95 0.88 0.65 
80 -0.52 -0.26 -0.55 -0.56 0.83 1.03 0.88 -0.75 

Generation : 24
224710 -0.61 -0.09 -0.47 -0.95 0.71 1.04 0.83 0.65 
199981 -0.60 -0.38 -0.55 -0.56 0.83 0.93 0.86 0.65 
125651 -0.19 -0.28 -0.68 -0.61 0.76 0.97 0.91 0.55 
119492 -0.01 -0.26 -0.65 -0.56 0.83 0.95 0.79 0.65 
104520 -0.53 -0.17 -0.60 -0.55 0.98 0.86 0.92 0.55 
94859 0.54 -0.44 -0.65 -0.80 0.25 0.95 0.84 -0.32 
86518 -0.55 -0.01 0.79 -0.63 -0.33 0.80 0.74 0.47 
68893 0.72 -0.01 -0.53 -0.86 -0.87 0.93 0.90 -0.12 
54358 -0.71 -0.69 -0.40 -0.07 -0.75 0.60 0.36 -0.07 
43468 -0.62 -0.27 -0.53 0.98 0.85 0.86 0.93 -0.86 
30744 -0.58 -0.20 -0.76 0.24 0.73 1.02 0.87 -0.84 
25370 -0.62 -0.34 -0.56 -0.56 0.92 0.79 1.02 0.18 
21129 -0.55 -0.20 -0.53 -0.63 0.92 0.71 -0.92 0.49 
19435 -0.52 -0.01 -0.83 -0.90 0.86 0.65 -0.87 0.23 
17293 0.13 -0.14 -0.55 -0.63 0.71 0.93 0.84 0.31 
16355 0.03 -0.20 0.75 -0.80 0.83 0.75 -0.92 0.21 
12459 -0.71 -0.43 0.72 -0.53 0.90 0.37 -0.79 -0.91 
10825 -0.51 -0.28 -0.47 -0.86 -0.80 0.86 0.88 -0.73 
10531 -0.57 -0.28 0.75 -0.62 -0.96 0.88 -0.29 0.56 
7442 0.45 -0.38 -0.91 -0.01 -0.87 0.75 0.74 -0.16 
5517 0.72 -0.21 0.67 -0.71 0.73 0.78 0.86 -0.15 
5115 -0.55 -0.56 -0.53 0.94 -0.87 0.79 0.86 0.57 
4793 -0.69 -0.37 0.79 -0.54 0.83 0.06 0.83 0.18 
4037 -0.56 0.07 -0.99 -0.51 0.49 0.94 0.80 0.54 
4027 -0.62 0.77 0.55 -0.49 -0.06 0.76 0.88 0.61 
3987 0.45 -0.02 -0.91 -0.63 -0.87 0.77 -0.87 0.16 
2729 0.03 -0.19 -0.54 -1.01 -0.33 0.95 0.90 -0.73 
1035 -0.74 -0.66 -0.53 -0.49 0.80 0.71 0.74 0.18 
854 -0.60 -0.04 -0.63 0.99 0.84 0.94 -0.82 0.27 
623 -0.66 0.84 0.43 -0.87 -0.37 0.78 0.73 0.15 
623 -0.09 -0.34 -0.41 -0.98 1.00 0.76 0.95 0.17 
411 -0.43 -0.17 -0.75 -0.67 1.03 0.83 0.92 0.14 
392 -0.51 -0.01 0.75 -0.62 0.35 0.93 0.88 0.25 
361 -0.59 -0.44 -0.47 -0.54 0.31 0.75 0.88 -0.12 
341 -0.49 -0.01 -0.48 -0.68 0.90 1.02 0.96 0.43 
300 -0.04 -0.66 -0.91 -0.59 0.92 0.75 0.50 -0.26 
250 -0.55 0.76 -0.37 -0.02 -0.23 0.88 0.93 0.88 
221 0.89 -0.01 0.98 -0.82 -0.87 0.71 0.93 0.23 
190 -0.12 -0.01 -0.91 -0.90 0.92 0.77 0.74 -0.73 
170 -0.65 -0.06 -0.47 -0.57 -0.29 0.93 -0.03 -0.27 
150 -0.60 0.74 0.79 -0.56 -0.23 0.75 0.88 0.62 
130 0.34 -0.68 -0.67 -0.63 0.92 0.65 0.86 0.45 
130 -0.60 -0.27 -0.64 -0.49 1.01 0.82 0.73 0.22 
130 0.72 -0.01 -0.65 -0.86 0.25 0.71 0.86 -0.12 
130 -0.62 -0.38 -0.53 -0.90 0.82 0.71 0.93 -0.86 
110 -0.61 -0.09 -0.47 -0.95 0.71 1.04 0.83 0.65 
90 -0.60 -0.26 -0.65 -0.56 0.83 0.95 0.88 0.65 
90 -0.24 -0.26 -0.55 -0.67 0.83 0.93 0.79 0.65 
80 -0.60 -0.01 -0.56 -0.49 0.83 0.93 0.79 0.65 
80 -0.51 -0.40 -0.50 -0.55 0.91 0.80 0.80 0.60 

Generation : 25
104813 -0.19 -0.28 -0.68 -0.61 0.76 0.97 0.91 0.55 
102332 -0.46 -0.20 -0.68 -1.04 0.93 1.12 0.78 0.72 
98510 -0.61 -0.26 -0.47 -0.95 0.71 0.93 0.79 0.55 
96708 -0.56 -0.18 -0.69 -0.88 0.76 1.04 0.81 0.57 
76750 -0.61 -0.09 -0.55 -0.95 0.71 1.04 0.83 0.55 
66835 -0.55 -0.56 -0.65 -0.63 0.73 0.06 0.86 -0.07 
55211 -0.51 0.84 -0.54 -0.63 -0.87 0.88 -0.92 0.65 
32170 0.45 -0.38 -0.63 -0.57 0.83 0.75 0.86 0.18 
30234 -0.53 0.74 -0.53 -0.49 0.71 0.75 0.86 -0.73 
27169 -0.84 -0.17 -0.69 1.02 0.90 0.68 -0.78 0.56 
21025 -0.59 -0.28 -0.55 -0.90 -0.23 0.95 0.74 0.65 
15569 -0.62 -0.69 -0.60 -0.49 -0.87 0.95 0.84 -0.86 
14118 -0.55 -0.01 -0.67 -0.56 0.84 0.82 0.88 0.55 
12356 -0.60 -0.44 -0.65 -0.61 -0.33 0.76 0.92 0.60 
12356 -0.53 -0.69 -0.48 -0.67 -0.29 0.65 0.90 0.54 
11038 -0.41 -0.10 -0.62 -0.85 0.23 0.99 -0.11 -0.78 
10098 0.13 -0.19 -0.68 -0.49 1.03 0.88 0.84 0.23 
6545 -0.48 -0.59 0.68 -0.65 0.77 0.91 0.92 -0.18 
5890 -0.65 0.74 -0.47 -0.63 -0.87 0.06 0.92 0.23 
4651 -0.51 -0.34 -0.53 -0.62 0.25 0.94 0.90 0.31 
2970 -0.24 -0.28 -0.53 -1.01 -0.75 0.94 0.93 0.54 
2898 -0.51 -0.01 0.55 -1.01 -0.23 0.93 0.80 0.31 
2384 -0.12 -0.20 -0.91 -0.80 -0.87 0.79 0.73 0.27 
2275 -0.65 0.07 -0.67 -0.07 0.86 0.86 0.88 -0.16 
1912 -0.52 -0.14 -0.33 -0.64 -0.15 0.86 0.79 0.70 
1530 -0.55 -0.26 0.75 0.99 -0.75 0.37 -0.79 -0.12 
1489 -0.43 -0.01 -0.91 -0.63 1.01 0.94 0.93 0.45 
1287 0.03 -0.44 0.75 -0.63 0.83 0.80 0.80 0.22 
1176 0.13 -0.68 -0.55 -1.01 0.83 0.78 0.86 -0.07 
1036 -0.52 -0.20 -0.37 -0.63 0.35 0.06 -0.03 0.60 
804 -0.57 -0.02 -0.56 -1.01 -0.87 1.02 -0.87 0.45 
602 0.63 -0.42 -0.47 -0.51 0.93 0.37 0.83 0.34 
471 0.45 -0.44 -0.55 -0.80 0.92 0.97 0.93 -0.73 
451 0.45 -0.38 -0.37 0.98 0.35 0.93 0.87 0.61 
441 -0.50 -0.10 -0.55 -0.87 0.88 0.97 0.72 -0.63 
412 -0.65 -0.34 -0.53 -0.54 -0.84 0.71 0.98 0.37 
412 -0.52 0.02 -0.64 -0.85 -0.19 0.95 0.88 0.34 
361 -0.52 -0.34 -0.65 -0.49 0.92 0.86 -0.82 0.18 
310 -0.60 -0.17 0.75 -0.49 0.25 0.94 0.84 0.22 
281 -0.51 -0.38 0.79 -0.90 0.83 0.86 0.86 0.65 
280 -0.45 0.66 -0.95 -0.54 0.74 0.86 -0.89 -0.19 
270 -0.51 -0.38 -0.50 -0.82 0.83 0.76 0.93 -0.15 
220 -0.60 -0.28 0.55 -0.67 0.83 0.75 0.93 0.17 
190 -0.55 -0.01 -0.83 -0.67 0.83 0.95 0.91 -0.73 
170 0.08 -0.09 -0.68 -0.89 0.78 0.70 0.82 0.14 
160 -0.19 -0.28 -0.68 -0.61 0.76 0.97 0.91 0.55 
150 -0.53 -0.09 -0.60 -0.55 0.83 1.04 0.92 0.65 
140 -0.24 -0.09 -0.60 -0.95 0.71 0.93 0.92 0.55 
90 -0.61 -0.09 -0.55 -0.95 0.71 1.04 0.83 0.65 
90 -0.24 -0.17 -0.47 -0.95 0.71 0.86 0.83 0.55 
