
Generation : 0
562 -0.83 -0.72 1.73 -7.63 -1.31 -8.91 1.59 3.48 
502 0.19 -3.99 2.74 -6.01 -2.77 5.75 -6.36 -4.86 
411 8.51 6.24 9.16 -1.40 3.69 3.78 -1.32 -7.58 
321 -2.80 -6.74 -3.08 -4.60 -8.18 -0.44 4.71 0.78 
310 -9.42 -1.08 7.77 2.88 -5.15 -7.77 -2.46 -5.33 
300 -3.70 4.62 -0.01 -4.38 6.47 -1.84 9.91 9.52 
280 -0.61 -3.66 4.45 4.38 -7.06 4.36 6.34 -4.22 
280 -4.44 4.31 -5.71 4.54 -9.87 7.54 -9.93 -2.89 
270 -3.80 1.01 -0.57 7.91 -3.88 -0.11 -1.53 -6.26 
261 -6.94 8.95 7.35 -9.89 1.59 3.31 -4.48 -1.51 
230 5.04 3.89 7.91 3.27 -2.33 8.38 4.19 7.90 
220 5.30 9.14 -4.11 5.89 9.71 3.75 -6.29 -6.45 
210 -0.97 -5.57 -2.26 0.64 7.51 1.09 9.88 -0.59 
210 -5.19 9.38 -3.02 -1.36 -9.05 -1.37 -8.16 -1.63 
200 0.51 -1.38 7.42 -7.89 -1.14 1.20 -3.14 -5.30 
200 -9.83 0.59 7.97 -6.99 -2.17 2.60 0.57 -1.52 
200 -4.75 8.34 -4.83 7.44 -7.81 9.54 -6.75 -8.43 
190 -0.63 -9.88 -5.45 0.36 -4.65 -0.93 7.00 -0.51 
180 5.61 6.95 0.74 -2.57 0.09 -2.32 -3.88 -1.89 
180 7.24 -1.73 3.51 1.80 7.53 1.92 1.03 -5.68 
170 8.90 5.07 -3.90 -9.13 -6.77 -2.36 8.29 4.58 
170 1.18 -1.35 3.64 -5.00 8.61 -8.40 -4.60 5.79 
170 -8.15 0.18 -4.27 -0.22 -9.47 2.24 -6.11 -6.02 
170 6.92 -8.65 -9.96 4.86 5.40 0.61 -8.20 -8.03 
170 8.84 8.82 0.84 5.91 9.73 7.96 -5.82 -1.71 
170 -2.20 -5.09 -6.15 -5.48 -1.08 -2.19 6.21 7.37 
160 -3.59 -1.50 -9.06 8.23 -5.17 7.10 4.69 3.31 
150 -0.56 1.66 -7.28 7.60 -0.06 -9.49 -9.93 9.13 
150 -1.77 -0.68 9.95 4.05 0.76 -3.44 -9.82 6.59 
140 -0.26 2.50 1.99 -5.47 7.67 -8.65 5.98 -1.66 
140 -5.31 -2.16 -6.90 8.34 -8.86 -1.55 3.61 -1.53 
130 -2.28 3.57 6.86 4.03 0.41 -4.62 7.17 7.94 
120 2.72 8.83 3.98 2.87 5.62 0.38 1.43 8.19 
120 -6.29 7.04 9.74 1.74 -4.09 9.55 -2.52 8.53 
120 2.64 1.99 -8.32 -5.84 -3.93 7.52 -0.48 -4.09 
120 9.00 1.67 3.97 -5.77 2.01 8.31 4.92 -1.30 
120 5.94 8.60 5.92 -4.27 1.68 3.14 -7.87 2.81 
110 7.96 1.74 6.23 2.19 -9.85 5.35 -4.77 2.68 
100 -9.96 6.11 0.34 8.01 -7.44 5.49 -2.49 -6.92 
100 -9.94 -9.22 4.98 -8.79 2.39 5.03 4.81 6.82 
100 -6.39 0.81 5.31 -5.85 7.72 2.45 5.63 8.39 
100 -3.93 3.37 -7.57 2.59 -8.70 -4.95 7.10 -4.52 
90 4.61 0.32 5.21 -9.00 6.85 8.13 -0.57 9.27 
80 -1.12 0.59 7.89 5.84 -8.69 -7.93 0.95 4.92 
80 -2.44 -6.34 -7.26 3.15 -9.97 -3.22 -1.86 -9.95 
80 -1.91 8.60 -2.54 -3.20 -1.15 -3.90 5.53 8.88 
80 -7.71 -5.85 -2.82 -4.68 -5.63 -1.36 6.22 7.98 
80 6.41 -7.64 1.16 -1.09 -9.13 -8.64 -4.45 -6.38 
70 3.32 -1.42 -1.55 -7.80 -1.70 6.59 -9.29 4.17 
70 0.23 -3.43 9.34 9.77 -2.03 3.66 -4.19 4.96 

Generation : 1
18538 -9.94 -9.22 4.98 -8.79 2.39 5.03 4.81 6.82 
13079 -3.56 -1.49 -3.04 -4.60 -5.68 -1.33 6.20 6.78 
11246 2.65 -9.18 -2.86 -4.67 -5.63 -1.39 4.72 6.84 
9706 -2.83 -6.75 -9.05 -8.81 -8.17 7.06 4.73 0.80 
6786 -2.78 1.96 -9.04 -8.74 -3.91 7.07 4.72 6.86 
4046 2.60 -9.22 -2.80 8.21 -3.93 5.07 -0.46 -4.06 
3371 -3.57 -6.70 -9.02 -8.83 -8.21 5.07 4.72 0.74 
3129 -3.63 -5.80 4.97 8.26 -5.17 5.04 4.69 -4.13 
3119 -3.61 -6.76 -8.35 -8.80 -5.64 -1.35 4.65 7.95 
2354 -7.67 -6.74 -2.83 8.27 -5.21 -0.49 -0.47 0.82 
1741 -2.84 -6.70 -9.09 -5.88 -8.19 -1.33 4.71 -4.10 
1710 -2.83 1.97 -3.09 -5.88 -5.59 5.02 4.80 6.78 
1327 2.68 1.95 -8.28 -8.77 2.39 -0.44 6.24 6.86 
1306 -2.75 -1.48 5.01 -8.76 -5.61 7.56 -0.46 8.02 
1257 -7.72 -1.50 -3.04 -8.75 -8.22 7.15 4.69 -4.13 
1176 -9.91 -1.52 -9.10 -8.81 2.41 -0.40 4.66 3.29 
955 -7.71 -9.18 -2.85 -4.67 -3.89 7.14 4.74 0.82 
914 -2.76 -6.78 -2.78 -4.70 -8.23 -1.36 4.72 -4.06 
743 -2.82 -9.21 -2.80 8.23 -5.16 7.52 4.64 -4.12 
622 -9.94 -6.76 4.97 8.21 2.42 7.52 4.78 -4.12 
481 -3.55 1.98 -3.04 8.19 -8.17 5.05 4.84 3.28 
391 -9.91 -9.24 -9.05 8.22 -5.61 -1.37 4.69 6.84 
381 -9.97 -1.53 -3.08 -4.64 -5.67 7.07 -0.50 7.97 
290 -2.76 -6.71 -3.09 -4.73 -3.95 7.08 4.67 7.96 
290 -3.59 -5.82 -2.84 -5.81 -5.13 7.11 4.84 3.36 
280 -2.83 -9.19 -2.83 8.26 2.43 -1.36 4.71 7.96 
260 -3.59 -6.74 -9.04 -4.62 -5.13 -1.36 6.18 6.81 
260 -7.67 1.99 4.94 -4.58 -5.20 -1.39 4.70 7.99 
250 -9.96 -9.20 -9.05 -5.84 -5.62 -0.41 4.68 -4.11 
250 -9.91 -1.53 4.99 -4.63 -5.17 7.14 6.19 3.27 
250 -3.60 -1.49 -8.35 -8.78 -3.88 7.54 -0.48 3.34 
240 -7.68 -9.22 -8.36 -8.80 -5.64 7.09 4.79 0.74 
240 -7.73 -1.47 -2.79 -8.76 2.43 7.06 4.72 -4.13 
240 -9.94 -6.73 -3.07 -4.69 -3.95 -1.40 -0.48 0.81 
220 -3.62 -5.82 4.99 8.20 -5.14 7.51 -0.47 6.79 
210 -9.97 -9.18 5.02 8.27 2.40 7.09 -0.49 7.98 
190 -2.77 -6.71 -9.03 8.25 -5.68 5.05 4.69 6.85 
190 -3.58 -1.55 5.00 -4.69 -5.61 5.03 -0.45 0.75 
190 -3.62 -6.76 -2.83 -4.66 2.40 -0.46 4.72 -4.11 
190 -7.69 -9.23 -2.86 8.25 -5.68 -1.36 4.68 0.78 
190 -9.94 -9.19 5.03 -4.58 -8.22 7.09 4.71 7.95 
180 -7.68 -9.20 -9.03 -4.70 -5.22 7.09 6.17 0.83 
170 2.69 1.98 4.98 -5.86 2.44 7.57 6.27 3.27 
160 -3.56 -5.86 -9.04 8.25 2.40 5.00 -0.48 8.03 
140 -2.82 1.99 -9.09 8.21 -5.66 5.05 -0.48 -4.10 
120 -2.75 -5.85 -9.05 -4.57 2.37 7.10 -0.45 -4.11 
120 -2.82 -1.50 -9.05 -4.70 -3.95 5.03 4.76 7.97 
110 -7.76 -5.80 -2.86 8.25 2.37 -1.33 -0.47 -4.13 
110 -2.81 2.00 -9.07 -8.76 -5.14 -1.37 4.69 0.76 
90 -2.85 -5.85 -9.10 8.21 2.39 7.08 4.68 3.35 

Generation : 2
86862 -3.59 -5.82 -2.84 -5.81 -5.13 7.11 4.84 3.36 
61208 -7.80 -9.20 -2.81 -4.79 -3.94 7.12 4.81 6.84 
48645 -7.64 2.01 -2.73 -4.74 -3.86 7.13 4.76 3.28 
38630 -3.50 -1.51 -3.06 -4.60 -3.97 7.07 4.76 3.33 
34336 -7.81 -5.91 -2.77 -8.76 -5.09 7.16 4.61 0.86 
26688 -3.63 1.91 -3.06 -8.77 -5.13 7.07 4.90 3.40 
19655 -7.64 -1.43 -3.19 -4.71 -3.93 7.07 4.91 3.38 
19170 -2.72 -6.77 -2.79 -4.70 -3.95 7.11 4.66 -4.23 
18954 -2.69 1.95 -3.07 -8.85 2.38 7.09 4.73 -4.22 
18266 -7.79 -6.72 -9.00 -8.84 -3.91 7.05 4.74 7.93 
16432 -7.67 -5.87 -3.08 -8.75 -3.90 7.15 4.68 0.83 
16395 -7.68 -1.47 -9.11 -5.87 -5.05 7.00 4.64 7.97 
15425 -3.52 2.04 -2.91 -8.70 -3.97 7.04 4.66 6.87 
14491 -2.69 -1.39 -3.16 -8.78 -3.92 7.13 4.82 7.96 
11890 -7.64 -9.20 -2.78 -5.90 -4.03 7.11 4.65 3.39 
10904 -7.73 -1.41 -3.06 -4.83 -3.94 7.11 4.68 3.41 
10368 -7.69 1.96 -2.80 -4.66 2.53 7.17 4.65 -4.15 
10351 -2.84 -1.45 -3.10 -5.84 -5.15 6.97 4.74 0.72 
10168 -7.70 -1.55 -2.79 -5.79 2.49 6.97 4.75 7.88 
9837 -2.85 -9.15 -2.85 -4.71 -5.20 7.21 4.67 3.32 
9676 -7.82 1.97 -3.03 -8.70 -3.98 7.09 4.75 -4.17 
9525 -3.50 -1.47 -9.11 -8.69 -3.87 7.16 4.75 6.82 
9121 -2.86 -1.40 -9.07 -4.75 -4.00 7.14 4.86 -4.14 
8950 -7.70 -5.92 -3.18 -8.80 -3.90 7.08 4.65 6.82 
8850 -2.83 -5.81 -8.99 -5.86 -3.89 7.18 4.81 8.00 
8253 -3.58 -5.91 -2.84 -8.77 -3.90 7.19 4.80 3.38 
8235 -2.85 -6.74 -2.77 -4.60 2.49 7.05 4.84 -4.15 
7249 -7.64 1.91 -2.72 -8.86 -5.20 7.05 4.71 -4.23 
7137 -3.60 -9.25 -2.78 -8.65 2.44 7.13 4.61 8.01 
7018 -7.62 -9.19 -3.12 -4.76 -3.90 6.99 4.78 -4.18 
6031 -2.86 -9.23 -2.71 -8.73 -3.88 7.17 4.69 -4.04 
5870 -2.81 -9.13 -2.82 -4.61 -3.93 7.13 4.64 -4.08 
5657 -3.60 -1.45 -2.74 -5.74 -3.92 7.05 4.76 3.35 
5335 -7.72 2.05 -2.85 -8.74 -5.19 7.00 4.68 0.75 
5255 -3.60 1.97 -9.09 -8.69 2.49 7.09 4.58 6.80 
4761 -2.86 -6.77 -2.82 -8.79 -3.94 7.09 4.64 -4.08 
4722 -2.78 1.95 -2.92 -8.84 2.43 7.03 4.76 8.02 
4671 -2.68 -9.23 -9.07 -8.76 -3.85 7.15 4.85 6.78 
4631 -2.80 -9.17 -2.81 -5.76 -3.81 7.00 4.71 -4.07 
4378 -2.83 -6.77 -2.83 -4.74 -5.20 7.11 4.63 -4.21 
3573 -2.81 -1.41 -3.05 -5.72 -3.98 7.04 4.67 8.00 
3391 -2.84 -1.50 -2.89 -8.75 -5.08 6.98 4.64 6.90 
3261 -7.72 1.93 -2.77 -8.70 -3.98 7.03 4.77 -4.15 
3200 -2.72 -5.76 -9.02 -8.78 -3.89 7.16 4.75 3.36 
3160 -7.71 1.94 -3.04 -4.72 -3.89 7.00 4.88 6.93 
2868 -7.80 -9.11 -2.84 -4.66 2.34 7.20 4.64 0.87 
2505 -7.79 -1.37 -2.87 -5.87 -3.99 7.14 4.81 0.85 
1942 -3.56 -5.74 -3.17 -8.79 -5.22 7.12 4.61 0.79 
1438 -2.69 -6.68 -2.89 -4.72 -3.97 7.09 4.87 -4.21 
1427 -2.83 -6.75 -2.81 -5.85 -3.92 7.15 4.83 3.30 

Generation : 3
207614 -2.78 1.95 -2.92 -8.84 2.43 7.03 4.76 8.02 
81812 -7.66 -5.97 -3.03 -5.80 2.40 7.08 4.62 7.88 
46889 -7.80 -5.79 -2.76 -8.58 2.52 7.05 4.68 0.84 
42543 -2.94 1.90 -3.20 -8.85 2.39 7.01 4.68 -4.07 
42088 -2.84 -5.94 -2.89 -5.73 -3.96 7.06 4.73 -4.06 
38161 -2.92 -9.17 -3.07 -5.77 -3.82 6.95 4.52 8.08 
37776 -7.77 -6.83 -2.88 -8.63 -3.83 7.00 4.61 0.74 
32178 -2.73 -9.35 -2.88 -8.84 2.44 7.10 4.62 7.96 
31162 -7.69 -9.33 -2.78 -8.83 -3.85 7.03 4.51 8.02 
30748 -7.57 -5.97 -2.74 -8.83 2.47 7.08 4.79 -4.15 
30043 -7.58 -9.16 -3.16 -8.82 -3.80 7.18 4.74 0.83 
28772 -7.77 1.99 -2.89 -8.76 2.42 7.11 4.53 7.96 
28487 -7.82 -1.47 -3.09 -8.74 2.54 7.11 4.60 7.77 
27786 -7.68 -9.14 -3.04 -5.67 -4.01 7.04 4.68 7.97 
27384 -7.62 -6.67 -2.88 -5.79 2.44 6.92 4.69 0.94 
27310 -1.42 -9.86 -5.37 -6.38 -5.45 -3.75 -6.74 -1.30 
26286 -2.86 1.97 -2.69 -8.71 2.40 6.96 4.59 0.87 
23989 -7.71 -9.36 -2.90 -5.88 2.55 7.09 4.68 8.11 
22709 -3.56 -1.50 -3.18 -8.62 -4.00 7.15 4.80 7.86 
19820 -2.81 -5.84 -2.76 -8.76 2.42 7.03 4.67 8.05 
16042 -7.71 -9.15 -3.10 -5.87 2.54 7.24 4.62 7.85 
15136 -3.67 -1.61 -2.80 -8.81 2.54 7.10 4.67 7.87 
12669 -7.71 -6.80 -2.82 -8.93 2.52 7.10 4.65 8.12 
12307 -2.84 -5.87 -2.97 -8.64 2.41 7.14 4.59 7.80 
10774 -2.91 1.93 -2.82 -8.62 2.51 7.19 4.79 0.85 
10513 -7.75 -6.85 -2.81 -8.89 -3.91 7.11 4.66 7.98 
9253 -2.67 -1.62 -2.92 -8.83 2.53 7.05 4.83 8.11 
8798 -3.57 -9.21 -2.77 -8.88 2.48 7.03 4.77 0.87 
8699 -7.74 -9.30 -2.75 -8.90 -3.95 7.04 4.70 0.80 
8466 -2.78 1.89 -2.75 -8.87 -3.82 7.07 4.75 7.92 
8075 -7.63 1.95 -3.04 -8.90 2.39 7.19 4.66 7.98 
5859 -7.79 -5.85 -2.92 -8.82 2.53 7.16 4.65 7.96 
5175 -3.62 -9.23 -2.68 -8.85 2.45 6.98 4.74 7.89 
5063 -2.83 1.97 -2.94 -5.81 -3.84 7.08 4.71 7.94 
4943 -2.81 -9.34 -2.91 -8.91 2.52 7.20 4.84 0.74 
4730 -7.59 -6.85 -2.84 -8.75 2.50 7.03 4.64 8.12 
4691 -2.97 -6.81 -2.76 -5.90 2.39 7.06 4.62 -4.03 
4298 -2.88 -9.20 -2.84 -8.58 2.49 7.13 4.58 8.04 
3976 -7.67 -5.88 -2.80 -8.54 2.55 7.14 4.73 8.11 
3683 -7.62 -9.32 -2.76 -8.74 -3.95 7.17 4.70 -4.03 
3643 -7.65 -5.87 -2.81 -5.87 2.52 6.98 4.57 7.94 
3573 -2.89 1.93 -2.99 -8.72 -3.93 7.04 4.78 8.14 
3362 -2.94 -9.21 -2.81 -5.77 2.42 7.23 4.60 8.09 
2405 -7.78 1.94 -2.69 -8.61 2.39 7.15 4.51 7.81 
1992 -7.69 -6.70 -2.86 -8.54 -3.99 6.97 4.77 8.06 
1408 -7.76 -1.55 -2.87 -5.80 -3.88 6.92 4.74 0.93 
1236 -2.88 -9.17 -3.03 -8.85 -3.98 7.19 4.81 -3.99 
1176 -7.70 -6.76 -2.67 -5.73 2.44 7.03 4.84 0.74 
1136 -3.53 1.90 -2.81 -8.72 -4.00 6.89 4.84 7.93 
250 -7.58 -9.37 -2.79 -8.74 2.46 7.02 4.63 0.73 

Generation : 4
170731 -2.84 -5.87 -2.97 -8.64 2.41 7.14 4.59 7.80 
129766 -2.67 2.00 -2.76 -8.58 2.54 7.05 4.64 7.95 
93788 -7.79 2.00 -2.90 -8.82 2.42 7.07 4.60 7.95 
91068 -7.79 -5.81 -2.90 -8.76 2.45 7.13 4.67 7.79 
76817 -2.67 -5.88 -2.92 -8.66 2.43 7.06 4.84 7.95 
74949 -2.74 -1.61 -2.89 -8.85 2.43 7.13 4.54 8.12 
66342 -2.68 -5.88 -2.91 -8.77 2.41 7.06 4.82 0.83 
66338 -7.80 2.00 -2.88 -8.63 2.41 7.04 4.62 7.94 
48570 -7.81 -9.37 -2.96 -8.75 2.51 7.10 4.61 7.80 
45009 -7.77 -1.62 -2.75 -8.64 2.41 7.10 4.60 7.98 
44121 -2.69 -9.34 -2.90 -8.57 2.44 7.11 4.83 7.95 
43467 -7.78 -9.37 -2.91 -8.74 2.54 7.09 4.59 8.11 
43207 -2.84 2.00 -2.89 -8.66 2.54 7.05 4.82 7.96 
42981 -2.84 2.00 -2.89 -8.77 2.44 7.12 4.81 7.79 
41847 -7.79 -1.63 -2.88 -8.82 2.50 7.05 4.67 7.95 
39469 -2.67 1.99 -2.88 -8.83 2.42 7.05 4.61 0.85 
38514 -2.68 -9.35 -2.92 -8.60 2.55 7.11 4.60 0.82 
37694 -2.65 -5.86 -2.86 -8.82 2.42 7.12 4.54 8.09 
37475 -2.84 -9.34 -2.89 -8.63 2.44 7.05 4.70 0.85 
35827 -7.78 2.01 -2.75 -8.59 2.45 7.13 4.61 7.97 
33539 -2.65 -1.62 -2.90 -8.64 2.54 7.11 4.69 7.94 
31389 -2.65 -5.79 -2.88 -8.58 2.52 7.06 4.61 7.79 
31299 -2.68 -1.63 -2.90 -8.82 2.53 7.08 4.68 7.82 
29940 -2.82 2.00 -2.76 -8.65 2.51 7.12 4.53 7.97 
28690 -7.79 -5.81 -2.92 -8.66 2.53 7.04 4.62 8.10 
28317 -2.65 -5.80 -2.89 -8.82 2.51 7.13 4.83 8.10 
28018 -2.82 -1.63 -2.93 -8.83 2.41 7.10 4.54 7.94 
25640 -7.79 2.00 -2.77 -8.82 2.52 7.16 4.85 7.78 
24323 -2.85 -1.60 -2.90 -8.81 2.44 7.13 4.61 8.13 
19638 -2.67 2.00 -2.96 -8.65 2.51 7.06 4.58 7.98 
19055 -2.83 2.01 -2.76 -8.57 2.50 7.04 4.62 7.80 
17191 -7.78 2.01 -2.88 -8.85 2.51 7.13 4.68 7.95 
17181 -2.85 2.00 -2.96 -8.83 2.52 7.11 4.63 8.10 
16625 -2.73 -5.81 -2.92 -8.84 2.45 7.11 4.68 7.94 
14591 -2.86 -9.36 -2.75 -8.57 2.54 7.04 4.61 7.95 
14259 -2.74 2.01 -2.88 -8.64 2.42 7.13 4.82 7.80 
13332 -7.78 2.01 -2.87 -8.82 2.45 7.10 4.68 8.11 
10795 -2.69 -9.35 -2.74 -8.59 2.51 7.06 4.51 7.96 
9706 -2.75 -5.81 -2.91 -8.82 2.46 7.10 4.67 7.95 
8841 -7.81 -5.87 -2.78 -8.75 2.55 7.12 4.59 7.96 
7945 -2.65 2.00 -2.88 -8.65 2.51 7.14 4.82 8.12 
7370 -7.78 -9.34 -2.74 -8.82 2.41 7.06 4.61 7.95 
7269 -2.67 -5.79 -2.96 -8.82 2.54 7.15 4.63 7.97 
5165 -7.78 -5.79 -2.90 -8.84 2.43 7.05 4.70 7.94 
4206 -2.82 1.98 -2.76 -8.81 2.40 7.04 4.61 7.97 
3553 -2.84 -5.88 -2.98 -8.65 2.42 7.11 4.59 7.79 
3352 -2.82 -9.34 -2.99 -8.81 2.42 7.08 4.57 7.98 
2545 -2.83 -5.79 -2.87 -8.84 2.42 7.06 4.61 7.97 
2485 -7.81 -9.37 -2.78 -8.64 2.50 7.10 4.82 7.95 
965 -2.82 -9.37 -2.98 -8.81 2.43 7.12 4.68 8.13 

Generation : 5
222503 -2.82 -9.34 -2.99 -8.81 2.42 7.08 4.57 7.98 
158616 -2.83 -5.90 -2.98 -8.76 2.57 7.08 4.86 0.84 
109858 -7.76 -5.80 -2.93 -8.63 2.44 7.10 4.82 0.84 
105185 -2.68 -5.86 -2.93 -8.60 2.43 7.12 4.57 7.77 
103332 -2.67 -9.35 -3.00 -8.77 2.44 7.07 4.57 0.83 
93099 -2.68 -9.35 -2.90 -8.75 2.55 7.14 4.62 7.94 
89476 -2.68 -9.33 -2.93 -8.76 2.41 7.10 4.80 7.97 
87645 -2.68 -9.32 -3.01 -8.77 2.43 7.06 4.84 7.96 
85727 -2.68 -5.89 -2.92 -8.59 2.40 7.12 4.83 0.81 
85640 -7.77 -5.87 -2.93 -8.59 2.43 7.07 4.63 7.97 
72158 -7.80 -5.88 -2.89 -8.67 2.42 7.11 4.81 0.80 
71327 -2.83 -5.80 -2.96 -8.65 2.57 7.12 4.83 0.81 
67276 -2.70 -9.37 -2.90 -8.67 2.43 7.14 4.84 0.83 
66229 -2.83 -9.36 -2.92 -8.78 2.43 7.09 4.82 7.98 
64483 -2.68 -5.83 -3.01 -8.59 2.44 7.12 4.81 7.99 
62024 -2.84 -9.33 -2.93 -8.66 2.53 7.07 4.69 0.80 
61909 -2.65 -5.89 -2.94 -8.82 2.44 7.04 4.68 7.77 
60832 -2.68 -5.88 -2.93 -8.77 2.57 7.06 4.68 7.97 
54415 -7.81 -9.35 -2.93 -8.81 2.53 7.08 4.59 0.82 
53789 -2.70 -5.86 -2.90 -8.81 2.56 7.10 4.83 0.83 
53519 -7.79 -5.80 -2.93 -8.83 2.54 7.12 4.69 0.81 
36622 -2.68 -5.89 -2.97 -8.62 2.40 7.13 4.68 0.84 
35330 -2.69 -9.34 -2.90 -8.81 2.56 7.06 4.65 0.81 
33826 -2.84 -5.89 -2.92 -8.74 2.43 7.12 4.66 7.79 
31826 -2.80 -9.34 -2.90 -8.77 2.40 7.14 4.82 7.81 
23243 -2.70 -5.88 -2.89 -8.58 2.55 7.04 4.81 7.81 
23044 -2.65 -9.37 -2.93 -8.61 2.42 7.09 4.86 0.84 
21099 -2.67 -5.80 -2.93 -8.82 2.43 7.12 4.82 7.96 
18833 -7.80 -5.80 -2.99 -8.61 2.53 7.03 4.69 7.80 
18369 -2.67 -9.34 -2.94 -8.76 2.43 7.12 4.66 8.00 
18128 -2.68 -9.31 -2.92 -8.81 2.39 7.04 4.70 7.77 
17099 -2.80 -5.90 -2.93 -8.67 2.44 7.06 4.85 0.84 
15610 -2.65 -5.89 -2.89 -8.75 2.45 7.07 4.62 7.78 
14854 -2.84 -5.79 -2.97 -8.65 2.42 7.10 4.85 7.96 
14570 -7.79 -5.81 -2.94 -8.76 2.43 7.04 4.69 7.97 
13745 -2.68 -5.88 -2.88 -8.58 2.41 7.04 4.66 0.84 
13414 -2.66 -5.89 -2.90 -8.67 2.41 7.05 4.69 7.81 
13222 -2.81 -9.34 -2.90 -8.61 2.39 7.10 4.82 7.95 
12617 -2.82 -5.81 -2.96 -8.60 2.43 7.13 4.55 7.95 
12336 -7.78 -5.86 -2.92 -8.62 2.43 7.08 4.60 7.79 
10705 -2.66 -5.80 -2.92 -8.60 2.56 7.10 4.61 0.82 
10483 -2.69 -9.34 -2.90 -8.77 2.43 7.13 4.56 0.83 
8709 -7.80 -5.89 -2.91 -8.65 2.41 7.06 4.56 0.84 
7330 -7.79 -5.90 -2.90 -8.76 2.42 7.13 4.62 7.77 
6756 -7.78 -5.88 -2.94 -8.76 2.40 7.12 4.86 7.94 
5920 -2.66 -9.33 -2.92 -8.78 2.53 7.08 4.81 7.97 
5134 -2.65 -5.81 -2.90 -8.83 2.55 7.09 4.58 0.84 
4762 -2.80 -5.88 -2.89 -8.74 2.44 7.10 4.67 0.82 
4681 -2.68 -5.82 -2.90 -8.65 2.44 7.13 4.84 7.95 
4057 -2.70 -9.34 -3.00 -8.67 2.44 7.08 4.83 7.96 

Generation : 6
154445 -2.84 -5.79 -2.97 -8.65 2.42 7.10 4.85 7.96 
118621 -2.78 -5.81 -2.89 -8.59 2.41 7.12 4.67 0.80 
113286 -2.86 -5.89 -2.93 -8.65 2.42 7.11 4.70 7.77 
109418 -2.84 -5.87 -2.98 -8.76 2.44 7.13 4.58 0.80 
88887 -2.66 -5.78 -2.94 -8.59 2.44 7.12 4.70 7.78 
87837 -2.81 -5.85 -2.97 -8.60 2.42 7.15 4.67 0.86 
81878 -2.82 -5.84 -2.96 -8.76 2.40 7.13 4.53 7.77 
80199 -2.83 -5.87 -2.89 -8.58 2.42 7.12 4.56 7.96 
78242 -2.66 -5.90 -2.96 -8.59 2.41 7.08 4.86 7.77 
75918 -2.83 -5.86 -2.90 -8.72 2.40 7.10 4.57 0.83 
56358 -2.70 -5.88 -2.97 -8.60 2.44 7.13 4.84 7.77 
55048 -2.70 -5.81 -2.90 -8.63 2.42 7.04 4.58 7.77 
51136 -2.86 -5.78 -2.92 -8.62 2.42 7.08 4.57 0.81 
47729 -2.66 -5.79 -2.87 -8.75 2.41 7.02 4.69 0.80 
46256 -2.82 -5.85 -2.98 -8.68 2.42 7.08 4.85 7.93 
44825 -2.65 -5.80 -2.94 -8.62 2.41 7.13 4.56 0.84 
42369 -2.80 -5.80 -2.87 -8.64 2.46 7.15 4.55 0.84 
38503 -2.86 -5.86 -2.96 -8.59 2.39 7.09 4.57 7.93 
37635 -2.83 -5.89 -2.99 -8.67 2.42 7.11 4.68 7.94 
36610 -2.84 -5.86 -2.94 -8.67 2.41 7.10 4.55 0.84 
35883 -2.80 -5.88 -2.98 -8.60 2.46 7.14 4.68 7.95 
32883 -2.79 -5.85 -2.86 -8.64 2.41 7.02 4.70 7.95 
31000 -2.78 -5.88 -2.99 -8.59 2.45 7.14 4.56 7.93 
28921 -2.68 -5.77 -2.98 -8.77 2.42 7.03 4.65 7.93 
28371 -2.66 -5.88 -2.86 -8.59 2.45 7.07 4.68 0.84 
27894 -2.68 -5.77 -2.98 -8.77 2.46 7.14 4.54 7.95 
26889 -2.68 -5.80 -2.99 -8.64 2.42 7.13 4.67 7.79 
25375 -2.69 -5.79 -2.95 -8.63 2.40 7.06 4.65 0.81 
24303 -2.68 -5.80 -2.95 -8.60 2.38 7.09 4.58 7.95 
23878 -2.80 -5.76 -2.94 -8.62 2.45 7.16 4.67 7.94 
23404 -5.89 -9.46 -7.30 -6.93 2.82 -9.48 1.88 -9.47 
22923 -2.81 -5.80 -2.90 -8.60 2.42 7.09 4.66 7.96 
22761 -2.84 -5.83 -2.95 -8.60 2.41 7.03 4.55 7.95 
21450 -2.68 -5.86 -2.90 -8.57 2.45 7.07 4.55 7.76 
21320 -2.83 -5.87 -2.97 -8.60 2.42 7.09 4.69 0.82 
21126 -2.81 -5.81 -2.94 -8.63 2.45 7.05 4.64 7.99 
19940 -2.65 -5.87 -2.92 -8.58 2.43 7.13 4.66 7.79 
19758 -2.67 -5.79 -2.96 -8.63 2.43 7.12 4.65 0.84 
16380 -2.86 -5.81 -2.91 -8.61 2.43 7.09 4.55 7.75 
15395 -2.86 -5.77 -2.89 -8.74 2.42 7.12 4.88 0.83 
11954 -2.86 -5.83 -2.97 -8.67 2.44 7.11 4.67 7.96 
11217 -2.67 -5.88 -2.95 -8.75 2.44 7.12 4.68 7.78 
11167 -2.69 -5.87 -2.90 -8.57 2.43 7.11 4.57 7.97 
9685 -2.82 -5.83 -2.96 -8.64 2.39 7.09 4.84 0.80 
7632 -2.71 -5.83 -2.90 -8.68 2.44 7.09 4.65 7.98 
5628 -2.81 -5.89 -2.91 -8.61 2.45 7.09 4.57 0.84 
5526 -2.67 -5.79 -2.87 -8.58 2.45 7.03 4.58 7.75 
5255 -2.82 -5.76 -2.90 -8.63 2.42 7.02 4.65 7.97 
1851 -2.67 -5.89 -2.94 -8.62 2.42 7.06 4.55 7.95 
280 -2.81 -5.79 -2.88 -8.73 2.45 7.14 4.66 7.78 

Generation : 7
118202 -2.80 -5.80 -2.87 -8.64 2.46 7.15 4.55 0.84 
110976 -2.85 -5.84 -2.94 -8.65 2.48 7.09 4.55 0.77 
104644 -2.75 -5.78 -2.89 -8.77 2.42 7.17 4.59 0.78 
104390 -2.81 -5.80 -2.92 -8.63 2.49 7.16 4.59 0.86 
101366 -2.83 -5.76 -2.87 -8.77 2.41 7.12 4.69 0.83 
92278 -2.80 -5.91 -2.95 -8.75 2.52 7.12 4.58 0.78 
91600 -2.82 -5.73 -2.88 -8.68 2.35 7.16 4.65 7.89 
89947 -2.81 -5.87 -2.91 -8.70 2.40 7.14 4.54 7.81 
81488 -2.82 -5.78 -2.91 -8.71 2.43 7.02 4.58 0.85 
80992 -2.79 -5.84 -2.87 -8.65 2.46 7.09 4.56 8.00 
70860 -2.87 -5.75 -2.85 -8.61 2.43 7.06 4.59 7.77 
61442 -2.90 -5.74 -2.94 -8.80 2.37 7.20 4.58 0.90 
57849 -2.86 -5.75 -2.90 -8.70 2.46 7.19 4.61 0.78 
54451 -2.88 -5.83 -2.96 -8.75 2.37 7.12 4.62 0.82 
52272 -2.86 -5.80 -2.94 -8.61 2.48 7.15 4.73 7.91 
51154 -2.88 -5.81 -2.98 -8.77 2.37 7.11 4.65 0.90 
47387 -2.79 -5.82 -2.84 -8.75 2.45 7.11 4.54 0.85 
46451 -2.75 -5.76 -2.88 -8.65 2.41 7.12 4.66 7.77 
43374 -2.88 -5.89 -3.03 -8.75 2.37 7.12 4.70 0.82 
41978 -2.76 -5.86 -2.89 -8.69 2.40 7.15 4.51 7.94 
37997 -2.86 -5.84 -2.86 -8.70 2.43 7.11 4.70 7.84 
37495 -2.78 -5.91 -2.83 -8.79 2.41 7.08 4.66 0.83 
36327 -2.78 -5.88 -2.81 -8.68 2.42 7.06 4.56 7.80 
33145 -2.80 -5.80 -2.93 -8.69 2.46 7.17 4.52 0.83 
32206 -2.86 -5.78 -2.99 -8.78 2.42 7.16 4.53 0.81 
31633 -2.86 -5.89 -2.93 -8.61 2.39 7.06 4.65 7.73 
28975 -2.89 -5.80 -2.92 -8.61 2.47 7.18 4.54 0.83 
28016 -2.82 -5.77 -2.82 -8.66 2.39 7.13 4.62 0.78 
23003 -2.86 -5.75 -2.91 -8.71 2.36 7.08 4.58 7.89 
21967 -2.86 -5.84 -2.85 -8.75 2.36 7.19 4.70 0.83 
19266 -2.84 -5.83 -2.89 -8.72 2.49 7.18 4.65 0.89 
19123 -2.86 -5.79 -2.97 -8.73 2.49 7.12 4.67 0.88 
18894 -2.81 -5.83 -2.99 -8.78 2.35 6.97 4.57 0.79 
18601 -2.81 -5.74 -2.90 -8.58 2.44 7.17 4.61 7.94 
17029 -2.79 -5.73 -2.83 -8.62 2.50 7.12 4.60 0.81 
15832 -2.75 -5.74 -2.90 -8.68 2.46 7.05 4.61 7.93 
15466 -2.82 -5.89 -2.95 -8.58 2.40 7.16 4.64 7.92 
14088 -2.79 -5.91 -3.01 -8.66 2.44 7.19 4.76 7.90 
14038 -2.89 -5.78 -2.86 -8.69 2.34 7.09 4.70 0.86 
11992 -2.82 -5.83 -2.87 -8.73 2.51 7.07 4.53 0.76 
11479 -2.87 -5.89 -2.93 -8.74 2.41 7.13 4.66 0.88 
10633 -2.85 -5.76 -3.02 -8.72 2.40 7.07 4.57 8.00 
7370 -2.80 -5.80 -2.84 -8.69 2.41 7.17 4.61 7.72 
7300 -2.81 -5.85 -2.88 -8.66 2.39 7.09 4.60 7.91 
7218 -2.85 -5.81 -2.89 -8.76 2.46 7.14 4.64 0.85 
5134 -2.77 -5.75 -2.84 -8.66 2.44 7.12 4.73 7.73 
4055 -2.80 -5.85 -2.93 -8.64 2.41 7.09 4.52 7.74 
3140 -2.79 -5.82 -2.98 -8.74 2.42 7.18 4.62 8.01 
2999 -2.80 -5.88 -2.96 -8.78 2.45 7.11 4.61 0.78 
1216 -2.82 -5.75 -2.83 -8.68 2.37 7.10 4.74 0.83 

Generation : 8
206719 -2.87 -5.75 -2.85 -8.61 2.43 7.06 4.59 7.77 
186950 -2.82 -5.80 -2.84 -8.62 2.43 7.14 4.62 0.81 
178643 -2.88 -5.78 -2.86 -8.63 2.39 7.16 4.65 7.91 
134242 -2.88 -5.80 -2.94 -8.67 2.41 7.18 4.57 7.76 
95011 -2.81 -5.88 -2.93 -8.73 2.45 7.07 4.60 7.70 
86101 -2.87 -5.79 -2.94 -8.60 2.43 7.13 4.73 0.83 
80006 -2.89 -5.83 -2.94 -8.59 2.39 7.12 4.63 7.92 
79523 6.65 9.65 -2.93 7.91 1.50 -8.20 7.06 9.80 
74990 -2.89 -5.79 -2.97 -8.62 2.40 7.11 4.73 7.73 
72992 -2.90 -5.78 -2.84 -8.76 2.37 7.17 4.59 7.90 
72758 -2.80 -5.85 -2.91 -8.71 2.50 7.13 4.73 0.89 
63362 -1.98 8.61 -1.53 2.30 9.97 -5.60 6.80 -1.72 
55510 -2.80 -5.89 -2.96 -8.76 2.36 7.14 4.61 7.79 
53457 -2.85 -5.79 -2.84 -8.62 2.38 7.16 4.69 0.80 
52072 -2.84 -5.89 -2.82 -8.75 2.35 7.13 4.65 0.90 
50427 -2.90 -5.73 -2.94 -8.61 2.38 7.13 4.62 0.89 
46771 -2.86 -5.78 -2.93 -8.68 2.42 7.17 4.59 7.93 
45562 -2.85 -5.81 -2.95 -8.74 2.41 7.11 4.59 0.90 
44826 -2.89 -5.81 -2.86 -8.62 2.42 7.05 4.74 0.87 
38433 -2.88 -5.78 -2.86 -8.72 2.42 7.14 4.64 7.70 
37092 -2.88 -5.81 -2.93 -8.70 2.43 7.11 4.60 7.78 
35481 -2.86 -5.89 -2.94 -8.76 2.39 7.05 4.61 0.83 
34736 -2.85 -5.82 -2.97 -8.62 2.40 7.17 4.64 0.88 
33809 -2.90 -5.81 -2.97 -8.77 2.39 7.08 4.60 7.76 
32701 -2.86 -5.82 -2.84 -8.62 2.42 7.18 4.67 0.82 
27925 -2.86 -5.77 -2.92 -8.74 2.38 7.07 4.67 0.87 
27916 -2.89 -5.82 -2.83 -8.71 2.49 7.15 4.67 7.80 
26435 -2.90 -5.81 -2.97 -8.76 2.50 7.17 4.62 0.82 
24643 -2.88 -5.79 -2.85 -8.69 2.41 7.15 4.62 7.92 
22832 -2.81 -5.81 -2.93 -8.74 2.42 7.15 4.62 0.90 
20534 -2.85 -5.79 -2.85 -8.63 2.39 7.12 4.73 7.89 
17794 -2.87 -5.81 -2.83 -8.63 2.47 7.15 4.61 0.80 
17190 -2.87 -5.76 -2.84 -8.74 2.43 7.08 4.59 7.76 
15479 -2.80 -5.85 -2.95 -8.70 2.42 7.12 4.68 7.76 
14853 -2.87 -5.88 -2.96 -8.58 2.39 7.07 4.59 7.92 
14270 -2.87 -5.79 -2.83 -8.69 2.44 7.19 4.63 0.82 
13242 -2.87 -5.83 -2.94 -8.67 2.37 7.06 4.58 7.71 
13131 -2.87 -5.81 -2.97 -8.70 2.40 7.17 4.74 7.89 
11883 -2.86 -5.78 -2.86 -8.77 2.44 7.14 4.62 0.89 
11812 -2.88 -5.78 -2.94 -8.68 2.39 7.12 4.67 0.86 
9131 -2.85 -5.84 -2.97 -8.61 2.37 7.15 4.63 0.87 
8871 -2.87 -5.91 -2.96 -8.60 2.40 7.15 4.62 0.86 
5779 -2.87 -5.76 -2.92 -8.69 2.39 7.07 4.65 0.86 
5446 -2.85 -5.87 -2.82 -8.72 2.40 7.17 4.63 7.73 
5003 -2.88 -5.75 -2.85 -8.61 2.45 7.19 4.61 7.73 
4762 -2.80 -5.89 -2.94 -8.69 2.37 7.16 4.59 7.93 
4530 -2.86 -5.81 -2.84 -8.62 2.37 7.14 4.60 0.86 
340 -2.87 -5.80 -2.82 -8.76 2.49 7.16 4.63 0.87 
150 -2.87 -5.85 -2.97 -8.73 2.42 7.13 4.68 7.71 
140 -2.88 -5.73 -2.93 -8.69 2.37 7.17 4.71 0.80 
