Generation : 1
451508 -0.64 -0.28 -0.48 -0.89 0.94 0.70 0.75 0.19 
71423 -0.60 -0.01 -0.37 -0.90 0.86 0.86 0.84 0.85 
61647 -0.67 -0.01 -0.54 -0.90 0.92 0.85 0.88 -0.85 
54326 -0.67 -0.28 -0.56 -0.63 0.70 0.86 0.88 0.85 
43210 -0.60 -0.22 -0.37 -0.89 0.92 0.94 0.88 0.85 
30499 -0.67 -0.98 0.98 -0.79 0.92 0.95 0.88 -0.32 
28930 -0.67 -0.26 0.75 0.07 0.60 0.93 0.84 0.19 
22710 -0.54 0.78 0.22 0.02 0.84 -0.65 -0.92 0.09 
21018 0.45 -0.56 -0.37 0.91 0.34 0.73 -0.95 -0.32 
20726 -0.67 -0.26 0.57 0.91 0.40 -0.12 0.75 0.31 
19428 -0.55 0.02 0.35 0.93 0.31 0.82 0.93 0.68 
16585 -1.04 -0.12 0.45 -0.65 0.99 0.84 0.67 0.35 
14580 -0.74 -0.22 -0.79 0.70 -0.23 0.75 0.83 -0.32 
14431 -0.79 -0.13 -0.26 -0.04 0.40 1.07 0.51 0.21 
7432 -0.52 0.78 -0.82 0.66 -0.22 0.78 0.77 0.63 
7261 -0.61 0.02 -0.08 -0.80 0.51 0.94 0.03 0.19 
6102 0.13 -0.92 -0.32 -0.79 0.34 0.68 0.84 0.21 
5709 0.13 -0.13 -0.37 0.96 -0.87 -0.13 -0.92 0.79 
4823 -0.96 -0.44 -0.54 -0.05 0.92 0.21 0.74 -0.32 
3110 -0.57 -0.20 -0.65 0.26 0.96 0.94 0.86 0.66 
3060 -0.22 0.34 -0.94 0.10 0.89 0.71 0.80 0.10 
2819 0.45 0.44 -0.54 -0.10 0.60 0.73 0.88 0.19 
2777 0.36 -0.44 -0.54 -0.88 0.81 0.79 0.84 0.69 
1499 -0.64 -0.99 -0.60 0.53 -0.24 -0.49 0.01 -0.09 
663 -0.98 0.74 0.14 -0.57 0.08 -0.26 0.94 -0.42 
643 0.38 0.44 -0.04 -0.80 0.40 0.73 -0.85 0.09 
613 -0.63 -0.33 -0.51 -0.75 0.39 -0.25 0.78 -0.35 
441 -0.61 0.78 -0.06 -0.15 -0.17 -0.06 0.78 -0.26 
391 0.13 0.07 -0.44 -0.54 0.34 0.22 0.93 0.31 
361 -0.60 -0.71 -0.53 -0.54 0.40 0.75 0.88 0.59 
341 -0.13 0.75 0.52 -0.81 0.37 0.77 0.95 0.51 
250 -0.12 0.70 -0.83 -0.54 -0.20 0.70 0.75 0.19 
241 0.45 0.78 0.50 0.07 0.94 -0.24 -0.65 0.51 
230 -0.62 -0.20 -0.54 -0.10 0.85 -0.12 0.52 -0.83 
220 -0.61 0.07 -0.91 0.33 0.92 0.86 0.88 0.59 
220 0.11 -0.34 -0.94 0.06 0.35 0.90 0.80 0.16 
200 0.13 0.70 -0.54 0.18 0.87 0.96 0.88 -0.85 
170 -0.01 -0.98 -0.35 -0.86 0.16 0.60 -0.95 0.27 
150 0.38 -0.28 0.75 -0.89 0.60 0.75 0.81 0.19 
140 -0.72 -0.21 -0.88 -0.19 0.37 0.85 0.60 0.26 
130 -0.70 -0.27 -0.48 0.98 0.92 0.95 0.75 0.81 
120 -0.55 -0.12 -0.26 0.18 0.34 -0.13 0.88 0.79 
120 -0.61 -0.11 0.28 -0.14 -0.20 0.75 -0.85 0.23 
120 -0.80 -0.12 -0.91 -0.13 1.01 0.87 0.89 -0.31 
120 -0.60 -0.14 -0.86 -0.82 0.70 0.35 0.73 0.17 
120 -0.64 -0.28 -0.48 -0.89 0.94 0.70 0.75 0.19 
110 -0.62 -0.26 -0.38 -0.99 0.85 0.86 0.80 -0.78 
110 -0.60 -0.28 -0.37 -0.90 0.86 0.86 0.84 -0.85 
100 -0.67 -0.01 -0.54 -0.90 0.70 0.86 0.88 0.85 
80 -0.69 -0.28 -0.56 -0.90 0.70 0.86 0.80 0.85 

Generation : 2
451508 -0.64 -0.28 -0.48 -0.89 0.94 0.70 0.75 0.19 
239361 -0.74 0.04 -0.41 -1.01 0.39 0.93 0.97 0.58 
193035 -0.56 -0.27 -0.53 -0.63 0.60 0.82 0.83 0.65 
224710 -0.61 -0.09 -0.47 -0.95 0.71 1.04 0.83 0.65 
239361 -0.74 0.04 -0.41 -1.01 0.39 0.93 0.97 0.58 
204577 -0.64 -0.27 -0.89 -0.01 0.77 0.91 0.84 0.23 
269462 -0.55 -0.52 -0.12 -0.96 0.21 0.49 0.52 0.89 
92278 -2.80 -5.91 -2.95 -8.75 2.52 7.12 4.58 0.78
222503 -2.82 -9.34 -2.99 -8.81 2.42 7.08 4.57 7.98 
158616 -2.83 -5.90 -2.98 -8.76 2.57 7.08 4.86 0.84 
109858 -7.76 -5.80 -2.93 -8.63 2.44 7.10 4.82 0.84 
105185 -2.68 -5.86 -2.93 -8.60 2.43 7.12 4.57 7.77 
103332 -2.67 -9.35 -3.00 -8.77 2.44 7.07 4.57 0.83 
154445 -2.84 -5.79 -2.97 -8.65 2.42 7.10 4.85 7.96 
118621 -2.78 -5.81 -2.89 -8.59 2.41 7.12 4.67 0.80 
113286 -2.86 -5.89 -2.93 -8.65 2.42 7.11 4.70 7.77 
109418 -2.84 -5.87 -2.98 -8.76 2.44 7.13 4.58 0.80 
206719 -2.87 -5.75 -2.85 -8.61 2.43 7.06 4.59 7.77 
186950 -2.82 -5.80 -2.84 -8.62 2.43 7.14 4.62 0.81 
178643 -2.88 -5.78 -2.86 -8.63 2.39 7.16 4.65 7.91 
134242 -2.88 -5.80 -2.94 -8.67 2.41 7.18 4.57 7.76 
118202 -2.80 -5.80 -2.87 -8.64 2.46 7.15 4.55 0.84 
110976 -2.85 -5.84 -2.94 -8.65 2.48 7.09 4.55 0.77 
104644 -2.75 -5.78 -2.89 -8.77 2.42 7.17 4.59 0.78 
104390 -2.81 -5.80 -2.92 -8.63 2.49 7.16 4.59 0.86 
101366 -2.83 -5.76 -2.87 -8.77 2.41 7.12 4.69 0.83 
89947 -2.81 -5.87 -2.91 -8.70 2.40 7.14 4.54 7.81 
81488 -2.82 -5.78 -2.91 -8.71 2.43 7.02 4.58 0.85 
80992 -2.79 -5.84 -2.87 -8.65 2.46 7.09 4.56 8.00 
23003 -2.86 -5.75 -2.91 -8.71 2.36 7.08 4.58 7.89 
21967 -2.86 -5.84 -2.85 -8.75 2.36 7.19 4.70 0.83 
19266 -2.84 -5.83 -2.89 -8.72 2.49 7.18 4.65 0.89 
19123 -2.86 -5.79 -2.97 -8.73 2.49 7.12 4.67 0.88 
18894 -2.81 -5.83 -2.99 -8.78 2.35 6.97 4.57 0.79 
18601 -2.81 -5.74 -2.90 -8.58 2.44 7.17 4.61 7.94 
17029 -2.79 -5.73 -2.83 -8.62 2.50 7.12 4.60 0.81 
15832 -2.75 -5.74 -2.90 -8.68 2.46 7.05 4.61 7.93 
15466 -2.82 -5.89 -2.95 -8.58 2.40 7.16 4.64 7.92 
14038 -2.89 -5.78 -2.86 -8.69 2.34 7.09 4.70 0.86 
11992 -2.82 -5.83 -2.87 -8.73 2.51 7.07 4.53 0.76 
11479 -2.87 -5.89 -2.93 -8.74 2.41 7.13 4.66 0.88 
10633 -2.85 -5.76 -3.02 -8.72 2.40 7.07 4.57 8.00 
7370 -2.80 -5.80 -2.84 -8.69 2.41 7.17 4.61 7.72 
7300 -2.81 -5.85 -2.88 -8.66 2.39 7.09 4.60 7.91 
7218 -2.85 -5.81 -2.89 -8.76 2.46 7.14 4.64 0.85 
5134 -2.77 -5.75 -2.84 -8.66 2.44 7.12 4.73 7.73 
4055 -2.80 -5.85 -2.93 -8.64 2.41 7.09 4.52 7.74 
3140 -2.79 -5.82 -2.98 -8.74 2.42 7.18 4.62 8.01 
95011 -2.81 -5.88 -2.93 -8.73 2.45 7.07 4.60 7.70 

