
Generation : 0
1921 -0.164872 -0.232038 -0.917271 0.278549 
1767 -0.225619 -0.173198 -0.886616 0.255060 
1216 -0.170481 -0.321921 -0.873373 0.323299 
1179 -0.209064 -0.329878 -0.981692 0.388247 
1145 -0.185938 -0.298161 -0.849421 0.393716 
1128 -0.207147 -0.315044 -0.874026 0.306457 
1103 -0.175388 -0.317972 -0.874813 0.320680 
1091 -0.202858 -0.301865 -0.879370 0.307301 
1066 -0.129870 -0.339470 -0.875344 0.318852 
1065 -0.185450 -0.294341 -0.871044 0.346775 
1064 -0.185709 -0.304718 -0.808350 0.468220 
1059 -0.194068 -0.297408 -0.875845 0.326775 
994 -0.203655 -0.302279 -0.879670 0.305505 
990 -0.045966 -0.302326 -0.824482 0.440880 
957 -0.193989 -0.298085 -0.875323 0.327603 
922 -0.180595 -0.305867 -0.873022 0.334161 
919 -0.164800 -0.326465 -0.871657 0.326307 
894 -0.202844 -0.307455 -0.854698 0.365810 
875 -0.189006 -0.299339 -0.827273 0.436225 
861 -0.161226 -0.369375 -0.829594 0.186916 
813 -0.185721 -0.293084 -0.872142 0.344932 
812 -0.169832 -0.321796 -0.855372 0.368704 
810 -0.180595 -0.305867 -0.873022 0.334161 
805 -0.166861 -0.327472 -0.884729 0.286661 
804 -0.148800 -0.353450 -0.867252 0.317499 
781 -0.185721 -0.293087 -0.872141 0.344931 
774 -0.224802 -0.325628 -0.830350 0.392364 
771 -0.168323 -0.330963 -0.816419 0.442257 
748 -0.137692 -0.411554 -0.841934 0.320642 
742 -0.194407 -0.347588 -0.852853 0.337683 
740 -0.195524 -0.365772 -0.780201 0.468259 
729 -0.213106 -0.333481 -0.866174 0.305153 
725 -0.156377 -0.340751 -0.869450 0.321702 
697 -0.197073 -0.315551 -0.843285 0.387892 
690 -0.173799 -0.346841 -0.854289 0.345957 
682 -0.229777 -0.335938 -0.813891 0.414643 
680 -0.175957 -0.358350 -0.795961 0.455050 
642 -0.225362 -0.359747 -0.880947 0.209107 
617 -0.182730 -0.356054 -0.836523 0.374252 
616.99 -0.185076 -0.341624 -0.836347 0.386735 
610 -0.127040 -0.418075 -0.848928 0.297315 
608 -0.143821 -0.366284 -0.825243 0.405125 
607 -0.187831 -0.342587 -0.770664 0.503418 
584 -0.056493 -0.415834 -0.848700 0.321868 
570 -0.247175 -0.348991 -0.808777 0.403719 
567 -0.090895 -0.351038 -0.863087 0.351556 
536 0.035538 -0.410458 -0.845441 0.339841 
532 -0.180279 -0.345535 -0.699438 0.381282 
491 -0.186614 -0.356457 -0.782220 0.475652 
356 -0.208810 -0.393015 -0.783483 0.433696 
315 -0.002915 -0.549386 -0.570727 0.610276 
297 0.335342 -0.590804 -0.702260 0.212903 
274 0.063937 -0.622836 -0.743467 0.235040 
265 -0.002498 -0.668860 -0.719332 0.187566 
264 -0.119392 -0.604201 -0.612497 0.495514 
247 0.486562 -0.699942 -0.949902 0.365601 
246.99 0.186474 -0.577766 -0.701337 0.373552 
238 0.009473 -0.625271 -0.719230 0.302743 
225 -0.042927 -0.623204 -0.690873 0.365664 
224 -0.106456 -0.455222 -0.483656 0.362647 
223 0.109824 -0.673586 -0.716257 0.145586 
211 -0.127756 -0.600731 -0.621144 0.486807 
181 -0.148027 -0.462903 -0.430215 0.760739 
170 -0.114151 -0.188309 -0.091481 0.840977 
165 -0.279024 -0.230323 -0.089945 0.963205 
164.99 -0.130588 -0.215425 -0.104654 0.962074 
160 -0.234054 -0.673737 -0.650825 0.260237 
154 -0.561733 -0.463056 -0.546268 -0.414277 
149 -0.153706 -0.803746 -0.646062 0.712637 
147 0.102772 -0.353611 -0.176893 0.917340 
143 0.447613 -0.582674 -0.606713 0.303370 
141 -0.051729 -0.743769 -0.591176 0.307640 
140.99 0.126238 -0.471911 -0.395369 -0.029750 
139 -0.029241 -0.632378 -0.546876 0.547877 
134 -0.918615 -0.883759 -0.776508 0.086561 
128 -0.103702 -0.813754 -0.529106 0.518421 
117 -0.119392 -0.604201 -0.485572 0.495514 
116 -0.037205 -0.835236 -0.463481 0.293570 
112 -0.442676 -0.667264 -0.487059 -0.197103 
110 0.200704 -0.750084 -0.628380 -0.047226 
109 -0.657108 -0.606613 -0.443729 -0.057743 
102 -0.614376 -0.591190 -0.519321 0.057808 
100 -0.066330 -0.811506 -0.348402 0.446223 
99 0.204572 -0.767620 -0.607145 -0.016899 
90 -0.060071 -0.778016 -0.298270 0.549652 
85 -0.189942 -0.953503 -0.343957 0.920045 
80 -0.649081 -0.470848 -0.825492 -0.902760 
79.99 0.322142 -0.810112 -0.229015 0.433007 
73 -0.657313 -0.606511 -0.443568 -0.057717 
72.99 0.107281 -0.799822 -0.553939 -0.391745 
72.98 0.861041 -0.873952 -0.089992 0.450666 
65 0.153509 -0.822651 -0.505244 -0.210737 
63 -0.701686 -0.595993 -0.250834 -0.299186 
61 -0.513636 -0.531074 -0.408120 -0.748177 
56 -0.487607 -0.797903 -0.044124 0.673064 
55 -0.701580 -0.596054 -0.250879 -0.299274 
54.99 0.277791 -0.696828 -0.529799 -0.979990 
54 -0.858909 -0.729652 -0.265412 -0.507629 
44 0.538422 -0.532277 -0.218146 0.191662 
40 -0.597109 -0.549800 -0.314343 -0.492311 

Generation : 1
2381 -0.164872 -0.232038 -0.917271 0.278549 
2368 -0.215784 -0.224232 -0.902811 0.296800 
2248 -0.223137 -0.225143 -0.906148 0.280030 
2179 -0.169832 -0.166820 -0.855372 0.368704 
1706 -0.225619 -0.173198 -0.886616 0.255060 
1400 -0.217115 -0.229494 -0.883638 0.345511 
1364 -0.168925 -0.263721 -0.902943 0.294294 
1272 -0.173199 -0.257416 -0.894309 0.322415 
1240 -0.187268 -0.295928 -0.855382 0.381678 
1209 -0.192692 -0.303746 -0.876601 0.319654 
1177 -0.172431 -0.254584 -0.901933 0.303269 
1107 -0.164800 -0.326465 -0.871657 0.326307 
1096 -0.129870 -0.339470 -0.875344 0.318852 
1086 -0.180595 -0.305867 -0.873022 0.334161 
1070 -0.203655 -0.302279 -0.879670 0.305505 
1060 -0.209064 -0.329878 -0.981692 0.388247 
1032 -0.189444 -0.295010 -0.873835 0.336887 
1019 -0.191828 -0.323732 -0.857617 0.350561 
1008 -0.194068 -0.297408 -0.875845 0.326775 
997 -0.168037 -0.323880 -0.872641 0.324596 
995 -0.187102 -0.324163 -0.845080 0.381774 
987 -0.189620 -0.343677 -0.882769 0.258165 
972 -0.197073 -0.315551 -0.843285 0.387892 
971 -0.183004 -0.299888 -0.872643 0.339221 
965 -0.045966 -0.302326 -0.824482 0.440880 
959 -0.185709 -0.304718 -0.808350 0.468220 
958 -0.090895 -0.351038 -0.863087 0.351556 
957 -0.202844 -0.307455 -0.854698 0.365810 
951 -0.180595 -0.305867 -0.873022 0.334161 
944 -0.168323 -0.330963 -0.816419 0.442257 
940 -0.184557 -0.307930 -0.875407 0.323698 
926 -0.176534 -0.350337 -0.880157 0.267252 
902 -0.170481 -0.321921 -0.873373 0.323299 
901.99 -0.185938 -0.298161 -0.849421 0.393716 
900 -0.127390 -0.300258 -0.861057 0.390124 
893 -0.169070 -0.324191 -0.878056 0.308762 
883 -0.171242 -0.351016 -0.878818 0.274122 
879 -0.171820 -0.322036 -0.879149 0.306380 
874 -0.189006 -0.299339 -0.827273 0.436225 
863 -0.185450 -0.294341 -0.871044 0.346775 
862 -0.186614 -0.356457 -0.782220 0.475652 
851 -0.185076 -0.341624 -0.836347 0.386735 
844 -0.178118 -0.310644 -0.862440 0.357732 
836 -0.169701 -0.341413 -0.854884 0.351870 
821 -0.171693 -0.330519 -0.742337 0.556969 
796 -0.202858 -0.301865 -0.879370 0.307301 
795 -0.013480 -0.394768 -0.862044 0.317579 
785 -0.156377 -0.340751 -0.869450 0.321702 
783 -0.185721 -0.293087 -0.872141 0.344931 
781 -0.185721 -0.293084 -0.872142 0.344932 
757 -0.180009 -0.398247 -0.830333 0.345749 
746 -0.197290 -0.301657 -0.857283 0.367623 
741 -0.193989 -0.382840 -0.875323 0.327603 
730 -0.224802 -0.325628 -0.830350 0.392364 
723 -0.166861 -0.327472 -0.884729 0.143662 
703 -0.148800 -0.353450 -0.867252 0.317499 
701 -0.202156 -0.328061 -0.865899 0.318948 
698 -0.229777 -0.335938 -0.813891 0.414643 
684 0.035538 -0.410458 -0.845441 0.339841 
682 -0.175388 -0.317972 -0.874813 0.320680 
665 -0.182730 -0.356054 -0.836523 0.374252 
661 -0.161226 -0.369375 -0.829594 0.186916 
657 -0.175957 -0.358350 -0.795961 0.455050 
645 -0.213106 -0.333481 -0.866174 0.305153 
641 -0.187831 -0.342587 -0.770664 0.503418 
639 -0.127040 -0.418075 -0.848928 0.297315 
631 -0.225362 -0.359747 -0.880947 0.209107 
623 -0.173799 -0.346841 -0.854289 0.345957 
614 -0.164697 -0.348624 -0.854590 0.347869 
593 -0.143821 -0.366284 -0.825243 0.405125 
584 -0.175185 -0.374955 -0.787902 0.455992 
580 -0.137692 -0.411554 -0.841934 0.320642 
567 -0.207147 -0.315044 -0.874026 0.306457 
550 -0.056493 -0.415834 -0.848700 0.321868 
534 -0.180279 -0.345535 -0.699438 0.381282 
526 -0.247175 -0.348991 -0.808777 0.403719 
512 -0.195524 -0.365772 -0.780201 0.468259 
506 -0.167102 -0.390304 -0.814400 0.395592 
358 -0.208810 -0.393015 -0.783483 0.433696 
316 -0.194407 -0.528274 -0.852853 0.337683 
301 0.186474 -0.577766 -0.701337 0.373552 
294 0.009473 -0.625271 -0.719230 0.302743 
271 -0.042927 -0.623204 -0.690873 0.365664 
266 0.063937 -0.622836 -0.743467 0.235040 
257 0.486562 -0.699942 -0.949902 0.365601 
256 -0.002915 -0.549386 -0.570727 0.610276 
246 0.335342 -0.590804 -0.702260 0.212903 
241 -0.127756 -0.600731 -0.621144 0.486807 
238 -0.119392 -0.604201 -0.612497 0.495514 
227 -0.148027 -0.462903 -0.430215 0.760739 
221 -0.002498 -0.668860 -0.719332 0.187566 
220 -0.106456 -0.455222 -0.483656 0.362647 
195 0.109824 -0.673586 -0.716257 0.145586 
179 -0.561733 -0.463056 -0.546268 -0.414277 
175 -0.130588 -0.215425 -0.104654 0.962074 
154 -0.114151 -0.188309 -0.091481 0.840977 
149 -0.234054 -0.673737 -0.650825 0.260237 
136 0.102772 -0.353611 -0.176893 0.917340 
129 -0.279024 -0.230323 -0.089945 0.963205 
128 -0.153706 -0.803746 -0.646062 0.712637 
