
Generation : 0
9330 -0.209064 -0.329878 -0.981692 0.388247 
2244 0.486562 -0.699942 -0.949902 0.365601 
2100 -0.106456 -0.455222 -0.483656 0.362647 
1523 -0.114151 -0.188309 -0.091481 0.840977 
1381 -0.153706 -0.803746 -0.646062 0.712637 
1013 0.126238 -0.471911 -0.395369 -0.029750 
922 -0.918615 -0.883759 -0.776508 0.086561 
867 -0.189942 -0.953503 -0.460767 0.920045 
866 -0.649081 -0.470848 -0.825492 -0.902760 
793 0.107281 -0.799822 -0.553939 -0.391745 
607 -0.624636 -0.797903 -0.044124 0.673064 
605 0.861041 -0.873952 -0.089992 0.450666 
558 -0.513636 -0.531074 -0.408120 -0.748177 
530 -0.858909 -0.729652 -0.307169 -0.366321 
414 0.277791 -0.696828 -0.529799 -0.979990 
267 -0.563832 -0.712961 0.315282 0.883418 
243 0.333063 -0.814367 -0.166234 -0.869686 
168 -0.541463 -0.799227 0.211112 -0.271829 
164 0.538932 -0.984509 0.125953 -0.607155 
152 -0.930465 -0.629481 0.354352 -0.669202 
147 -0.906673 -0.491535 0.272596 -0.128389 
61 0.468043 -0.506559 0.250182 0.783363 
26 0.117553 -0.510226 0.458048 0.743114 
20 0.660861 -0.790239 0.769445 -0.309273 
9 -0.828563 -0.079664 0.838190 0.206486 
0 -0.070521 0.846836 -0.061339 0.324355 
-0.01 -0.288924 0.594765 -0.819015 0.532297 
-0.02 -0.486592 0.919945 -0.625842 -0.723764 
-0.03 -0.562594 0.694840 -0.749551 0.892328 
-0.04 -0.564794 0.874830 0.060472 0.670429 
-0.05 0.532552 -0.534237 0.190908 -0.414102 
-0.06 -0.565046 -0.046535 -0.512398 -0.652458 
-0.07 0.885279 -0.146615 -0.683634 -0.363593 
-0.08 -0.768176 -0.236489 0.677087 -0.689434 
-0.09 -0.083128 0.504345 0.140382 -0.969521 
-0.10 0.725582 0.030893 0.767934 0.565065 
-0.11 0.731897 -0.480701 0.171085 0.635914 
-0.12 -0.136525 0.389979 0.303668 -0.818601 
-0.13 0.400367 -0.205001 -0.100587 0.248012 
-0.14 0.625468 0.116909 -0.153037 -0.439510 
-0.15 -0.727305 0.454479 -0.730328 0.841673 
-0.16 0.679039 -0.090016 0.764904 -0.131629 
-0.17 -0.656542 0.882252 -0.733900 -0.883627 
-0.18 -0.847390 0.869325 -0.593475 -0.402100 
-0.19 0.951050 -0.692972 -0.527918 0.488551 
-0.20 -0.865508 0.487648 -0.478170 -0.606139 
-0.21 -0.530320 0.756502 0.921883 0.142018 
-0.22 0.392867 -0.078221 0.802906 0.305974 
-0.23 -0.687792 -0.209954 0.583003 0.225722 
-0.24 0.344202 0.176557 0.026246 -0.202455 
-0.25 -0.086288 0.851148 0.419979 0.973067 
-0.26 0.160638 0.611694 0.185801 -0.832612 
-0.27 0.467741 -0.403297 0.934118 0.548987 
-0.28 -0.177436 -0.227838 0.654306 0.588031 
-0.29 0.371252 0.823877 0.763011 0.128313 
-0.30 -0.053469 -0.303319 0.467419 0.708813 
-0.31 0.299275 -0.512337 0.507675 -0.535346 
-0.32 0.368035 -0.107629 -0.953193 -0.882743 
-0.33 0.429481 0.289289 0.890882 -0.404312 
-0.34 -0.605424 -0.780637 0.835503 0.039805 
-0.35 0.538422 -0.532277 -0.275447 0.191662 
-0.36 -0.937281 0.963222 -0.524879 -0.329120 
-0.37 0.950754 0.263262 0.409336 0.014098 
-0.38 -0.586674 0.574698 0.211214 0.892891 
-0.39 0.482230 -0.547316 0.407465 0.607026 
-0.40 0.274157 -0.401488 0.449997 0.208979 
-0.41 0.152487 0.896426 0.002404 0.870907 
-0.42 0.878357 -0.310384 0.761960 -0.672688 
-0.43 -0.758656 -0.319768 0.739104 0.937896 
-0.44 -0.792859 0.653184 -0.689145 0.332295 
-0.45 0.941718 -0.118034 0.187757 -0.829511 
-0.46 0.220567 0.974465 -0.015855 0.421658 
-0.47 0.874463 -0.055721 -0.441118 -0.449363 
-0.48 0.298002 -0.171650 -0.390909 0.250165 
-0.49 -0.037609 0.905606 -0.972767 -0.857249 
-0.50 0.369211 -0.117820 0.922733 -0.019089 
-0.51 0.859430 0.012824 0.286194 0.997474 
-0.52 -0.959896 0.824914 0.415318 0.063961 
-0.53 -0.171397 0.413445 0.359512 0.273079 
-0.54 -0.793695 0.295986 -0.196359 -0.080796 
-0.55 0.447151 0.512739 0.349269 -0.367600 
-0.56 -0.648157 -0.788777 0.419701 -0.666764 
-0.57 -0.788623 0.716294 0.926994 0.102923 
-0.58 0.734547 0.754996 -0.297328 0.156920 
-0.59 -0.703755 0.800114 -0.814201 -0.554703 
-0.60 -0.955436 0.756908 -0.282255 0.616099 
-0.61 0.930679 0.262184 0.393982 0.007163 
-0.62 0.536646 0.273067 0.318671 -0.446041 
-0.63 -0.163556 0.267932 0.322827 -0.594905 
-0.64 0.101470 -0.799049 0.009572 0.845771 
-0.65 0.967684 0.824373 0.181742 0.005928 
-0.66 -0.348530 0.757784 -0.936022 -0.690975 
-0.67 -0.879110 0.741059 0.309290 -0.420461 
-0.68 -0.351609 -0.216891 0.479337 -0.884279 
-0.69 -0.569907 0.762689 0.460213 0.549406 
-0.70 -0.252592 0.104180 0.352249 -0.224716 
-0.71 0.756053 -0.893833 0.390439 0.031302 
-0.72 0.584387 -0.186080 0.571127 -0.061125 
-0.73 0.560874 0.866820 0.594089 -0.452177 
-0.74 -0.310405 0.872298 -0.493119 0.144058 

Generation : 1
9775 -0.185721 -0.293084 -0.872142 0.344932 
9424 -0.209064 -0.329878 -0.981692 0.388247 
9250 -0.189006 -0.299339 -0.827273 0.436225 
7993 -0.185450 -0.294341 -0.871044 0.346775 
7775 -0.225619 -0.312973 -0.886616 0.255060 
7333 -0.185076 -0.341624 -0.836347 0.386735 
2413 0.486562 -0.699942 -0.949902 0.365601 
2143 0.063937 -0.622836 -0.743467 0.235040 
2121 -0.119392 -0.604201 -0.612497 0.495514 
1982 -0.119392 -0.604201 -0.612497 0.495514 
1973 -0.106456 -0.455222 -0.483656 0.362647 
1947 0.447613 -0.582674 -0.606713 0.303370 
1767 -0.148027 -0.462903 -0.430215 0.760739 
1535 -0.130588 -0.215425 -0.104654 0.962074 
1498 -0.114151 -0.188309 -0.091481 0.840977 
1384 -0.105341 -0.230323 -0.089945 0.963205 
1311 -0.153706 -0.803746 -0.646062 0.712637 
1285 -0.051729 -0.743769 -0.591176 0.307640 
1100 0.126238 -0.471911 -0.395369 -0.029750 
1028 0.200704 -0.750084 -0.628380 -0.047226 
1020 -0.614376 -0.591190 -0.519321 0.057808 
1008 -0.442676 -0.667264 -0.565639 -0.197103 
1005 -0.918615 -0.883759 -0.776508 0.086561 
966 -0.189942 -0.953503 -0.460767 0.920045 
956 -0.037205 -0.835236 -0.463481 0.293570 
932 0.204572 -0.767620 -0.607145 -0.016899 
862 -0.060071 -0.778016 -0.298270 0.549652 
858 -0.649081 -0.470848 -0.825492 -0.902760 
852 -0.657313 -0.606511 -0.443568 -0.057717 
825 -0.066330 -0.811506 -0.348402 0.446223 
780 0.107281 -0.799822 -0.553939 -0.391745 
625 0.861041 -0.873952 -0.089992 0.450666 
618 -0.624636 -0.797903 -0.044124 0.673064 
578 -0.597109 -0.549800 -0.314343 -0.492311 
559 -0.858909 -0.729652 -0.265412 -0.366321 
545 -0.513636 -0.531074 -0.408120 -0.748177 
543 -0.701686 -0.595993 -0.250834 -0.299186 
532 -0.701580 -0.596054 -0.250879 -0.299274 
448 0.277791 -0.696828 -0.529799 -0.979990 
444 0.538422 -0.532277 -0.275447 0.191662 
281 -0.563832 -0.712961 0.315282 0.883418 
273 0.951050 -0.692972 -0.527918 0.488551 
245 -0.023877 -0.790624 -0.011730 -0.611724 
236 0.333063 -0.814367 -0.166234 -0.869686 
167 -0.541463 -0.799227 0.211112 -0.271829 
154 -0.906673 -0.491535 0.272596 -0.128389 
153 -0.930465 -0.629481 0.354352 -0.669202 
126 0.538932 -0.984509 0.125953 -0.607155 
62 0.468043 -0.506559 0.250182 0.783363 
28 0.117553 -0.510226 0.458048 0.743114 
12 0.532552 -0.534237 0.190908 -0.414102 
9 -0.768176 -0.236489 0.677087 -0.689434 
6 0.368035 -0.107629 -0.953193 -0.882743 
0 0.660861 -0.790239 0.769445 -0.309273 
-0.01 -0.828563 -0.079664 0.838190 0.206486 
-0.02 -0.070521 0.846836 -0.061339 0.324355 
-0.03 -0.288924 0.594765 -0.819015 0.532297 
-0.04 -0.486592 0.919945 -0.625842 -0.692776 
-0.05 -0.562594 0.694840 -0.749551 0.892328 
-0.06 -0.564794 0.874830 -0.046515 0.670429 
-0.07 -0.565046 -0.046535 -0.512398 -0.652458 
-0.08 0.885279 -0.146615 -0.683634 -0.363593 
-0.09 -0.083128 0.504345 0.140382 -0.969521 
-0.10 0.725582 0.030893 0.767934 0.565065 
-0.11 0.731897 -0.480701 0.171085 0.635914 
-0.12 -0.136525 0.389979 0.303668 -0.818601 
-0.13 0.400367 -0.205001 -0.100587 0.248012 
-0.14 0.625468 0.116909 -0.153037 -0.439510 
-0.15 -0.727305 0.454479 -0.730328 0.841673 
-0.16 0.679039 -0.090016 0.764904 -0.131629 
-0.17 -0.656542 0.882252 -0.733900 -0.883627 
-0.18 -0.847390 0.869325 -0.593475 -0.402100 
-0.19 -0.865508 0.487648 -0.478170 -0.606139 
-0.20 -0.530320 0.756502 0.921883 0.142018 
-0.21 0.392867 -0.078221 0.802906 0.305974 
-0.22 -0.687792 -0.209954 0.583003 0.225722 
-0.23 0.344202 0.176557 0.026246 -0.202455 
-0.24 -0.086288 0.851148 0.419979 0.973067 
-0.25 0.160638 0.611694 0.185801 -0.832612 
-0.26 0.467741 -0.403297 0.934118 0.548987 
-0.27 -0.177436 -0.227838 0.654306 0.588031 
-0.28 0.371252 0.823877 0.763011 0.128313 
-0.29 -0.053469 -0.303319 0.467419 0.708813 
-0.30 0.299275 -0.512337 0.507675 -0.535346 
-0.31 0.429481 0.289289 0.890882 -0.404312 
-0.32 -0.605424 -0.780637 0.835503 0.039805 
-0.33 -0.937281 0.963222 -0.524879 -0.329120 
-0.34 0.950754 0.263262 0.409336 0.014098 
-0.35 -0.586674 0.574698 0.211214 0.892891 
-0.36 0.482230 -0.547316 0.407465 0.607026 
-0.37 0.274157 -0.401488 0.449997 0.208979 
-0.38 0.152487 0.896426 0.002404 0.870907 
-0.39 0.741177 -0.310384 0.761960 -0.672688 
-0.40 -0.758656 -0.319768 0.739104 0.937896 
-0.41 -0.792859 0.653184 -0.689145 0.332295 
-0.42 0.687918 -0.387590 0.380056 0.481768 
-0.43 -0.686760 -0.464707 0.261753 -0.493855 
-0.44 0.396704 -0.152338 -0.384422 0.819536 
-0.45 0.676913 -0.309796 0.413261 0.524434 
-0.46 0.504823 -0.334127 0.530764 -0.593129 

Generation : 2
16652 -0.225619 -0.173198 -0.886616 0.255060 
9460 -0.203655 -0.302279 -0.879670 0.305505 
9452 -0.209064 -0.329878 -0.981692 0.388247 
9415 -0.185618 -0.302326 -0.824482 0.440880 
9321 -0.185721 -0.293087 -0.872141 0.344931 
9227 -0.185709 -0.304718 -0.808350 0.468220 
9200 -0.185450 -0.294341 -0.871044 0.346775 
8760 -0.202858 -0.301865 -0.879370 0.307301 
8728 -0.166861 -0.327472 -0.884729 0.286661 
8683 -0.175388 -0.317972 -0.874813 0.320680 
8598 -0.185721 -0.293084 -0.872142 0.344932 
8395 -0.148800 -0.353450 -0.867252 0.317499 
8362 -0.090895 -0.351038 -0.863087 0.351556 
7771 -0.189006 -0.299339 -0.827273 0.436225 
7513 -0.164800 -0.326465 -0.871657 0.326307 
6997 -0.180279 -0.345535 -0.699438 0.381282 
6756 -0.185076 -0.341624 -0.836347 0.386735 
6678 -0.143821 -0.366284 -0.825243 0.405125 
6591 -0.224802 -0.325628 -0.830350 0.392364 
6590 -0.187831 -0.342587 -0.770664 0.503418 
6443 -0.173799 -0.346841 -0.854289 0.345957 
6379 -0.186614 -0.356457 -0.782220 0.475652 
6222 -0.213106 -0.333481 -0.866174 0.305153 
2864 -0.002915 -0.549386 -0.570727 0.610276 
2455 -0.002498 -0.668860 -0.719332 0.187566 
2381 0.486562 -0.699942 -0.949902 0.365601 
2377 -0.042927 -0.623204 -0.690873 0.365664 
2284 0.063937 -0.622836 -0.743467 0.235040 
2061 -0.119392 -0.604201 -0.612497 0.495514 
2028 0.109824 -0.673586 -0.716257 0.145586 
2009 0.335342 -0.590804 -0.702260 0.212903 
1982 0.447613 -0.582674 -0.606713 0.303370 
1974 -0.119392 -0.604201 -0.612497 0.495514 
1945 -0.106456 -0.455222 -0.483656 0.362647 
1706 -0.148027 -0.462903 -0.430215 0.760739 
1645 0.046424 -0.353611 -0.176893 0.917340 
1428 -0.279024 -0.230323 -0.089945 0.963205 
1423 -0.234054 -0.673737 -0.650825 0.260237 
1407 -0.130588 -0.215425 -0.104654 0.962074 
1393 -0.029241 -0.632378 -0.546876 0.547877 
1366 -0.114151 -0.188309 -0.091481 0.840977 
1307 -0.103702 -0.663726 -0.529106 0.518421 
1301 -0.051729 -0.743769 -0.591176 0.307640 
1249 -0.153706 -0.803746 -0.646062 0.712637 
1230 -0.561733 -0.463056 -0.546268 -0.414277 
1052 0.126238 -0.471911 -0.395369 -0.029750 
1009 0.204572 -0.767620 -0.607145 -0.016899 
977 0.200704 -0.750084 -0.628380 -0.047226 
949 -0.614376 -0.591190 -0.519321 0.057808 
942 -0.657313 -0.606511 -0.443568 -0.057717 
917 -0.918615 -0.883759 -0.776508 0.086561 
913 -0.442676 -0.667264 -0.565639 -0.197103 
906 -0.189942 -0.953503 -0.460767 0.920045 
881 -0.037205 -0.835236 -0.463481 0.293570 
876 -0.657108 -0.606613 -0.443729 -0.057743 
858 -0.649081 -0.470848 -0.825492 -0.902760 
835 -0.060071 -0.778016 -0.298270 0.549652 
826 -0.066330 -0.811506 -0.348402 0.446223 
763 0.153509 -0.822651 -0.505244 -0.210737 
741 0.107281 -0.799822 -0.553939 -0.391745 
708 0.322142 -0.810112 -0.229015 0.433007 
620 0.861041 -0.873952 -0.089992 0.450666 
600 -0.624636 -0.797903 -0.044124 0.673064 
595 -0.597109 -0.549800 -0.314343 -0.492311 
537 -0.701580 -0.596054 -0.250879 -0.299274 
531 -0.513636 -0.531074 -0.408120 -0.748177 
506 -0.701686 -0.595993 -0.250834 -0.299186 
485 -0.858909 -0.729652 -0.265412 -0.366321 
402 0.277791 -0.696828 -0.529799 -0.979990 
363 0.538422 -0.532277 -0.218146 0.191662 
277 -0.023877 -0.790624 -0.011730 -0.611724 
247 0.333063 -0.814367 -0.166234 -0.869686 
145 -0.565046 -0.046535 -0.512398 -0.652458 
138 -0.930465 -0.629481 0.354352 -0.669202 
48 0.468043 -0.506559 0.250182 0.783363 
18 0.532552 -0.534237 0.190908 -0.414102 
17.99 0.885279 -0.146615 -0.683634 -0.363593 
13 -0.828563 -0.079664 0.838190 0.206486 
0 -0.563832 -0.712961 0.315282 0.883418 
-0.01 0.951050 -0.692972 -0.527918 0.488551 
-0.02 -0.541463 -0.799227 0.211112 -0.271829 
-0.03 -0.906673 -0.491535 0.272596 -0.128389 
-0.04 0.538932 -0.984509 0.125953 -0.607155 
-0.05 0.117553 -0.510226 0.458048 0.743114 
-0.06 -0.768176 -0.236489 0.677087 -0.689434 
-0.07 0.368035 -0.107629 -0.953193 -0.882743 
-0.08 0.660861 -0.790239 0.769445 -0.309273 
-0.09 -0.070521 0.846836 -0.061339 0.324355 
-0.10 -0.288924 0.594765 -0.819015 0.532297 
-0.11 -0.486592 0.919945 -0.625842 -0.692776 
-0.12 -0.562594 0.694840 -0.749551 0.892328 
-0.13 -0.564794 0.874830 -0.046515 0.670429 
-0.14 -0.083128 0.504345 0.140382 -0.969521 
-0.15 0.725582 0.030893 0.767934 0.565065 
-0.16 0.731897 -0.480701 0.171085 0.635914 
-0.17 -0.136525 0.389979 0.303668 -0.818601 
-0.18 0.400367 -0.205001 -0.100587 0.248012 
-0.19 0.625468 0.116909 -0.153037 -0.439510 
-0.20 -0.727305 0.454479 -0.730328 0.841673 
-0.21 0.679039 -0.090016 0.764904 -0.131629 

Generation : 3
17689 -0.225619 -0.173198 -0.886616 0.255060 
14847 -0.164872 -0.232038 -0.917271 0.278549 
10214 -0.193989 -0.298085 -0.875323 0.327603 
9970 -0.045966 -0.302326 -0.824482 0.440880 
9602 -0.203655 -0.302279 -0.879670 0.305505 
9539 -0.175388 -0.317972 -0.874813 0.320680 
9438 -0.185721 -0.293087 -0.872141 0.344931 
9380 -0.185938 -0.298161 -0.849421 0.393716 
9314 -0.194068 -0.297408 -0.875845 0.326775 
9044 -0.185709 -0.304718 -0.808350 0.468220 
9041 -0.185721 -0.293084 -0.872142 0.344932 
8904 -0.189006 -0.299339 -0.827273 0.436225 
8769 -0.164800 -0.326465 -0.871657 0.326307 
8663 -0.180595 -0.305867 -0.873022 0.334161 
8640 -0.202844 -0.307455 -0.854698 0.365810 
8373 -0.166861 -0.327472 -0.884729 0.286661 
8250 -0.180595 -0.305867 -0.873022 0.334161 
8217 -0.185450 -0.294341 -0.871044 0.346775 
8210 -0.090895 -0.351038 -0.863087 0.351556 
8128 -0.156377 -0.340751 -0.869450 0.321702 
8054 -0.209064 -0.329878 -0.981692 0.388247 
8035 -0.129870 -0.339470 -0.875344 0.318852 
7946 -0.169832 -0.321796 -0.855372 0.368704 
7942 -0.170481 -0.321921 -0.873373 0.323299 
7877 -0.148800 -0.353450 -0.867252 0.317499 
7840 -0.197073 -0.315551 -0.843285 0.387892 
7778 -0.207147 -0.315044 -0.874026 0.306457 
7472 -0.202858 -0.301865 -0.879370 0.307301 
7385 -0.168323 -0.330963 -0.816419 0.442257 
7332 -0.182730 -0.356054 -0.836523 0.374252 
7075 -0.224802 -0.325628 -0.830350 0.392364 
7048 -0.185076 -0.341624 -0.836347 0.386735 
7042 -0.229777 -0.335938 -0.813891 0.414643 
6738 -0.186614 -0.356457 -0.782220 0.475652 
6643 -0.187831 -0.342587 -0.770664 0.503418 
6638 -0.194407 -0.347588 -0.852853 0.337683 
6608 -0.195524 -0.365772 -0.780201 0.468259 
6568 -0.143821 -0.366284 -0.825243 0.405125 
6456 -0.137692 -0.411554 -0.841934 0.320642 
6392 -0.173799 -0.346841 -0.854289 0.345957 
6384 0.035538 -0.410458 -0.845441 0.339841 
6270 -0.247175 -0.348991 -0.808777 0.403719 
6143 -0.175957 -0.358350 -0.795961 0.455050 
6002 -0.180279 -0.345535 -0.699438 0.381282 
5964 -0.127040 -0.418075 -0.848928 0.297315 
5938 -0.213106 -0.333481 -0.866174 0.305153 
5915 -0.225362 -0.359747 -0.880947 0.209107 
5831 -0.056493 -0.415834 -0.848700 0.321868 
5564 -0.161226 -0.369375 -0.829594 0.186916 
3472 -0.208810 -0.393015 -0.783483 0.433696 
2755 -0.002915 -0.549386 -0.570727 0.610276 
2386 -0.042927 -0.623204 -0.690873 0.365664 
2321 -0.002498 -0.668860 -0.719332 0.187566 
2296 0.486562 -0.699942 -0.949902 0.365601 
2220 0.063937 -0.622836 -0.743467 0.235040 
2186 0.186474 -0.577766 -0.701337 0.373552 
2123 -0.127756 -0.600731 -0.621144 0.486807 
2103 -0.119392 -0.604201 -0.612497 0.495514 
2047 0.335342 -0.590804 -0.702260 0.212903 
2030 0.009473 -0.625271 -0.719230 0.302743 
2015 0.109824 -0.673586 -0.716257 0.145586 
2004 -0.106456 -0.455222 -0.483656 0.362647 
1831 0.447613 -0.582674 -0.606713 0.303370 
1737 -0.148027 -0.462903 -0.430215 0.760739 
1507 0.102772 -0.353611 -0.176893 0.917340 
1480 -0.279024 -0.230323 -0.089945 0.963205 
1455 -0.234054 -0.673737 -0.650825 0.260237 
1443 -0.114151 -0.188309 -0.091481 0.840977 
1389 -0.130588 -0.215425 -0.104654 0.962074 
1384 -0.029241 -0.632378 -0.546876 0.547877 
1333 -0.051729 -0.743769 -0.591176 0.307640 
1324 -0.119392 -0.604201 -0.485572 0.495514 
1303 -0.153706 -0.803746 -0.646062 0.712637 
1234 -0.561733 -0.463056 -0.546268 -0.414277 
1213 -0.103702 -0.813754 -0.529106 0.518421 
1029 0.200704 -0.750084 -0.628380 -0.047226 
1028.99 -0.918615 -0.883759 -0.776508 0.086561 
1023 -0.614376 -0.591190 -0.519321 0.057808 
1012 0.126238 -0.471911 -0.395369 -0.029750 
990 -0.037205 -0.835236 -0.463481 0.293570 
973 -0.442676 -0.667264 -0.487059 -0.197103 
952 0.204572 -0.767620 -0.607145 -0.016899 
907 -0.189942 -0.953503 -0.343957 0.920045 
896 -0.657313 -0.606511 -0.443568 -0.057717 
884 -0.657108 -0.606613 -0.443729 -0.057743 
859 -0.649081 -0.470848 -0.825492 -0.902760 
858 -0.060071 -0.778016 -0.298270 0.549652 
798 -0.066330 -0.811506 -0.348402 0.446223 
746 0.153509 -0.822651 -0.505244 -0.210737 
729 0.322142 -0.810112 -0.229015 0.433007 
727 0.107281 -0.799822 -0.553939 -0.391745 
666 -0.597109 -0.549800 -0.314343 -0.492311 
627 0.861041 -0.873952 -0.089992 0.450666 
601 -0.487607 -0.797903 -0.044124 0.673064 
547 -0.858909 -0.729652 -0.265412 -0.507629 
529 -0.701580 -0.596054 -0.250879 -0.299274 
521 -0.701686 -0.595993 -0.250834 -0.299186 
516 -0.513636 -0.531074 -0.408120 -0.748177 
424 0.277791 -0.696828 -0.529799 -0.979990 
410 0.538422 -0.532277 -0.218146 0.191662 
