
Generation : 0
1820 0.082992 -0.340066 -0.986023 0.977549 
1650 -0.160928 -0.290413 -0.955024 -0.100240 
964 -0.432912 -0.139710 -0.517655 0.658836 
688 -0.804759 -0.031546 -0.340313 0.216268 
445 -0.311021 -0.503595 -0.833352 0.641303 
380 -0.122099 -0.520615 -0.800269 0.241539 
316 0.210115 -0.291023 -0.407942 0.574598 
218 0.256660 -0.696606 -0.816946 0.857128 
152 -0.219285 -0.397125 -0.266746 0.497473 
147 -0.686183 -0.218799 -0.288251 -0.282780 
90 0.025851 -0.920961 -0.482748 -0.288037 
68 -0.849726 -0.409049 -0.323598 -0.363881 
63 0.347786 -0.781570 -0.029257 0.937362 
57 0.093035 -0.729098 -0.338718 -0.375779 
54 0.203288 -0.958055 -0.083312 0.665803 
53.99 0.996804 -0.970873 -0.397423 0.197529 
50 -0.605790 -0.372096 0.025509 0.902915 
33 -0.775060 -0.294466 -0.200044 -0.804503 
20 0.810567 -0.549813 -0.437849 0.657472 
15 0.390928 -0.514687 0.151771 0.966303 
10 -0.723342 -0.621919 0.054785 -0.988167 
9 -0.019575 -0.273117 0.068513 -0.586707 
4 0.989713 -0.557152 -0.232312 0.676757 
2 -0.080203 -0.411457 0.783769 -0.369714 
0 -0.745939 0.521610 0.189109 -0.883030 
-0.01 -0.348609 0.890711 -0.851567 0.230572 
-0.02 0.083447 0.677149 0.053842 0.071336 
-0.03 -0.824955 0.709224 0.115298 -0.648402 
-0.04 0.744162 0.689751 0.801496 0.297468 
-0.05 -0.080639 -0.519965 0.903815 -0.567619 
-0.06 0.873272 0.996941 -0.823159 -0.437432 
-0.07 0.991535 0.596247 0.201209 -0.798576 
-0.08 -0.712555 0.328084 0.116942 -0.559138 
-0.09 -0.051569 0.683600 -0.341554 -0.597847 
-0.10 -0.214190 0.391806 0.118667 -0.570101 
-0.11 0.980602 -0.351047 0.497261 -0.821153 
-0.12 0.675503 -0.000286 0.822540 -0.785418 
-0.13 -0.698709 0.606285 -0.729697 0.476722 
-0.14 -0.852008 0.963689 0.503018 0.537294 
-0.15 0.427831 0.801197 -0.531380 0.946602 
-0.16 0.869960 0.678198 -0.245665 -0.947362 
-0.17 0.335349 -0.113033 0.597522 -0.854408 
-0.18 -0.428056 0.106162 -0.035989 -0.967317 
-0.19 -0.460994 0.410713 -0.651898 0.428250 
-0.20 0.220543 0.033264 -0.465579 0.749713 
-0.21 0.587038 -0.042658 0.317335 -0.572127 
-0.22 -0.727676 -0.178036 0.713629 0.796870 
-0.23 0.517831 0.977917 -0.727296 -0.774849 
-0.24 -0.624323 -0.179564 -0.207731 -0.694151 
-0.25 -0.010042 -0.139563 0.904966 -0.489297 
-0.26 -0.534503 -0.049910 0.795575 0.387982 
-0.27 -0.720295 0.687307 -0.429425 0.192582 
-0.28 -0.297608 0.730443 -0.047143 -0.287492 
-0.29 0.239565 -0.033121 0.658513 -0.270325 
-0.30 0.655440 0.163384 0.259503 0.650875 
-0.31 0.809458 -0.644982 0.474951 0.685004 
-0.32 -0.667526 0.140781 0.482871 -0.764366 
-0.33 -0.299132 -0.535350 0.979472 0.823275 
-0.34 -0.264452 0.346775 -0.081747 0.419362 
-0.35 0.867934 -0.039622 0.542984 -0.383395 
-0.36 0.371654 0.490556 0.086907 0.985273 
-0.37 0.192575 -0.298528 0.929990 0.162047 
-0.38 -0.947213 0.560465 -0.599312 0.318312 
-0.39 -0.371521 -0.511452 0.478824 0.854437 
-0.40 -0.191551 0.147377 -0.876754 0.247390 
-0.41 0.008440 0.496223 -0.292678 0.035218 
-0.42 0.562707 -0.306561 -0.178690 0.205819 
-0.43 0.638220 0.744919 0.289882 -0.088634 
-0.44 -0.140236 0.617350 0.229856 -0.731763 
-0.45 -0.310127 0.290127 0.957542 -0.360318 
-0.46 0.795875 0.499687 0.986117 -0.702303 
-0.47 0.510876 0.200425 -0.913281 0.603492 
-0.48 -0.573701 0.790049 0.648797 -0.879342 
-0.49 -0.910402 0.150692 0.671762 0.241385 
-0.50 -0.299278 0.925729 -0.567245 -0.284903 
-0.51 -0.666384 -0.744402 0.514048 -0.862957 
-0.52 0.777681 0.898582 -0.077686 -0.153451 
-0.53 0.327192 0.493472 -0.107874 0.828640 
-0.54 -0.290871 0.980929 0.516616 0.064151 
-0.55 0.910482 -0.522978 0.377788 0.270872 
-0.56 -0.333958 0.392304 -0.801775 -0.625250 
-0.57 0.597308 0.835834 0.772016 0.716340 
-0.58 0.027478 0.996362 -0.452836 -0.816429 
-0.59 0.080809 0.108781 -0.735985 0.335994 
-0.60 0.900667 -0.866855 0.831555 -0.439204 
-0.61 0.842639 0.737183 -0.754492 0.146890 
-0.62 0.484195 0.942939 -0.291084 -0.699202 
-0.63 0.209724 0.470076 -0.292747 0.363754 
-0.64 0.197402 0.774420 -0.355033 -0.319980 
-0.65 -0.070630 0.803816 0.043155 -0.238279 
-0.66 0.581675 -0.629250 0.560122 0.807981 
-0.67 0.751690 0.791700 0.634670 -0.696421 
-0.68 0.415393 0.566149 -0.792705 0.590446 
-0.69 -0.432354 0.200288 -0.355172 -0.411718 
-0.70 0.431080 -0.097232 0.037450 0.782809 
-0.71 -0.193192 0.889376 -0.233228 -0.729484 
-0.72 0.943287 0.993239 0.629990 -0.697465 
-0.73 -0.936520 0.487333 -0.651932 -0.928826 
-0.74 0.592168 0.216906 0.235766 -0.025702 
-0.75 -0.086862 0.593826 -0.545074 -0.726248 

Generation : 1
1989 0.082992 -0.340066 -0.986023 0.977549 
1584 0.057995 -0.237543 -0.688617 0.682654 
1293 -0.158412 -0.285799 -0.939952 -0.098565 
1256 -0.454191 -0.146685 -0.542928 0.690958 
1248 -0.158419 -0.285865 -0.939923 -0.098642 
1184 -0.432912 -0.139710 -0.517655 0.658836 
1164 -0.160928 -0.290413 -0.955024 -0.100240 
1092 -0.171998 -0.288861 -0.934941 -0.113408 
919 -0.449317 -0.148815 -0.543427 0.693293 
758 -0.804759 -0.031546 -0.340313 0.216268 
578 -0.690212 -0.252515 -0.619089 0.276716 
409 -0.257842 -0.417357 -0.690543 0.531489 
341 0.210115 -0.291023 -0.407942 0.574598 
331 0.276724 -0.370481 -0.510689 0.724820 
329 -0.311021 -0.503595 -0.833352 0.641303 
308 0.266196 -0.372900 -0.511776 0.726754 
305 0.256660 -0.696606 -0.816946 0.857128 
286 0.033969 -0.492239 -0.735499 0.464316 
280 -0.122099 -0.520615 -0.800269 0.241539 
219 -0.100099 -0.583117 -0.787768 0.153521 
135 -0.831313 -0.264768 -0.349857 -0.341199 
129 -0.219285 -0.397125 -0.266746 0.497473 
127 0.277607 -0.809813 -0.373597 0.536666 
123 0.131074 -0.721593 -0.396703 0.552041 
98 -0.686183 -0.218799 -0.288251 -0.282780 
93 -0.209199 -0.439865 -0.111173 0.866253 
81 -0.682487 -0.636987 -0.355867 -0.042634 
79 -0.849726 -0.409049 -0.323598 -0.363881 
75 -0.193927 -0.772390 -0.417447 -0.437658 
74.99 -0.800544 -0.385550 -0.304874 -0.342830 
67 0.021401 -0.849359 -0.426257 -0.310543 
66 0.171971 -0.806687 -0.070259 0.561022 
65 0.347786 -0.781570 -0.029257 0.937362 
64 0.025851 -0.920961 -0.482748 -0.288037 
63.99 0.093035 -0.729098 -0.338718 -0.375779 
61 0.203288 -0.958055 -0.083312 0.665803 
59 -0.778061 -0.532555 -0.295655 -0.153602 
57 0.497812 -0.791307 -0.343243 -0.090559 
53 -0.624323 -0.179564 -0.207731 -0.694151 
52.99 0.592016 -0.886520 -0.717203 -0.838249 
52 0.207683 -0.916494 -0.316732 -0.128790 
49 -0.800479 -0.385526 -0.305130 -0.342780 
44 -0.559533 -0.386841 0.034750 0.732168 
41 0.681022 -0.675733 -0.252438 0.192189 
40 -0.605790 -0.372096 0.025509 0.902915 
39 0.810567 -0.549813 -0.437849 0.657472 
38 0.996804 -0.970873 -0.397423 0.197529 
37 0.680731 -0.665695 -0.272373 0.138809 
35 -0.664223 -0.246733 -0.167936 -0.685367 
31 -0.775060 -0.294466 -0.200044 -0.804503 
24 0.597068 -0.374950 -0.389350 0.818951 
18 0.323099 -0.441851 0.130706 0.826614 
13 -0.723342 -0.621919 0.054785 -0.988167 
2 -0.080203 -0.570081 0.783769 -0.369714 
0 0.390928 -0.514687 0.151771 0.966303 
-0.01 -0.019575 -0.273117 0.068513 -0.586707 
-0.02 0.989713 -0.557152 -0.232312 0.676757 
-0.03 -0.745939 0.521610 0.189109 -0.883030 
-0.04 -0.348609 0.890711 -0.851567 0.230572 
-0.05 0.083447 0.677149 0.053842 0.071336 
-0.06 -0.824955 0.709224 0.115298 -0.648402 
-0.07 0.744162 0.689751 0.801496 0.297468 
-0.08 -0.080639 -0.519965 0.903815 -0.567619 
-0.09 0.873272 0.996941 -0.823159 -0.437432 
-0.10 0.991535 0.596247 0.201209 -0.798576 
-0.11 -0.712555 0.328084 0.116942 -0.559138 
-0.12 -0.051569 0.683600 -0.341554 -0.597847 
-0.13 -0.214190 0.391806 0.118667 -0.570101 
-0.14 0.980602 -0.351047 0.497261 -0.821153 
-0.15 0.675503 -0.000286 0.822540 -0.785418 
-0.16 -0.698709 0.606285 -0.729697 0.476722 
-0.17 -0.852008 0.963689 0.503018 0.537294 
-0.18 0.427831 0.801197 -0.531380 0.946602 
-0.19 0.869960 0.678198 -0.245665 -0.947362 
-0.20 0.335349 -0.113033 0.597522 -0.854408 
-0.21 -0.428056 0.106162 -0.035989 -0.967317 
-0.22 -0.535519 0.410713 -0.651898 0.428250 
-0.23 0.220543 0.033264 -0.465579 0.749713 
-0.24 0.587038 -0.042658 0.317335 -0.572127 
-0.25 -0.727676 -0.178036 0.713629 0.796870 
-0.26 0.517831 0.977917 -0.727296 -0.774849 
-0.27 -0.010042 -0.139563 0.904966 -0.489297 
-0.28 -0.534503 -0.049910 0.795575 0.387982 
-0.29 -0.720295 0.687307 -0.429425 0.192582 
-0.30 -0.297608 0.730443 -0.047143 -0.287492 
-0.31 0.239565 -0.033121 0.658513 -0.270325 
-0.32 0.655440 0.163384 0.259503 0.650875 
-0.33 0.809458 -0.644982 0.474951 0.685004 
-0.34 -0.667526 0.140781 0.482871 -0.764366 
-0.35 -0.299132 -0.535350 0.979472 0.823275 
-0.36 -0.264452 0.346775 -0.081747 0.419362 
-0.37 0.867934 -0.039622 0.542984 -0.383395 
-0.38 0.874218 0.548543 0.649561 -0.860688 
-0.39 0.112588 0.200511 -0.804962 -0.774599 
-0.40 0.808004 -0.332801 0.195895 -0.873456 
-0.41 0.425278 -0.375787 0.687207 -0.313019 
-0.42 0.647584 -0.601566 0.466882 0.680278 
-0.43 0.881639 0.875562 0.336020 -0.695183 
-0.44 0.858220 0.752456 -0.377180 -0.100148 
-0.45 0.234087 -0.756253 0.575649 -0.204726 

Generation : 2
3007 -0.043328 -0.286065 -0.884548 0.365875 
2551 -0.041226 -0.285515 -0.881750 0.373228 
2539 0.061248 -0.240917 -0.682466 0.687349 
2497 0.048906 -0.241449 -0.682367 0.688248 
2387 0.057995 -0.237543 -0.688617 0.682654 
2308 -0.132764 -0.212147 -0.657567 0.710615 
2185 0.043730 -0.251947 -0.664998 0.701704 
2184 -0.067604 -0.221795 -0.671154 0.704123 
2180 -0.388323 -0.125539 -0.685400 0.048954 
2068 -0.158419 -0.285865 -0.939923 -0.098642 
1815 0.062488 -0.238734 -0.686377 0.549784 
1709 -0.347798 -0.244943 -0.839847 0.337189 
1675 -0.344809 -0.246291 -0.843810 0.329291 
1503 0.082992 -0.340066 -0.986023 0.977549 
1460 -0.171998 -0.288861 -0.934941 -0.001572 
1338 -0.069875 -0.336271 -0.934851 0.089958 
1296 -0.158412 -0.285799 -0.939952 -0.098565 
1225 -0.454191 -0.146685 -0.542928 0.690958 
1223 -0.134404 -0.344272 -0.929175 0.006756 
1219 -0.160928 -0.290413 -0.955024 -0.100240 
1201 -0.499164 -0.174854 -0.551213 0.645310 
1040 -0.419313 -0.204361 -0.528160 0.709549 
960 -0.366617 -0.241583 -0.823309 0.359711 
920 -0.433801 -0.178253 -0.511426 0.720060 
872 -0.479995 -0.180902 -0.545195 0.663054 
869 -0.432912 -0.139710 -0.517655 0.658836 
857 -0.449317 -0.148815 -0.543427 0.693293 
843 -0.419833 -0.221076 -0.605554 0.638882 
775 -0.442322 -0.208180 -0.567529 0.662512 
754 -0.804759 -0.031546 -0.340313 0.216268 
753 -0.139255 -0.324128 -0.934400 -0.049448 
686 -0.720149 -0.197575 -0.561814 0.355971 
663 -0.724352 -0.192793 -0.541108 0.381245 
654 -0.690212 -0.252515 -0.619089 0.276716 
491 -0.904591 -0.075114 -0.267945 0.180594 
362 -0.311021 -0.503595 -0.833352 0.641303 
348 0.266196 -0.372900 -0.511776 0.726754 
345 0.033969 -0.492239 -0.735499 0.464316 
321 0.210115 -0.291023 -0.407942 0.574598 
319 -0.257842 -0.417357 -0.690543 0.531489 
309 0.276724 -0.370481 -0.510689 0.724820 
306 -0.404871 -0.435103 -0.734370 0.009246 
294 -0.216949 -0.500459 -0.685064 0.482868 
292 0.256660 -0.696606 -0.816946 0.857128 
282 -0.296767 -0.427117 -0.637376 0.568552 
281 -0.122099 -0.520615 -0.800269 0.241539 
260 0.090978 -0.549111 -0.680708 0.476274 
257 -0.100099 -0.583117 -0.787768 0.153521 
147 -0.686183 -0.218799 -0.288251 -0.282780 
127 -0.219285 -0.397125 -0.266746 0.497473 
106 0.131074 -0.721593 -0.396703 0.552041 
103 -0.831313 -0.264768 -0.349857 -0.341199 
102 -0.682487 -0.440161 -0.355867 -0.042634 
96 -0.209199 -0.439865 -0.111173 0.866253 
90 0.180070 -0.837404 -0.510476 -0.075783 
88 0.277607 -0.809813 -0.373597 0.536666 
84 0.347786 -0.781570 -0.029257 0.937362 
81 0.025851 -0.920961 -0.482748 -0.288037 
76 -0.800519 -0.522058 -0.304975 -0.342810 
71 -0.849726 -0.409049 -0.323598 -0.363881 
70.99 -0.193927 -0.772390 -0.417447 -0.437658 
70 -0.800479 -0.385526 -0.305130 -0.342780 
69 0.171971 -0.806687 -0.070259 0.561022 
68.99 0.596894 -0.738733 -0.312321 0.021120 
67 0.021401 -0.849359 -0.426257 -0.310543 
66.99 0.207683 -0.916494 -0.316732 -0.128790 
66 0.497812 -0.791307 -0.343243 -0.090559 
64 0.592016 -0.886520 -0.717203 -0.838249 
61 0.680731 -0.665695 -0.272373 0.138809 
60 -0.800544 -0.385550 -0.304874 -0.342830 
59.99 -0.163219 -0.948602 -0.158406 0.220050 
59 -0.624323 -0.179564 -0.207731 -0.694151 
54 0.681022 -0.675733 -0.252438 0.192189 
52 -0.605790 -0.372096 0.025509 0.902915 
48 -0.778061 -0.532555 -0.295655 -0.153602 
47 -0.559533 -0.386841 0.034750 0.732168 
46.99 0.597068 -0.374950 -0.389350 0.818951 
46 0.093035 -0.729098 -0.338718 -0.251423 
40 0.203288 -0.958055 -0.083312 0.665803 
35 -0.664223 -0.246733 -0.167936 -0.685367 
33 0.996804 -0.970873 -0.397423 0.197529 
32.99 -0.775060 -0.294466 -0.200044 -0.804503 
23 0.390928 -0.514687 0.151771 0.966303 
9 -0.318738 -0.330876 0.332564 -0.528822 
0 0.810567 -0.549813 -0.437849 0.657472 
-0.01 0.323099 -0.441851 0.130706 0.826614 
-0.02 -0.723342 -0.621919 0.054785 -0.809460 
-0.03 -0.080203 -0.570081 0.783769 -0.369714 
-0.04 -0.019575 -0.273117 0.108238 -0.586707 
-0.05 0.989713 -0.557152 -0.232312 0.676757 
-0.06 -0.745939 0.521610 0.189109 -0.883030 
-0.07 -0.348609 0.890711 -0.851567 0.230572 
-0.08 0.083447 0.677149 0.053842 0.071336 
-0.09 0.473079 -0.413636 0.899594 -0.560603 
-0.10 0.783694 -0.804855 0.579974 -0.753834 
-0.11 0.202440 0.508680 -0.311016 0.735913 
-0.12 -0.009372 0.092393 -0.906316 -0.221727 
-0.13 0.520211 -0.006873 -0.039490 -0.809585 
-0.14 0.545778 0.901092 -0.996795 0.706741 
-0.15 -0.448080 0.195033 -0.120708 0.603896 

Generation : 3
4283 -0.230520 -0.109900 -0.906741 0.256465 
2361 -0.213405 -0.247713 -0.907511 0.263668 
2291 -0.023990 -0.280694 -0.842705 0.458784 
2282 -0.067604 -0.221795 -0.671154 0.704123 
2242 -0.132764 -0.212147 -0.657567 0.710615 
2233 -0.135454 -0.243446 -0.701353 0.656117 
2231 -0.041226 -0.285515 -0.881750 0.373228 
2221 0.057995 -0.237543 -0.688617 0.682654 
2168 -0.092906 -0.233263 -0.678350 0.690506 
2069 -0.388323 -0.125539 -0.685400 0.048954 
2058 -0.112293 -0.231837 -0.707491 0.658102 
2042 0.062488 -0.238734 -0.686377 0.549784 
2039 0.010082 -0.268379 -0.797528 0.540204 
2037 0.082992 -0.340066 -0.986023 0.977549 
1958 0.062349 -0.247644 -0.715340 0.650441 
1957 0.016870 -0.288796 -0.811643 0.507491 
1861 -0.133935 -0.228069 -0.663777 0.699604 
1790 0.048906 -0.241449 -0.682367 0.688248 
1742 -0.344809 -0.246291 -0.843810 0.329291 
1661 -0.065866 -0.246455 -0.750871 0.609191 
1637 -0.043328 -0.286065 -0.884548 0.365875 
1609 0.080225 -0.252357 -0.673304 0.690319 
1594 -0.274691 -0.289081 -0.896713 0.192050 
1578 -0.140310 -0.271456 -0.829681 0.467178 
1568 -0.018709 -0.313652 -0.874549 0.369372 
1564 -0.158416 -0.285840 -0.939934 -0.098612 
1434 0.016357 -0.276368 -0.786835 0.551584 
1408 -0.158416 -0.285840 -0.939934 -0.098612 
1347 -0.069875 -0.336271 -0.934851 0.089958 
1327 -0.158419 -0.285865 -0.939923 -0.098642 
1323 -0.158412 -0.285799 -0.939952 -0.098565 
1310 0.061248 -0.240917 -0.682466 0.687349 
1306 -0.454191 -0.146685 -0.542928 0.690958 
1295 0.043730 -0.251947 -0.664998 0.701704 
1263 -0.534641 -0.196908 -0.753059 0.329071 
1254 -0.134404 -0.344272 -0.929175 0.006756 
1180 -0.251783 -0.281580 -0.826341 0.417705 
1153 -0.160928 -0.290413 -0.955024 -0.100240 
1122 -0.346322 -0.245612 -0.841818 0.333284 
1118 -0.304889 -0.281406 -0.849312 0.326377 
1108 -0.432912 -0.139710 -0.517655 0.658836 
1100 -0.499164 -0.174854 -0.551213 0.645310 
1076 -0.366617 -0.241583 -0.823309 0.359711 
1074 -0.347798 -0.244943 -0.845998 0.337189 
1011 -0.479995 -0.180902 -0.545195 0.663054 
980 -0.433801 -0.178253 -0.511426 0.720060 
969 -0.171998 -0.288861 -0.934941 -0.001572 
954 -0.139255 -0.324128 -0.934400 -0.049448 
947 -0.449317 -0.148815 -0.543427 0.693293 
943 -0.271334 -0.317987 -0.862153 0.286277 
914 -0.445370 -0.274930 -0.615594 0.589154 
845 -0.391560 -0.243782 -0.603791 0.650145 
805 -0.391560 -0.243782 -0.603791 0.650145 
785 -0.553432 -0.207110 -0.556159 0.584384 
746 -0.442322 -0.208180 -0.567529 0.662512 
732 -0.804759 -0.031546 -0.340313 0.216268 
727 -0.419833 -0.221076 -0.605554 0.638882 
716 -0.419313 -0.204361 -0.528160 0.709549 
602 -0.720149 -0.197575 -0.561814 0.355971 
563 -0.817055 -0.118254 -0.476512 0.302282 
504 -0.904591 -0.075114 -0.267945 0.180594 
490 -0.724352 -0.192793 -0.541108 0.381245 
459 -0.690212 -0.252515 -0.619089 0.276716 
410 -0.257842 -0.417357 -0.690543 0.531489 
389 -0.296767 -0.427117 -0.637376 0.671867 
376 0.276724 -0.370481 -0.510689 0.724820 
354 0.266196 -0.372900 -0.511776 0.726754 
343 0.210115 -0.291023 -0.407942 0.574598 
326 -0.311021 -0.503595 -0.833352 0.641303 
325.99 -0.122099 -0.520615 -0.800269 0.241539 
324 0.112778 -0.504948 -0.512317 0.685448 
317 0.033969 -0.492239 -0.735499 0.464316 
309 0.256660 -0.696606 -0.816946 0.857128 
272 -0.099663 -0.615996 -0.768283 0.142680 
259 0.090978 -0.549111 -0.680708 0.476274 
258 -0.216949 -0.500459 -0.685064 0.482868 
240 -0.404871 -0.435103 -0.734370 0.009246 
232 -0.100099 -0.583117 -0.787768 0.159070 
216 -0.219285 -0.397125 -0.266746 0.497473 
126 -0.686183 -0.218799 -0.288251 -0.282780 
118 -0.209199 -0.439865 -0.111173 0.866253 
115 0.131074 -0.721593 -0.396703 0.552041 
111 0.180070 -0.837404 -0.510476 -0.075783 
104 -0.831313 -0.264768 -0.349857 -0.341199 
103 0.277607 -0.809813 -0.373597 0.536666 
99 -0.682487 -0.440161 -0.355867 -0.042634 
65 0.347786 -0.781570 -0.029257 0.937362 
64 0.025851 -0.920961 -0.482748 -0.288037 
63.99 -0.849726 -0.409049 -0.323598 -0.363881 
58 -0.800519 -0.522058 -0.304975 -0.342810 
14 -0.959680 -0.006789 -0.680495 -0.762397 
0 0.271175 0.193288 0.407317 -0.568066 
-0.01 -0.673940 0.008310 0.956316 -0.885356 
-0.02 0.650188 -0.614393 0.392169 -0.266290 
-0.03 -0.719940 0.730004 -0.252149 0.174446 
-0.04 -0.265506 -0.038581 0.604038 0.049256 
-0.05 0.718374 0.624290 0.015678 0.556327 
-0.06 0.882968 0.776069 0.983746 0.101956 
-0.07 -0.592415 -0.432583 0.798886 0.145039 
-0.08 0.614181 -0.452003 0.559045 0.133403 

Generation : 4
4362 -0.120273 -0.171005 -0.866053 0.454141 
4359 -0.193424 -0.158876 -0.871204 0.422315 
4232 -0.230520 -0.109900 -0.906741 0.256465 
3150 -0.144491 -0.264744 -0.902635 0.307057 
2778 -0.065866 -0.246455 -0.750871 0.609191 
2772 -0.213405 -0.247713 -0.907511 0.263668 
2647 -0.041226 -0.285515 -0.881750 0.373228 
2532 -0.180314 -0.238577 -0.813693 0.498470 
2457 -0.067604 -0.221795 -0.671154 0.704123 
2419 0.007293 -0.271791 -0.815906 0.510268 
2399 -0.112293 -0.231837 -0.707491 0.658102 
2396 -0.100267 -0.286746 -0.837123 0.454915 
2383 -0.023990 -0.280694 -0.842705 0.458784 
2352 0.041712 -0.259661 -0.742497 0.616064 
2351 -0.111787 -0.261853 -0.871735 0.398766 
2307 -0.304075 -0.220886 -0.820522 0.430687 
2300 -0.110746 -0.270499 -0.877579 0.380027 
2272 -0.115671 -0.293093 -0.824111 0.470699 
2269 -0.096214 -0.250064 -0.775426 0.571774 
2234 -0.137430 -0.239345 -0.736972 0.617008 
2211 -0.128786 -0.276945 -0.850493 0.428226 
2155 -0.066360 -0.256775 -0.751439 0.604154 
2146 -0.133302 -0.219380 -0.660418 0.705657 
2111 -0.132764 -0.212147 -0.657567 0.710615 
2106 -0.043328 -0.286065 -0.884548 0.365875 
2090 -0.346322 -0.245612 -0.841818 0.333284 
2082 0.082992 -0.340066 -0.986023 0.977549 
2043 0.016538 -0.262169 -0.774882 0.574937 
2028 -0.388323 -0.125539 -0.685400 0.048954 
2022 0.043730 -0.251947 -0.664998 0.701704 
2014 0.062488 -0.238734 -0.686377 0.549784 
2008 -0.158416 -0.285840 -0.939934 -0.098612 
2002 0.048906 -0.241449 -0.682367 0.688248 
1947 -0.140310 -0.271456 -0.829681 0.467178 
1911 -0.092906 -0.233263 -0.678350 0.690506 
1844 -0.117993 -0.285022 -0.863962 0.398006 
1819 0.061248 -0.240917 -0.682466 0.687349 
1779 -0.135454 -0.243446 -0.701353 0.656117 
1764 -0.344809 -0.246291 -0.843810 0.329291 
1752 -0.073358 -0.268069 -0.788004 0.549369 
1713 0.057995 -0.237543 -0.688617 0.682654 
1705 0.080225 -0.252357 -0.673304 0.690319 
1664 -0.155096 -0.260143 -0.826639 0.474278 
1663 0.010082 -0.268379 -0.797528 0.540204 
1649 -0.347798 -0.244943 -0.845998 0.337189 
1642 -0.074238 -0.260507 -0.772591 0.574219 
1635 -0.058138 -0.260502 -0.771291 0.577814 
1609 -0.158419 -0.285865 -0.939923 -0.098642 
1551 0.016357 -0.276368 -0.786835 0.551584 
1531 0.016870 -0.288796 -0.811643 0.507491 
1511 -0.307551 -0.280480 -0.883572 0.214577 
1507 -0.304889 -0.281406 -0.849312 0.326377 
1449 -0.158416 -0.285840 -0.939934 -0.098612 
1427 -0.251783 -0.281580 -0.826341 0.417705 
1413 -0.018709 -0.313652 -0.874549 0.369372 
1392 -0.069972 -0.247592 -0.690870 0.675649 
1372 -0.124357 -0.237900 -0.704360 0.657127 
1363 -0.092980 -0.285799 -0.939952 -0.098565 
1362 -0.264385 -0.211427 -0.814281 0.471535 
1319 -0.133935 -0.228069 -0.663777 0.699604 
1299 -0.171998 -0.288861 -0.934941 -0.001572 
1293 -0.274691 -0.289081 -0.896713 0.192050 
1282 -0.158403 -0.285834 -0.939936 -0.098631 
1273 -0.160928 -0.290413 -0.955024 -0.100240 
1147 -0.246755 -0.227573 -0.663231 0.668915 
1136 -0.534641 -0.196908 -0.753059 0.329071 
1109 -0.366617 -0.241583 -0.823309 0.359711 
1089 -0.041714 -0.306672 -0.892541 0.327999 
1072 -0.454191 -0.146685 -0.542928 0.690958 
1051 -0.499164 -0.174854 -0.551213 0.645310 
986 -0.449317 -0.148815 -0.543427 0.693293 
949 -0.391560 -0.243782 -0.603791 0.650145 
948 -0.158418 -0.285851 -0.939929 -0.098626 
932 -0.069875 -0.336271 -0.934851 0.089958 
903 -0.432912 -0.139710 -0.517655 0.658836 
900 -0.419833 -0.221076 -0.605554 0.638882 
876 -0.479995 -0.180902 -0.545195 0.663054 
857 -0.134404 -0.344272 -0.929175 0.006756 
824 -0.139255 -0.324128 -0.934400 -0.049448 
811 -0.391560 -0.243782 -0.603791 0.650145 
810.99 -0.553432 -0.207110 -0.556159 0.584384 
769 -0.419313 -0.204361 -0.528160 0.709549 
754 -0.271334 -0.317987 -0.862153 0.286277 
752 -0.433801 -0.178253 -0.511426 0.720060 
747 -0.442322 -0.208180 -0.567529 0.662512 
744 -0.817055 -0.118254 -0.476512 0.302282 
666 -0.445370 -0.274930 -0.615594 0.589154 
658 -0.804759 -0.031546 -0.340313 0.216268 
551 -0.720149 -0.197575 -0.397242 0.355971 
333 0.062349 -0.413185 -0.715340 0.650441 
232 -0.124685 -0.577750 -0.845155 0.276595 
5 0.149571 -0.939458 0.929255 -0.206823 
0 0.340940 -0.776216 0.510759 -0.940209 
-0.01 -0.957123 0.864889 0.502269 0.651729 
-0.02 -0.696000 0.041765 0.117959 -0.602953 
-0.03 0.292074 0.371440 -0.401062 -0.237498 
-0.04 -0.360786 -0.831422 0.579168 0.067177 
-0.05 0.599122 0.850947 -0.487693 -0.013920 
-0.06 0.704022 0.866562 0.895986 0.565052 
-0.07 0.449807 -0.219202 0.306841 -0.667070 

Generation : 5
4365 -0.156964 -0.165078 -0.869338 0.438592 
4360 -0.120273 -0.171005 -0.866053 0.454141 
4355 0.069662 -0.154968 -0.758242 0.681570 
4345 -0.166430 -0.186804 -0.822011 0.511569 
4333 -0.108989 -0.191084 -0.830412 0.511883 
4304 -0.193424 -0.158876 -0.871204 0.422315 
4037 -0.222851 -0.191032 -0.868663 0.399084 
3925 -0.232211 -0.180720 -0.855479 0.426116 
3613 -0.255589 -0.158369 -0.911417 0.280912 
3484 -0.213474 -0.189961 -0.883077 0.448321 
3452 -0.230520 -0.109900 -0.906741 0.256465 
3218 -0.126002 -0.232519 -0.750620 0.605498 
3174 -0.232211 -0.180720 -0.855479 0.426116 
3075 -0.030704 -0.248678 -0.749233 0.613079 
2942 -0.117993 -0.285022 -0.863962 0.398006 
2843 0.061248 -0.240917 -0.682466 0.687349 
2840 -0.176697 -0.261926 -0.886416 0.338288 
2797 -0.031893 -0.258893 -0.783094 0.564553 
2790 -0.112293 -0.231837 -0.707491 0.658102 
2729 -0.110746 -0.270499 -0.877579 0.380027 
2703 -0.023990 -0.280694 -0.842705 0.458784 
2698 -0.125827 -0.275216 -0.877416 0.372243 
2661 -0.177997 -0.271202 -0.874749 0.359973 
2652 -0.217171 -0.226119 -0.894331 0.355980 
2645 -0.213405 -0.247713 -0.907511 0.263668 
2599 -0.388323 -0.125539 -0.685400 0.048954 
2541 -0.020055 -0.283600 -0.851077 0.441403 
2504 -0.048006 -0.263911 -0.792338 0.547947 
2502 -0.043328 -0.286065 -0.884548 0.365875 
2420 -0.096214 -0.250064 -0.775426 0.571774 
2402 0.041712 -0.259661 -0.742497 0.616064 
2396 -0.034733 -0.253768 -0.731934 0.636043 
2377 -0.111787 -0.261853 -0.871735 0.398766 
2348 -0.133302 -0.219380 -0.660418 0.705657 
2309 -0.171176 -0.260211 -0.829172 0.464180 
2308 -0.158776 -0.281593 -0.897558 0.299810 
2276 0.058342 -0.251398 -0.716618 0.647961 
2274 0.007293 -0.271791 -0.815906 0.510268 
2243 -0.065866 -0.246455 -0.750871 0.609191 
2239 -0.128786 -0.276945 -0.850493 0.428226 
2216 -0.264385 -0.211427 -0.814281 0.471535 
2178 -0.114691 -0.263364 -0.769276 0.570701 
2173 -0.104138 -0.273763 -0.896948 0.331200 
2171 -0.044287 -0.270411 -0.802556 0.529925 
2148 -0.041226 -0.285515 -0.881750 0.373228 
2136 0.082992 -0.340066 -0.986023 0.977549 
2126 0.057995 -0.237543 -0.688617 0.682654 
2124 0.062488 -0.238734 -0.686377 0.549784 
2115 -0.144491 -0.264744 -0.902635 0.307057 
2094 0.016538 -0.262169 -0.774882 0.574937 
2093 -0.140310 -0.271456 -0.829681 0.467178 
2089 -0.074238 -0.260507 -0.772591 0.574219 
2084 -0.033107 -0.283595 -0.863496 0.415755 
2052 -0.180314 -0.238577 -0.813693 0.498470 
2044 -0.346322 -0.245612 -0.841818 0.333284 
2043 -0.155096 -0.260143 -0.826639 0.474278 
1970 -0.022197 -0.230987 -0.679978 0.695544 
1961 -0.067604 -0.221795 -0.671154 0.704123 
1914 -0.093138 -0.245558 -0.732369 0.628222 
1852 0.048906 -0.241449 -0.682367 0.688248 
1844 -0.107107 -0.261282 -0.778248 0.560883 
1842 -0.124357 -0.237900 -0.704360 0.657127 
1819 -0.347798 -0.244943 -0.845998 0.337189 
1816 0.080225 -0.252357 -0.673304 0.690319 
1806 -0.137430 -0.239345 -0.736972 0.617008 
1784 -0.115671 -0.293093 -0.824111 0.470699 
1783 0.010082 -0.268379 -0.797528 0.540204 
1743 0.016870 -0.288796 -0.811643 0.507491 
1696 -0.092906 -0.233263 -0.678350 0.690506 
1670 -0.135454 -0.243446 -0.701353 0.696237 
1669 -0.092980 -0.285799 -0.939952 -0.098565 
1595 -0.152153 -0.256848 -0.856492 0.421070 
1565 -0.058138 -0.260502 -0.771291 0.577814 
1556 -0.132764 -0.212147 -0.657567 0.710615 
1545 -0.158419 -0.285865 -0.939923 -0.098642 
1543 -0.304075 -0.220886 -0.820522 0.430687 
1539 0.043730 -0.251947 -0.664998 0.701704 
1507 -0.344809 -0.246291 -0.843810 0.329291 
1493 -0.251783 -0.281580 -0.826341 0.417705 
1477 -0.158416 -0.285840 -0.939934 -0.098612 
1469 0.016357 -0.276368 -0.786835 0.551584 
1442 -0.148642 -0.276629 -0.829111 0.462555 
1441 -0.018709 -0.313652 -0.874549 0.369372 
1415 -0.066360 -0.256775 -0.751439 0.604154 
1348 -0.100267 -0.286746 -0.837123 0.454915 
1332 -0.069972 -0.247592 -0.690870 0.675649 
1329 -0.304889 -0.281406 -0.849312 0.326377 
1312 -0.158416 -0.285840 -0.939934 -0.098612 
1283 -0.133935 -0.228069 -0.663777 0.699604 
1256 -0.307551 -0.280480 -0.883572 0.214577 
1207 -0.073358 -0.268069 -0.788004 0.549369 
163 -0.089761 -0.714638 -0.618061 0.878801 
0 0.819138 -0.470447 -0.790183 -0.083604 
-0.01 -0.429855 0.842553 0.753020 -0.532243 
-0.02 0.974161 -0.792741 -0.521233 -0.468686 
-0.03 0.886369 0.298719 -0.840346 0.424714 
-0.04 0.915870 -0.924014 0.629696 0.492250 
-0.05 -0.100559 0.314148 -0.771021 0.317669 
-0.06 0.963048 -0.047924 -0.721948 -0.623835 
-0.07 0.976927 0.171449 0.019253 0.471765 

Generation : 6
4371 0.069662 -0.154968 -0.758242 0.681570 
4366 -0.255589 -0.158369 -0.911417 0.280912 
4362 -0.120273 -0.171005 -0.866053 0.454141 
4350 -0.202212 -0.210891 -0.875098 0.385796 
4345 -0.180131 -0.173164 -0.847752 0.467849 
4343 -0.122653 -0.211284 -0.872224 0.423723 
4291 -0.087408 -0.200871 -0.833527 0.507192 
4271 -0.193424 -0.158876 -0.871204 0.422315 
4264 -0.156964 -0.165078 -0.869338 0.438592 
4248 -0.175101 -0.162032 -0.870442 0.430599 
4212 -0.211983 -0.169342 -0.863945 0.424246 
4206 -0.237852 -0.198495 -0.850398 0.425264 
3925 -0.169885 -0.180949 -0.868823 0.428419 
3840 -0.105747 -0.200730 -0.838841 0.494845 
3814 -0.108989 -0.191084 -0.830412 0.511883 
3813.99 -0.230520 -0.109900 -0.906741 0.256465 
3745 -0.198333 -0.195490 -0.844632 0.457214 
3700 -0.166430 -0.186804 -0.822011 0.511569 
3683 -0.232211 -0.180720 -0.855479 0.426116 
3645 -0.221438 -0.204471 -0.902738 0.306954 
3611 -0.213474 -0.189961 -0.883077 0.448321 
3582 -0.232211 -0.180720 -0.855479 0.426116 
3506 -0.222851 -0.191032 -0.868663 0.399084 
3482 -0.159344 -0.192792 -0.841523 0.478831 
3370 -0.040297 -0.212339 -0.779266 0.588246 
3215 -0.104317 -0.216262 -0.810552 0.534186 
3177 -0.074867 -0.239351 -0.803432 0.540003 
2891 -0.018896 -0.271791 -0.815906 0.510268 
2881 -0.038393 -0.237839 -0.722847 0.647651 
2861 -0.023990 -0.280694 -0.842705 0.458784 
2860 -0.264385 -0.211427 -0.814281 0.471535 
2772 -0.217171 -0.226119 -0.894331 0.355980 
2769 -0.145409 -0.228196 -0.867211 0.418006 
2720 -0.126002 -0.232519 -0.750620 0.605498 
2714 -0.154720 -0.242098 -0.843572 0.453692 
2686 -0.104138 -0.273763 -0.896948 0.331200 
2685.99 -0.144491 -0.264744 -0.902635 0.307057 
2672 -0.155096 -0.260143 -0.826639 0.474278 
2576 -0.145409 -0.228196 -0.867211 0.418006 
2565 -0.048006 -0.263911 -0.792338 0.547947 
2562 -0.207897 -0.222422 -0.865973 0.396734 
2553 -0.213405 -0.247713 -0.907511 0.263668 
2543 -0.020055 -0.283600 -0.851077 0.474265 
2519 -0.033107 -0.283595 -0.863496 0.415755 
2476 -0.388323 -0.125539 -0.685400 0.048954 
2446 0.057995 -0.237543 -0.688617 0.682654 
2411 -0.069609 -0.240989 -0.730353 0.635346 
2406 -0.220596 -0.226131 -0.858854 0.403202 
2405 -0.096214 -0.250064 -0.775426 0.571774 
2389 -0.082137 -0.247765 -0.749916 0.607858 
2364 0.041712 -0.259661 -0.742497 0.616064 
2361 -0.171176 -0.260211 -0.829172 0.464180 
2354 -0.041226 -0.285515 -0.881750 0.373228 
2325 0.058342 -0.251398 -0.716618 0.647961 
2292 0.048906 -0.241449 -0.682367 0.688248 
2282 -0.180314 -0.238577 -0.813693 0.498470 
2264 0.092767 -0.245558 -0.732369 0.628222 
2249 -0.176697 -0.261926 -0.886416 0.338288 
2247 -0.239728 -0.229240 -0.866782 0.372382 
2244 0.061248 -0.240917 -0.682466 0.687349 
2241 -0.111787 -0.261853 -0.871735 0.398766 
2189 -0.173596 -0.175904 -0.688680 0.441610 
2176 0.082992 -0.340066 -0.986023 0.977549 
2165 -0.065866 -0.246455 -0.750871 0.609191 
2153 -0.125827 -0.275216 -0.877416 0.372243 
2148 -0.067604 -0.221795 -0.671154 0.704123 
2140 -0.121627 -0.271651 -0.834423 0.463843 
2135 -0.112293 -0.231837 -0.707491 0.658102 
2105 -0.030510 -0.263389 -0.794803 0.545879 
2084 -0.043328 -0.286065 -0.884548 0.365875 
2065 -0.117993 -0.285022 -0.863962 0.398006 
2051 -0.030704 -0.248678 -0.749233 0.613079 
2025 -0.031893 -0.258893 -0.783094 0.564553 
2021 -0.133302 -0.219380 -0.660418 0.705657 
1992 -0.059320 -0.258646 -0.806944 0.527660 
1971 -0.114691 -0.263364 -0.769276 0.570701 
1970 -0.045542 -0.247778 -0.750039 0.611533 
1941 -0.081125 -0.268672 -0.840940 0.536785 
1900 -0.110746 -0.270499 -0.877579 0.380027 
1890 -0.177997 -0.271202 -0.874749 0.359973 
1818 -0.128786 -0.276945 -0.850493 0.428226 
1785 0.062488 -0.238734 -0.686377 0.549784 
1761 -0.158776 -0.281593 -0.897558 0.299810 
1754 -0.044287 -0.270411 -0.802556 0.529925 
1704 -0.022197 -0.230987 -0.679978 0.695544 
1683 -0.034733 -0.253768 -0.731934 0.636043 
1631 -0.346322 -0.245612 -0.841818 0.333284 
1619 -0.074238 -0.260507 -0.772591 0.574219 
1546 0.016538 -0.262169 -0.774882 0.574937 
1346 -0.140310 -0.271456 -0.829681 0.467178 
122 0.418649 -0.826764 -0.554423 0.296273 
115 -0.679942 -0.549911 -0.649167 -0.587563 
75 0.545493 -0.962746 -0.439565 0.151622 
0 0.380605 0.052567 0.427053 0.962823 
-0.01 -0.387754 0.570200 0.615644 0.528954 
-0.02 -0.241935 0.758859 -0.849839 0.256742 
-0.03 0.309904 0.481403 -0.422962 -0.195106 
-0.04 -0.942067 0.114488 0.754546 0.328963 
-0.05 -0.242144 -0.614600 0.432098 -0.322206 
-0.06 -0.842977 0.378228 -0.268505 0.263636 

Generation : 7
4374 -0.175101 -0.162032 -0.870442 0.430599 
4373.99 -0.173846 -0.154120 -0.889513 0.393434 
4370 -0.225568 -0.159127 -0.894384 0.351958 
4369.99 -0.094700 -0.159753 -0.851228 0.490837 
4369 -0.156964 -0.165078 -0.906680 0.438592 
4364 -0.174873 -0.145132 -0.901378 0.368612 
4362 -0.120273 -0.171005 -0.866053 0.454141 
4360 0.069662 -0.154968 -0.758242 0.681570 
4358 -0.016174 -0.186996 -0.785266 0.590024 
4353 -0.025092 -0.162227 -0.808348 0.565355 
4352 -0.211983 -0.169342 -0.863945 0.424246 
4351 -0.193424 -0.158876 -0.871204 0.422315 
4349 -0.160243 -0.199741 -0.868490 0.424442 
4340 -0.199760 -0.188185 -0.876278 0.396005 
4339 -0.169885 -0.180949 -0.868823 0.428419 
4233 -0.105747 -0.200730 -0.838841 0.494845 
4188 0.021445 -0.177085 -0.755200 0.630757 
4181 -0.054721 -0.163617 -0.800798 0.573549 
4092 -0.108989 -0.191084 -0.830412 0.511883 
4074 -0.161680 -0.184724 -0.853880 0.458940 
4054 -0.255589 -0.158369 -0.911417 0.280912 
4053 -0.008073 -0.176063 -0.788173 0.589677 
4029 -0.087408 -0.200871 -0.833527 0.507192 
3972 -0.161793 -0.199030 -0.865955 0.429339 
3969 -0.247707 -0.178650 -0.884409 0.352911 
3930 -0.166430 -0.186804 -0.822011 0.435425 
3912 -0.245823 -0.168971 -0.888991 0.347441 
3900 -0.104120 -0.189999 -0.811292 0.543014 
3838 -0.202212 -0.210891 -0.875098 0.385796 
3837.99 -0.116411 -0.202094 -0.853749 0.465531 
3823 -0.204353 -0.176020 -0.895230 0.354710 
3820 -0.222325 -0.197907 -0.860128 0.414228 
3798 -0.135600 -0.194004 -0.831043 0.503331 
3797 -0.232211 -0.180720 -0.855479 0.426116 
3782 -0.221438 -0.204471 -0.902738 0.306954 
3757 -0.230520 -0.109900 -0.906741 0.256465 
3708 -0.122653 -0.211284 -0.872224 0.423723 
3680 -0.234143 -0.170931 -0.889539 0.353102 
3624 -0.222851 -0.191032 -0.868663 0.399084 
3548 -0.140702 -0.226645 -0.855591 0.443621 
3425 -0.213474 -0.189961 -0.883077 0.448321 
3410 -0.232211 -0.180720 -0.855479 0.354722 
3408 -0.180131 -0.173164 -0.847752 0.575947 
3352 -0.176152 -0.200452 -0.826180 0.496202 
3228 -0.198333 -0.195490 -0.844632 0.457214 
3196 -0.176697 -0.261926 -0.886416 0.338288 
3141 -0.217171 -0.226119 -0.894331 0.355980 
3093 -0.145409 -0.228196 -0.867211 0.418006 
3044 -0.104138 -0.273763 -0.896948 0.331200 
3023 -0.074867 -0.239351 -0.803432 0.540003 
3005 -0.159344 -0.192792 -0.841523 0.490747 
2936 -0.237852 -0.198495 -0.850398 0.425264 
2910 -0.146101 -0.188396 -0.730112 0.353098 
2882 -0.043653 -0.234758 -0.785351 0.571146 
2799 -0.211363 -0.226762 -0.830011 0.463667 
2763 -0.082137 -0.247765 -0.749916 0.607858 
2749 -0.180314 -0.238577 -0.813693 0.498470 
2740 -0.145409 -0.228196 -0.867211 0.418006 
2725 -0.115084 -0.213830 -0.847687 0.471656 
2716 -0.069609 -0.240989 -0.730353 0.635346 
2699 -0.040297 -0.212339 -0.779266 0.588246 
2635 -0.154720 -0.242098 -0.843572 0.453692 
2627 -0.096214 -0.250064 -0.775426 0.571774 
2569 -0.072742 -0.224690 -0.818969 0.522984 
2559 0.057995 -0.237543 -0.688617 0.682654 
2556 -0.158833 -0.217314 -0.809063 0.522460 
2546 -0.171176 -0.260211 -0.829172 0.464180 
2506 -0.033107 -0.283595 -0.863496 0.415755 
2489 -0.264385 -0.211427 -0.814281 0.471535 
2465 -0.126002 -0.232519 -0.750620 0.605498 
2407 -0.023990 -0.280694 -0.842705 0.458784 
2402 -0.104317 -0.216262 -0.810552 0.534186 
2369 0.092767 -0.245558 -0.732369 0.628222 
2330 -0.239728 -0.229240 -0.866782 0.372382 
2312 -0.018896 -0.271791 -0.815906 0.510268 
2311 0.058342 -0.251398 -0.716618 0.647961 
2278 -0.041226 -0.285515 -0.881750 0.373228 
2268 -0.220596 -0.226131 -0.858854 0.403202 
2129 -0.048006 -0.263911 -0.792338 0.547947 
2117 -0.207897 -0.222422 -0.865973 0.396734 
2060 -0.144491 -0.264744 -0.902635 0.307057 
2042 -0.020055 -0.283600 -0.851077 0.474265 
2016 0.061248 -0.240917 -0.682466 0.687349 
1964 0.041712 -0.259661 -0.742497 0.616064 
1960 0.048906 -0.241449 -0.682367 0.688248 
1937 -0.213405 -0.247713 -0.907511 0.263668 
1926 -0.038393 -0.237839 -0.722847 0.647651 
1898 -0.056791 -0.265983 -0.810293 0.519088 
1722 -0.155096 -0.260143 -0.826639 0.474278 
1715 -0.388323 -0.125539 -0.685400 0.048954 
98 0.514319 -0.635339 -0.599142 -0.013570 
3 0.709996 -0.947857 0.737144 -0.510809 
0 0.861448 0.127819 -0.534254 -0.574701 
-0.01 -0.978279 0.611088 0.462993 -0.278743 
-0.02 -0.310990 0.010713 0.743662 -0.094894 
-0.03 -0.275866 -0.120937 -0.130764 -0.999495 
-0.04 0.593338 -0.477869 0.011336 -0.611066 
-0.05 -0.169299 0.891810 0.146775 0.106681 
-0.06 0.317001 0.776272 0.931576 0.196564 
-0.07 -0.459933 -0.669623 0.496668 -0.563276 

Generation : 8
4374 -0.038065 -0.169137 -0.808549 0.562309 
4372 -0.008073 -0.176063 -0.788173 0.589677 
4368 -0.104569 -0.185481 -0.851056 0.479964 
4366 -0.200315 -0.152193 -0.898226 0.360419 
4365 -0.175101 -0.162032 -0.870442 0.430599 
4364.99 -0.145223 -0.171066 -0.855418 0.466806 
4364 -0.054721 -0.163617 -0.800798 0.573549 
4362 -0.211983 -0.169342 -0.863945 0.424246 
4361 -0.156964 -0.165078 -0.906680 0.438592 
4358 -0.174873 -0.145132 -0.901378 0.368612 
4357 -0.016678 -0.170883 -0.785961 0.593959 
4356 -0.255589 -0.158369 -0.911417 0.280912 
4354 -0.168666 -0.173013 -0.862646 0.444364 
4353 -0.154708 -0.172770 -0.862152 0.450454 
4332 -0.107357 -0.173553 -0.782430 0.596925 
4297 -0.183246 -0.202786 -0.859688 0.431549 
4271 -0.094700 -0.159753 -0.851228 0.490837 
4268 0.045286 -0.163094 -0.744384 0.645943 
4267 -0.159344 -0.192792 -0.841523 0.490747 
4254 -0.234143 -0.170931 -0.889539 0.353102 
4208 -0.161680 -0.184724 -0.853880 0.458940 
4206 -0.025092 -0.162227 -0.808348 0.565355 
4200 -0.016174 -0.186996 -0.785266 0.590024 
4193 -0.173666 -0.181547 -0.882280 0.398073 
4180 0.069662 -0.154968 -0.758242 0.681570 
4166 -0.177402 -0.191885 -0.849923 0.457536 
4160 -0.147445 -0.174389 -0.866037 0.444779 
4154 -0.201127 -0.166612 -0.874387 0.408944 
4143 -0.245823 -0.168971 -0.888991 0.347441 
4136 -0.104120 -0.189999 -0.811292 0.543014 
4127 -0.173456 -0.165526 -0.882714 0.404140 
4124 -0.050484 -0.184896 -0.815818 0.545625 
4116 -0.105747 -0.200730 -0.838841 0.494845 
4102 -0.116411 -0.202094 -0.853749 0.465531 
4101 -0.087408 -0.200871 -0.833527 0.507192 
4099 -0.199760 -0.188185 -0.876278 0.396005 
4073 -0.230520 -0.109900 -0.906741 0.256465 
4071 -0.193424 -0.158876 -0.871204 0.422315 
4056 -0.222325 -0.197907 -0.860128 0.414228 
4055 -0.204353 -0.176020 -0.895230 0.354710 
4038 -0.188114 -0.183587 -0.865275 0.426859 
4037 -0.154745 -0.188320 -0.844309 0.477213 
4002 -0.212809 -0.173688 -0.885781 0.374082 
3983 -0.120273 -0.171005 -0.866053 0.454141 
3982.99 -0.159200 -0.186833 -0.875407 0.416428 
3964 -0.213474 -0.189961 -0.883077 0.448321 
3948 -0.173846 -0.154120 -0.889513 0.393434 
3942 -0.108989 -0.191084 -0.830412 0.511883 
3930 -0.122653 -0.211284 -0.872224 0.423723 
3908 -0.176152 -0.200452 -0.826180 0.496202 
3876 -0.199760 -0.172121 -0.874708 0.406639 
3871 -0.225568 -0.159127 -0.894384 0.351958 
3865 -0.153191 -0.202633 -0.858674 0.445141 
3864 -0.222851 -0.191032 -0.868663 0.399084 
3858 -0.180131 -0.173164 -0.847752 0.575947 
3857.99 -0.209036 -0.197578 -0.890145 0.353425 
3854 -0.160243 -0.199741 -0.868490 0.424442 
3848 -0.115056 -0.179808 -0.832136 0.511841 
3806 -0.160268 -0.180249 -0.870490 0.429036 
3797 -0.161793 -0.199030 -0.865955 0.429339 
3796 -0.221438 -0.204471 -0.902738 0.306954 
3768 -0.232211 -0.180720 -0.855479 0.426116 
3762 -0.115084 -0.213830 -0.847687 0.471656 
3723 -0.135600 -0.194004 -0.831043 0.503331 
3722.99 -0.183852 -0.176633 -0.879843 0.401092 
3697 -0.166430 -0.186804 -0.822011 0.435425 
3684 -0.237852 -0.198495 -0.850398 0.425264 
3668 -0.175962 -0.194859 -0.896672 0.356436 
3650 -0.232211 -0.180720 -0.855479 0.354722 
3648 -0.151136 -0.184748 -0.871826 0.427722 
3640 -0.202212 -0.210891 -0.875098 0.385796 
3632 0.021445 -0.177085 -0.755200 0.630757 
3631 -0.145409 -0.228196 -0.867211 0.418006 
3627 -0.201136 -0.185508 -0.879803 0.388687 
3388 -0.104138 -0.273763 -0.896948 0.331200 
3355 -0.198333 -0.195490 -0.844632 0.457214 
3306 -0.247707 -0.178650 -0.884409 0.352911 
3193 -0.146101 -0.188396 -0.730112 0.353098 
2973 -0.145409 -0.228196 -0.910089 0.418006 
2871 -0.074867 -0.239351 -0.803432 0.540003 
2754 -0.069609 -0.240989 -0.730353 0.635346 
2736 -0.043653 -0.234758 -0.785351 0.571146 
2626 -0.172832 -0.218671 -0.866567 0.413974 
2545 -0.140702 -0.226645 -0.855591 0.443621 
2265 -0.180314 -0.238577 -0.813693 0.498470 
2176 -0.176697 -0.261926 -0.886416 0.338288 
2092 -0.217171 -0.226119 -0.894331 0.355980 
2016 -0.211363 -0.226762 -0.830011 0.463667 
1972 -0.169885 -0.284446 -0.868823 0.428419 
1745 -0.082137 -0.247765 -0.749916 0.607858 
97 -0.931522 -0.124518 -0.360497 -0.577173 
0 0.487360 0.701238 -0.620889 0.230890 
-0.01 -0.021127 0.943189 0.189853 -0.541001 
-0.02 -0.100695 -0.329557 0.679064 0.662039 
-0.03 -0.823354 -0.904159 0.964795 -0.226463 
-0.04 -0.584854 0.600271 -0.404211 -0.420604 
-0.05 0.784767 -0.376967 0.796097 0.756049 
-0.06 0.108284 0.285956 -0.490382 -0.317129 
-0.07 0.802656 0.748349 0.165119 0.966038 
-0.08 -0.057516 0.077948 -0.729655 -0.319786 

Generation : 9
4372 -0.008073 -0.176063 -0.788173 0.589677 
4371.99 -0.125538 -0.180147 -0.858731 0.462999 
4371 -0.145223 -0.171066 -0.855418 0.466806 
4370 -0.054721 -0.163617 -0.800798 0.573549 
4369.99 -0.105104 -0.176337 -0.850065 0.485024 
4369 0.069662 -0.154968 -0.758242 0.681570 
4368.99 -0.113745 -0.173532 -0.846231 0.490757 
4368 -0.175101 -0.162032 -0.870442 0.430599 
4367.99 -0.174873 -0.145132 -0.901378 0.368612 
4367 -0.038065 -0.169137 -0.808549 0.562309 
4366 -0.025092 -0.162227 -0.808348 0.565355 
4363 -0.173846 -0.154120 -0.889513 0.393434 
4362.99 -0.031386 -0.169904 -0.794753 0.581821 
4362.98 -0.168862 -0.152182 -0.896604 0.380037 
4362 -0.255589 -0.158369 -0.911417 0.280912 
4361.99 -0.016174 -0.186996 -0.785266 0.590024 
4361 -0.128040 -0.172278 -0.853199 0.475371 
4360 -0.120273 -0.171005 -0.866053 0.454141 
4359.99 -0.074673 -0.163640 -0.839810 0.504581 
4358 -0.149184 -0.166647 -0.875015 0.429328 
4357 -0.115056 -0.179808 -0.853108 0.511841 
4353 -0.168666 -0.173013 -0.862646 0.444364 
4352.99 0.045286 -0.163094 -0.744384 0.645943 
4352.98 -0.202276 -0.163679 -0.896853 0.357698 
4352 -0.193424 -0.158876 -0.871204 0.422315 
4345 -0.156964 -0.165078 -0.906680 0.438592 
4344 -0.083882 -0.181335 -0.825059 0.528544 
4336 -0.173456 -0.165526 -0.882714 0.404140 
4301 -0.050484 -0.184896 -0.815818 0.545625 
4298 -0.183246 -0.202786 -0.859688 0.431549 
4291 -0.180131 -0.173164 -0.847752 0.575947 
4290 -0.200315 -0.152193 -0.791994 0.360419 
4282 -0.164282 -0.175328 -0.864906 0.440692 
4275 -0.104120 -0.189999 -0.811292 0.543014 
4270 -0.161693 -0.172896 -0.862424 0.447422 
4265 -0.016678 -0.170883 -0.785961 0.593959 
4253 -0.201127 -0.166612 -0.874387 0.408944 
4230 -0.225568 -0.159127 -0.894384 0.351958 
4222 -0.234143 -0.170931 -0.889539 0.353102 
4215 -0.159200 -0.186833 -0.875407 0.416428 
4196 -0.124921 -0.178321 -0.853455 0.473509 
4194 -0.230520 -0.109900 -0.906741 0.256465 
4183 -0.188114 -0.183587 -0.865275 0.426859 
4166 -0.176270 -0.176655 -0.860642 0.443867 
4165 -0.183942 -0.182587 -0.868175 0.423200 
4152 -0.094700 -0.159753 -0.851228 0.490837 
4150 -0.154708 -0.172770 -0.862152 0.450454 
4149.99 -0.245823 -0.168971 -0.888991 0.347441 
4148 -0.107357 -0.173553 -0.782430 0.596925 
4134 -0.147445 -0.174389 -0.866037 0.444779 
4116 -0.108989 -0.191084 -0.830412 0.511883 
4090 -0.131792 -0.168627 -0.859487 0.464196 
4073 -0.154745 -0.188320 -0.844309 0.477213 
4068 -0.173666 -0.181547 -0.882280 0.398073 
4062 -0.118332 -0.186808 -0.859946 0.459992 
4059 -0.104569 -0.185481 -0.851056 0.479964 
4057 -0.208462 -0.172687 -0.879667 0.391035 
4049 -0.187335 -0.158733 -0.891028 0.381810 
4046 -0.148712 -0.165427 -0.867167 0.445578 
4045 -0.116411 -0.202094 -0.853749 0.465531 
4038 -0.186221 -0.177039 -0.878742 0.402233 
4015 -0.213474 -0.189961 -0.883077 0.448321 
4013 -0.211983 -0.169342 -0.863945 0.424246 
4009 -0.089963 -0.180401 -0.841960 0.500464 
4008 -0.087408 -0.200871 -0.833527 0.507192 
4002 -0.167326 -0.180893 -0.869423 0.428233 
3997 -0.111549 -0.179389 -0.842667 0.495267 
3990 -0.159344 -0.192792 -0.841523 0.490747 
3971 -0.106486 -0.186642 -0.809256 0.546745 
3964 -0.161793 -0.199030 -0.865955 0.429339 
3930 -0.124235 -0.146413 -0.874134 0.446114 
3868 -0.160268 -0.180249 -0.870490 0.429036 
3855 -0.122653 -0.211284 -0.872224 0.423723 
3824 -0.212809 -0.173688 -0.885781 0.374082 
3811 -0.161680 -0.184724 -0.853880 0.458940 
3805 -0.153191 -0.202633 -0.858674 0.445141 
3803 -0.209036 -0.197578 -0.890145 0.353425 
3794 -0.199760 -0.188185 -0.876278 0.396005 
3761 -0.222325 -0.197907 -0.860128 0.414228 
3683 -0.105747 -0.200730 -0.838841 0.494845 
3678 -0.204954 -0.184136 -0.880720 0.385254 
3631 -0.177402 -0.191885 -0.849923 0.457536 
3630.99 -0.176152 -0.200452 -0.826180 0.496202 
3585 -0.204353 -0.176020 -0.895230 0.354710 
3583 -0.199760 -0.172121 -0.874708 0.406639 
3516 -0.166954 -0.176858 -0.854312 0.459345 
3502 -0.160243 -0.199741 -0.868490 0.424442 
3378 -0.192074 -0.177497 -0.880145 0.396166 
2578 -0.222851 -0.191032 -0.719694 0.399084 
924 -0.107980 -0.359068 -0.804139 0.555613 
274 -0.605360 -0.459589 -0.631682 0.210595 
231 0.206251 -0.356389 -0.703331 -0.072787 
145 -0.874240 -0.920478 -0.532779 0.940614 
60 -0.175032 -0.696134 -0.678981 -0.855735 
0 -0.207003 0.296701 0.444882 -0.060374 
-0.01 0.155189 -0.114698 0.540420 -0.584590 
-0.02 -0.208629 -0.286051 0.558002 0.142444 
-0.03 0.815683 -0.281724 -0.040670 0.410233 
-0.04 0.984448 0.038545 -0.779636 0.253818 
-0.05 -0.709826 0.612672 -0.653162 0.885386 

Generation : 10
4377 -0.016678 -0.170883 -0.785961 0.593959 
4374 -0.187335 -0.158733 -0.891028 0.381810 
4373.99 -0.068252 -0.174867 -0.823916 0.534719 
4373 -0.145223 -0.171066 -0.855418 0.466806 
4372.99 -0.115338 -0.178265 -0.854505 0.474068 
4372 -0.179429 -0.172077 -0.869397 0.427017 
4371 -0.125538 -0.180147 -0.858731 0.462999 
4370.99 -0.175101 -0.162032 -0.870442 0.430599 
4370.98 -0.134625 -0.162020 -0.859522 0.465668 
4370 -0.113745 -0.173532 -0.846231 0.490757 
4369 -0.081918 -0.168588 -0.821127 0.539090 
4368.99 -0.023783 -0.178464 -0.790077 0.585971 
4368 -0.163376 -0.152680 -0.890042 0.397269 
4367 -0.105104 -0.176337 -0.850065 0.485024 
4366 -0.115056 -0.179808 -0.853108 0.511841 
4364 -0.074673 -0.163640 -0.890077 0.504581 
4363.99 -0.094662 -0.159752 -0.851207 0.490882 
4363.98 -0.181197 -0.155584 -0.884260 0.401304 
4363 -0.161693 -0.172896 -0.862424 0.447422 
4362.99 -0.124921 -0.178321 -0.853455 0.473509 
4362.98 -0.094700 -0.159753 -0.851228 0.490837 
4362.97 -0.154708 -0.172770 -0.862152 0.450454 
4362 -0.008073 -0.176063 -0.788173 0.589677 
4361.99 -0.027833 -0.166730 -0.804490 0.569406 
4361 -0.120273 -0.171005 -0.866053 0.454141 
4360.99 -0.050484 -0.184896 -0.815818 0.545625 
4360 -0.149184 -0.166647 -0.875015 0.429328 
4359.99 -0.021882 -0.163061 -0.796430 0.581921 
4359.98 -0.109126 -0.176538 -0.844256 0.494123 
4359 -0.148712 -0.165427 -0.867167 0.445578 
4358 -0.193424 -0.158876 -0.871204 0.422315 
4356 -0.255589 -0.158369 -0.911417 0.280912 
4355 -0.125197 -0.173745 -0.852955 0.476033 
4353 -0.054721 -0.163617 -0.800798 0.573549 
4352.99 -0.168885 -0.162702 -0.880275 0.412459 
4351 -0.168862 -0.152182 -0.896604 0.380037 
4350.99 -0.107357 -0.173553 -0.782430 0.596925 
4350 -0.135388 -0.175618 -0.857128 0.464931 
4349 -0.208462 -0.172687 -0.879667 0.391035 
4342 -0.156964 -0.165078 -0.906680 0.438592 
4338 -0.174873 -0.145132 -0.901378 0.368612 
4333 -0.164282 -0.175328 -0.864906 0.440692 
4332.99 -0.104569 -0.185481 -0.851056 0.479964 
4318 -0.118332 -0.186808 -0.859946 0.459992 
4315 -0.196876 -0.155680 -0.895966 0.366401 
4314 0.069662 -0.154968 -0.758242 0.681570 
4305 -0.038065 -0.169137 -0.808549 0.562309 
4303 -0.128040 -0.172278 -0.853199 0.475371 
4285 -0.230520 -0.109900 -0.906741 0.256465 
4278 0.045286 -0.163094 -0.744384 0.645943 
4246 -0.188114 -0.183587 -0.865275 0.426859 
4236 -0.131792 -0.168627 -0.859487 0.464196 
4207 -0.104120 -0.189999 -0.811292 0.543014 
4203 -0.147445 -0.174389 -0.866037 0.444779 
4202 -0.149349 -0.166639 -0.875093 0.429115 
4153 -0.098060 -0.178741 -0.845702 0.493177 
4135 -0.173456 -0.165526 -0.882714 0.404140 
4128 -0.168666 -0.173013 -0.862646 0.444364 
4108 -0.183942 -0.182587 -0.868175 0.423200 
4103 -0.229217 -0.161202 -0.905159 0.319624 
4084 -0.170823 -0.174742 -0.867581 0.433113 
4079 -0.201127 -0.166612 -0.874387 0.408944 
4072 -0.031386 -0.169904 -0.794753 0.581821 
4067 -0.173846 -0.154120 -0.889513 0.393434 
4066.99 -0.159200 -0.186833 -0.875407 0.416428 
4062 -0.143763 -0.179621 -0.860021 0.455447 
4057 -0.183246 -0.202786 -0.859688 0.431549 
4052 -0.012119 -0.181528 -0.786741 0.589865 
4051.99 -0.046399 -0.166386 -0.804722 0.567966 
4036 -0.025092 -0.162227 -0.808348 0.565355 
4028 -0.016174 -0.186996 -0.785266 0.590024 
4019 -0.147823 -0.189812 -0.850077 0.468497 
4001 -0.200315 -0.152193 -0.791994 0.360419 
4000 -0.176270 -0.176655 -0.860642 0.443867 
3999 -0.173666 -0.181547 -0.882280 0.398073 
3998.99 -0.163376 -0.152680 -0.890042 0.397269 
3941 -0.104282 -0.173086 -0.838846 0.505474 
3939 -0.108989 -0.191084 -0.830412 0.511883 
3873 -0.149970 -0.168335 -0.828918 0.511925 
3814 -0.147159 -0.197382 -0.846739 0.471612 
3804 -0.116411 -0.202094 -0.853749 0.465531 
3753 -0.225568 -0.159127 -0.894384 0.351958 
3752 -0.202276 -0.163679 -0.896853 0.357698 
3735 -0.083882 -0.181335 -0.825059 0.528544 
3729 -0.154745 -0.188320 -0.844309 0.477213 
3711 -0.234143 -0.170931 -0.889539 0.353102 
3654 -0.245823 -0.168971 -0.888991 0.347441 
3598 -0.161568 -0.160425 -0.882518 0.411487 
3584 -0.180131 -0.173164 -0.847752 0.575947 
3109 -0.161778 -0.181055 -0.718220 0.428701 
37 -0.547798 -0.993992 0.318489 0.656922 
0 0.935640 0.104428 -0.921710 0.818082 
-0.01 -0.957025 0.795846 0.254055 0.172393 
-0.02 -0.491979 -0.149319 0.834789 0.471060 
-0.03 -0.734321 0.238158 0.442188 -0.119594 
-0.04 0.093958 -0.470474 0.858096 -0.281714 
-0.05 0.259192 0.709458 0.867676 0.860214 
-0.06 0.503693 -0.098431 0.881429 0.546242 
-0.07 -0.069565 0.556743 0.122541 0.007370 
-0.08 -0.306590 0.328315 0.237056 0.279004 

Generation : 11
4378 -0.066641 -0.164623 -0.831085 0.527026 
4376 -0.094662 -0.159752 -0.851207 0.490882 
4375.99 -0.050484 -0.184896 -0.815818 0.545625 
4374 -0.094700 -0.159753 -0.851228 0.490837 
4373 -0.124921 -0.178321 -0.853455 0.473509 
4372 -0.068252 -0.174867 -0.823916 0.534719 
4371.99 -0.115338 -0.178265 -0.854505 0.474068 
4371.98 0.069662 -0.154968 -0.758242 0.681570 
4371 -0.125538 -0.180147 -0.858731 0.462999 
4370 -0.106665 -0.170283 -0.849009 0.488683 
4369 -0.023783 -0.178464 -0.790077 0.585971 
4368 -0.149349 -0.166639 -0.875093 0.429115 
4367.99 -0.178164 -0.160741 -0.885821 0.397168 
4367.98 -0.125749 -0.166215 -0.853546 0.477513 
4367 -0.008073 -0.176063 -0.788173 0.589677 
4366 -0.163376 -0.152680 -0.890042 0.397269 
4365.99 -0.081604 -0.169044 -0.839645 0.509667 
4365 -0.016678 -0.170883 -0.785961 0.593959 
4364.99 -0.134625 -0.162020 -0.859522 0.465668 
4364.98 -0.168862 -0.152182 -0.896604 0.380037 
4364.97 -0.156964 -0.165078 -0.906680 0.438592 
4364 -0.109126 -0.176538 -0.844256 0.494123 
4363.99 -0.148712 -0.165427 -0.867167 0.445578 
4363.98 -0.054721 -0.163617 -0.800798 0.573549 
4363 -0.135349 -0.164499 -0.860501 0.462773 
4362 -0.074673 -0.163640 -0.890077 0.504581 
4361.99 -0.038065 -0.169137 -0.808549 0.562309 
4361.98 -0.128040 -0.172278 -0.853199 0.475371 
4361 -0.181197 -0.155584 -0.884260 0.401304 
4360.99 -0.104569 -0.185481 -0.851056 0.479964 
4360.98 -0.229217 -0.161202 -0.905159 0.319624 
4360.97 -0.178164 -0.160741 -0.885821 0.397168 
4360.96 -0.109355 -0.170016 -0.837158 0.508234 
4360 -0.193424 -0.158876 -0.871204 0.422315 
4359 -0.168666 -0.173013 -0.862646 0.444364 
4358.99 -0.180338 -0.163862 -0.876949 0.414232 
4358.98 -0.081303 -0.171782 -0.824549 0.532916 
4358 -0.027833 -0.166730 -0.804490 0.569406 
4356 -0.149184 -0.166647 -0.875015 0.429328 
4355 -0.175101 -0.162032 -0.870442 0.430599 
4354 -0.161693 -0.172896 -0.862424 0.447422 
4351 -0.109811 -0.169069 -0.852498 0.482291 
4350 -0.173456 -0.165526 -0.882714 0.404140 
4347 -0.143271 -0.170780 -0.869246 0.441270 
4328 -0.125197 -0.173745 -0.852955 0.476033 
4324 -0.181288 -0.160441 -0.881065 0.406346 
4317 -0.147445 -0.174389 -0.866037 0.444779 
4316 -0.179429 -0.172077 -0.869397 0.427017 
4306 -0.020228 -0.174674 -0.788036 0.589983 
4304 -0.118332 -0.186808 -0.859946 0.459992 
4297 -0.171448 -0.162423 -0.879928 0.412251 
4290 -0.098060 -0.178741 -0.757559 0.493177 
4282 -0.105104 -0.176337 -0.850065 0.485024 
4270 -0.115056 -0.179808 -0.853108 0.511841 
4261 -0.196876 -0.155680 -0.895966 0.366401 
4245 -0.094681 -0.159753 -0.851218 0.490859 
4239 -0.021882 -0.163061 -0.796430 0.581921 
4200 -0.169277 -0.157392 -0.880428 0.414029 
4190 -0.071378 -0.176271 -0.825878 0.530810 
4179 -0.102123 -0.165318 -0.842286 0.502788 
4176 -0.171343 -0.162805 -0.873337 0.425933 
4157 0.045286 -0.163094 -0.744384 0.645943 
4149 -0.086561 -0.165864 -0.846805 0.497913 
4134 -0.122030 -0.171094 -0.843502 0.494307 
4125 -0.081918 -0.168588 -0.821127 0.367780 
4123 -0.089613 -0.172937 -0.829158 0.523984 
4121 -0.183542 -0.176184 -0.873505 0.415042 
4083 -0.255589 -0.158369 -0.911417 0.280912 
4079 -0.154708 -0.172770 -0.862152 0.450454 
4075 -0.120273 -0.171005 -0.866053 0.454141 
4071 -0.125344 -0.176956 -0.855866 0.469541 
4068 -0.145223 -0.171066 -0.855418 0.466806 
4054 -0.168662 -0.173870 -0.872695 0.423940 
4049 -0.220387 -0.173532 -0.846231 0.490757 
4048 -0.131792 -0.168627 -0.859487 0.464196 
4029 -0.116069 -0.165264 -0.860611 0.467508 
4028 -0.129278 -0.156509 -0.872275 0.444891 
4013 -0.135388 -0.175618 -0.857128 0.464931 
4002 -0.174873 -0.145132 -0.901378 0.368612 
3997 -0.168885 -0.162702 -0.880275 0.412459 
3986 -0.208462 -0.172687 -0.879667 0.391035 
3923 -0.104120 -0.189999 -0.811292 0.543014 
3875 -0.107357 -0.173553 -0.782430 0.596925 
3867 -0.138735 -0.169509 -0.864511 0.452372 
3859 -0.230520 -0.109900 -0.906741 0.256465 
3808 -0.164282 -0.175328 -0.864906 0.440692 
3771 -0.183446 -0.165460 -0.880518 0.404548 
3385 -0.188114 -0.183587 -0.865275 0.426859 
3368 -0.183942 -0.182587 -0.868175 0.423200 
3333 -0.187335 -0.158733 -0.732794 0.381810 
77 -0.949848 -0.414095 -0.116592 0.374288 
59 0.334630 -0.412761 -0.192058 -0.219141 
16 0.079088 -0.475753 0.069953 -0.285372 
0 -0.228022 0.823289 -0.247105 -0.709427 
-0.01 0.662021 0.879024 0.952494 -0.514647 
-0.02 -0.209560 0.886739 -0.359253 0.685718 
-0.03 -0.249268 0.756830 0.289262 0.430116 
-0.04 0.190241 -0.781047 0.314280 0.836510 
-0.05 0.708462 0.323530 -0.771184 -0.042968 
-0.06 0.674291 -0.243527 0.093712 -0.213888 

Generation : 12
4376 -0.038065 -0.169137 -0.902278 0.562309 
4375 -0.100698 -0.163512 -0.846256 0.496965 
4373 -0.074673 -0.163640 -0.890077 0.504581 
4372.99 -0.104569 -0.185481 -0.851056 0.479964 
4372.98 -0.088149 -0.164408 -0.845511 0.500310 
4372 -0.156964 -0.165078 -0.906680 0.516126 
4371 -0.094700 -0.159753 -0.851228 0.490837 
4370.99 -0.109762 -0.159165 -0.850868 0.488511 
4370.98 -0.083079 -0.158629 -0.854113 0.488289 
4370 -0.054721 -0.163617 -0.800798 0.573549 
4369.99 -0.020228 -0.174674 -0.788036 0.589983 
4369.98 -0.094681 -0.159753 -0.851218 0.490859 
4369.97 -0.005863 -0.160454 -0.791286 0.589989 
4369 -0.094662 -0.159752 -0.851207 0.490882 
4368.99 -0.135349 -0.164499 -0.860501 0.462773 
4368.98 -0.067448 -0.169746 -0.827526 0.530884 
4368.97 -0.076353 -0.168471 -0.827045 0.530834 
4368.96 -0.084273 -0.186167 -0.839157 0.504040 
4368 -0.066641 -0.164623 -0.831085 0.527026 
4367.99 -0.125749 -0.166215 -0.853546 0.477513 
4367.98 -0.095848 -0.171618 -0.842996 0.500718 
4367 -0.105104 -0.176337 -0.850065 0.485024 
4366.99 -0.121755 -0.162694 -0.859753 0.468541 
4366 -0.132047 -0.171900 -0.861072 0.459965 
4365 -0.168862 -0.152182 -0.896604 0.380037 
4364.99 -0.129801 -0.165138 -0.864512 0.456618 
4364.98 -0.125345 -0.171405 -0.857581 0.468470 
4364 -0.163376 -0.152680 -0.890042 0.397269 
4363.99 -0.027484 -0.165698 -0.801271 0.574242 
4363.98 -0.093984 -0.175456 -0.835089 0.512843 
4363 -0.115056 -0.179808 -0.853108 0.511841 
4362.99 -0.125445 -0.178610 -0.857356 0.466157 
4362 -0.109126 -0.176538 -0.844256 0.494123 
4361.99 -0.125197 -0.173745 -0.852955 0.476033 
4361.98 -0.169277 -0.157392 -0.880428 0.414029 
4361 -0.175101 -0.162032 -0.870442 0.430599 
4360.99 -0.179429 -0.172077 -0.869397 0.427017 
4360 -0.016678 -0.170883 -0.785961 0.593959 
4359.99 -0.196876 -0.155680 -0.895966 0.366401 
4359.98 -0.051560 -0.168355 -0.821940 0.541676 
4358 -0.148712 -0.165427 -0.867167 0.445578 
4357 -0.083168 -0.169132 -0.831361 0.522797 
4356.99 -0.091576 -0.168322 -0.828842 0.525645 
4355 -0.102123 -0.165318 -0.842286 0.502788 
4349 -0.149184 -0.166647 -0.875015 0.429328 
4332 -0.050484 -0.184896 -0.815818 0.545625 
4330 -0.068252 -0.174867 -0.823916 0.534719 
4328 -0.109811 -0.169069 -0.852498 0.482291 
4309 -0.156544 -0.161527 -0.873471 0.431799 
4302 -0.115338 -0.178265 -0.854505 0.474068 
4292 -0.059368 -0.179897 -0.819927 0.540215 
4269 -0.021882 -0.163061 -0.796430 0.581921 
4258 -0.125538 -0.180147 -0.858731 0.462999 
4257 -0.081604 -0.169044 -0.839645 0.509667 
4254 -0.027833 -0.166730 -0.804490 0.569406 
4230 -0.124921 -0.178321 -0.853455 0.461346 
4229 -0.164120 -0.160559 -0.865953 0.444309 
4228 -0.181197 -0.155584 -0.884260 0.401304 
4227.99 -0.081303 -0.171782 -0.824549 0.532916 
4222 -0.229217 -0.161202 -0.905159 0.319624 
4220 -0.143271 -0.170780 -0.869246 0.441270 
4214 -0.153113 -0.169618 -0.868135 0.440600 
4202 -0.119111 -0.164354 -0.864548 0.459736 
4189 -0.109963 -0.181873 -0.852806 0.477025 
4179 -0.178164 -0.160741 -0.885821 0.397168 
4154 -0.132071 -0.156361 -0.876074 0.436581 
4147 -0.147445 -0.174389 -0.866037 0.444779 
4126 0.069662 -0.154968 -0.758242 0.681570 
4110 -0.049248 -0.163720 -0.809095 0.562260 
4106 -0.023783 -0.178464 -0.790077 0.585971 
4102 -0.008073 -0.176063 -0.788173 0.589677 
4083 -0.134625 -0.162020 -0.859522 0.465668 
4069 -0.098060 -0.178741 -0.757559 0.493177 
4064 -0.106665 -0.170283 -0.849009 0.488683 
4045 -0.131044 -0.168235 -0.862287 0.459331 
4031 -0.128040 -0.172278 -0.853199 0.475371 
4029 -0.149349 -0.166639 -0.875093 0.429115 
3997 -0.071378 -0.176271 -0.825878 0.530810 
3963 -0.164017 -0.169147 -0.871764 0.429552 
3959 -0.173456 -0.165526 -0.882714 0.404140 
3958 -0.161693 -0.172896 -0.862424 0.447422 
3953 -0.171448 -0.162423 -0.879928 0.412251 
3898 -0.178164 -0.160741 -0.885821 0.397168 
3896 -0.181288 -0.160441 -0.881065 0.406346 
3885 -0.118332 -0.186808 -0.859946 0.459992 
3299 -0.180338 -0.055180 -0.876949 0.414232 
1751 -0.089522 -0.120213 -0.432159 0.019372 
1177 -0.193424 -0.306648 -0.871204 0.422315 
1120 -0.109355 -0.337259 -0.837158 0.508234 
761 -0.168666 -0.361540 -0.862646 0.444364 
64 -0.096169 0.008413 -0.845804 0.495569 
24 0.817609 -0.800780 -0.653685 -0.550793 
3 0.236028 -0.106629 -0.665804 -0.548774 
0 0.489011 -0.052673 0.459269 -0.102076 
-0.01 -0.655032 0.313441 -0.041454 0.542164 
-0.02 -0.406838 0.685386 0.158225 0.303843 
-0.03 -0.710458 0.843737 -0.909735 -0.975316 
-0.04 0.815158 -0.018397 -0.808369 -0.719952 
-0.05 0.858620 -0.099322 -0.221794 -0.066578 
-0.06 0.439429 -0.179189 -0.114748 -0.279345 

Generation : 13
4379 -0.081604 -0.169044 -0.839645 0.509667 
4375 -0.121755 -0.162694 -0.859753 0.468541 
4374.99 -0.078631 -0.165277 -0.846119 0.500582 
4374 -0.054721 -0.163617 -0.800798 0.573549 
4373 -0.027484 -0.165698 -0.801271 0.574242 
4372.99 -0.085546 -0.164165 -0.839405 0.511010 
4372.98 -0.091055 -0.156082 -0.844799 0.503649 
4372 -0.148712 -0.165427 -0.867167 0.445578 
4371.99 -0.124921 -0.178321 -0.853455 0.461346 
4371.98 -0.119817 -0.157757 -0.870025 0.451457 
4371 -0.096429 -0.158911 -0.852567 0.488444 
4370 -0.110026 -0.156145 -0.853484 0.484849 
4369.99 -0.083592 -0.160899 -0.850121 0.494387 
4369.98 -0.089480 -0.172984 -0.845301 0.497531 
4369.97 -0.113082 -0.171091 -0.852002 0.481697 
4369.96 -0.101897 -0.167332 -0.843128 0.500752 
4369 -0.088149 -0.164408 -0.845511 0.500310 
4368.99 -0.041462 -0.165168 -0.802695 0.571560 
4368 -0.156964 -0.165078 -0.906680 0.516126 
4367.99 -0.005863 -0.160454 -0.791286 0.656217 
4367.98 -0.102123 -0.165318 -0.842286 0.502788 
4367 -0.100698 -0.163512 -0.846256 0.496965 
4366.99 -0.125345 -0.171405 -0.857581 0.468470 
4366.98 -0.021882 -0.163061 -0.796430 0.581921 
4366 -0.125749 -0.166215 -0.853546 0.477513 
4365.99 -0.068252 -0.174867 -0.823916 0.534719 
4365.98 -0.156544 -0.161527 -0.873471 0.431799 
4365.97 -0.058334 -0.157865 -0.845943 0.506020 
4365 -0.038065 -0.169137 -0.902278 0.562309 
4364.99 -0.104569 -0.185481 -0.851056 0.479964 
4364.98 -0.094662 -0.159752 -0.851207 0.490882 
4364.97 -0.106764 -0.167958 -0.851816 0.484562 
4364 -0.076353 -0.168471 -0.827045 0.530834 
4363.99 -0.105104 -0.176337 -0.850065 0.485024 
4363.98 -0.179429 -0.172077 -0.869397 0.427017 
4363.97 -0.051560 -0.168355 -0.821940 0.541676 
4363.96 -0.081303 -0.171782 -0.824549 0.532916 
4363.95 -0.068947 -0.166448 -0.844316 0.504650 
4363 -0.074673 -0.163640 -0.890077 0.504581 
4362.99 -0.115338 -0.178265 -0.854505 0.474068 
4362 -0.163376 -0.152680 -0.890042 0.397269 
4361 -0.129801 -0.165138 -0.864512 0.456618 
4360.99 -0.181197 -0.155584 -0.884260 0.401304 
4360 -0.096273 -0.165553 -0.842996 0.502675 
4359 -0.066641 -0.164623 -0.831085 0.527026 
4358.99 -0.027833 -0.166730 -0.804490 0.569406 
4358.98 -0.078122 -0.170330 -0.827872 0.528689 
4358 -0.112260 -0.162497 -0.858137 0.473913 
4357 -0.109126 -0.176538 -0.844256 0.494123 
4354 -0.109762 -0.159165 -0.850868 0.488511 
4353.99 -0.120286 -0.161178 -0.861723 0.465818 
4353.98 -0.106965 -0.165352 -0.849739 0.489041 
4353 -0.164120 -0.160559 -0.865953 0.444309 
4352 -0.016678 -0.170883 -0.785961 0.593959 
4346 -0.059368 -0.179897 -0.819927 0.540215 
4345 -0.164347 -0.169387 -0.872309 0.428224 
4306 -0.109811 -0.169069 -0.852498 0.653659 
4304 -0.020228 -0.174674 -0.788036 0.589983 
4278 -0.168862 -0.152182 -0.896604 0.380037 
4276 -0.132047 -0.171900 -0.861072 0.459965 
4258 -0.196876 -0.155680 -0.895966 0.366401 
4252 -0.153617 -0.167029 -0.866069 0.445452 
4226 -0.094681 -0.159753 -0.851218 0.490859 
4222 -0.094700 -0.159753 -0.851228 0.490837 
4218 -0.125197 -0.173745 -0.852955 0.476033 
4201 -0.098279 -0.169558 -0.835099 0.514005 
4199 -0.111979 -0.164042 -0.851231 0.485754 
4193 -0.135349 -0.164499 -0.860501 0.462773 
4180 -0.062825 -0.175992 -0.821309 0.539010 
4165 -0.125445 -0.178610 -0.857356 0.466157 
4164.99 -0.125538 -0.180147 -0.858731 0.462999 
4144 -0.122318 -0.162884 -0.846470 0.491931 
4142 -0.144467 -0.166115 -0.861946 0.456710 
4125 -0.102214 -0.211678 -0.851896 0.486619 
4117 -0.083168 -0.169132 -0.831361 0.522797 
4112 -0.087935 -0.171276 -0.854186 0.483010 
4103 -0.149184 -0.166647 -0.875015 0.429328 
4094 -0.109737 -0.167147 -0.851923 0.483992 
4092 -0.083079 -0.158629 -0.854113 0.488289 
4090 -0.091576 -0.168322 -0.770345 0.525645 
4079 -0.169277 -0.157392 -0.880428 0.414029 
4074 -0.113229 -0.164884 -0.850012 0.487312 
4071 -0.115056 -0.179808 -0.853108 0.511841 
4060 -0.050484 -0.184896 -0.815818 0.545625 
3921 -0.229217 -0.161202 -0.905159 0.319624 
3840 -0.095848 -0.171618 -0.842996 0.500718 
3835 -0.175101 -0.162032 -0.870442 0.430599 
3808 -0.067448 -0.169746 -0.827526 0.530884 
3783 -0.084273 -0.186167 -0.839157 0.504040 
3715 -0.093984 -0.175456 -0.835089 0.512843 
94 -0.389935 -0.716125 -0.295291 0.679492 
46 -0.282127 -0.554366 -0.459723 -0.908735 
22 -0.054782 -0.997588 0.406948 0.917060 
17 -0.968473 -0.819595 0.446245 0.006981 
4 0.497400 -0.283751 -0.183473 0.826002 
0 0.072465 0.894637 -0.343204 0.730981 
-0.01 -0.980231 0.843788 0.532168 -0.530505 
-0.02 0.390575 0.093087 0.822514 -0.846848 
-0.03 -0.525674 0.764383 0.197390 -0.704951 
-0.04 0.732656 0.442791 0.491102 0.348715 

Generation : 14
4381 -0.110026 -0.156145 -0.853484 0.484849 
4379 -0.041462 -0.165168 -0.802695 0.571560 
4378 -0.096447 -0.164580 -0.843402 0.502279 
4377 -0.109762 -0.159165 -0.850868 0.488511 
4375 -0.083592 -0.160899 -0.850121 0.494387 
4374.99 -0.088149 -0.164408 -0.845511 0.500310 
4374.98 -0.058774 -0.170088 -0.826023 0.534136 
4374.97 -0.056577 -0.165114 -0.821244 0.543226 
4374 -0.020228 -0.174674 -0.788036 0.589983 
4373.99 -0.077094 -0.159969 -0.849437 0.496913 
4373.98 -0.090996 -0.161555 -0.846072 0.499781 
4372 -0.089480 -0.172984 -0.845301 0.497531 
4371.99 -0.113082 -0.171091 -0.852002 0.481697 
4371.98 -0.038065 -0.169137 -0.902278 0.562309 
4371.97 -0.080850 -0.166060 -0.827653 0.529980 
4371 -0.096429 -0.158911 -0.852567 0.488444 
4370.99 -0.101897 -0.167332 -0.843128 0.500752 
4370 -0.063633 -0.170109 -0.825238 0.534785 
4369 -0.121755 -0.162694 -0.859753 0.468541 
4368.99 -0.065664 -0.165832 -0.823456 0.538617 
4368.98 -0.076657 -0.173048 -0.832354 0.520927 
4368 -0.085546 -0.164165 -0.839405 0.511010 
4367.99 -0.148712 -0.165427 -0.867167 0.445578 
4367.98 -0.071501 -0.164186 -0.824016 0.537521 
4367 -0.054721 -0.163617 -0.800798 0.573549 
4366.99 -0.100698 -0.163512 -0.846256 0.496965 
4366.98 -0.163376 -0.152680 -0.890042 0.397269 
4366.97 -0.016678 -0.170883 -0.785961 0.593959 
4366 -0.104569 -0.185481 -0.851056 0.479964 
4365.99 -0.129801 -0.165138 -0.864512 0.456618 
4365.98 -0.027833 -0.166730 -0.804490 0.569406 
4365 0.056072 -0.156082 -0.844799 0.503649 
4364.99 -0.132047 -0.171900 -0.861072 0.459965 
4364.98 -0.072174 -0.168489 -0.823972 0.536164 
4364.97 -0.111144 -0.159321 -0.855827 0.479400 
4364 -0.076353 -0.168471 -0.827045 0.530834 
4363.99 -0.164347 -0.169387 -0.872309 0.428224 
4363.98 -0.120793 -0.160235 -0.864933 0.460026 
4363.97 -0.144373 -0.160756 -0.868589 0.445946 
4362 -0.096273 -0.165553 -0.842996 0.502675 
4360 -0.078631 -0.165277 -0.846119 0.500582 
4359.99 -0.066641 -0.164623 -0.769336 0.527026 
4359.98 -0.089020 -0.164001 -0.846200 0.499124 
4359 -0.034470 -0.165438 -0.802003 0.572916 
4358.99 -0.074850 -0.164680 -0.832968 0.522917 
4358 -0.066627 -0.168747 -0.831041 0.525792 
4357 -0.081303 -0.171782 -0.824549 0.532916 
4356.99 -0.106978 -0.170983 -0.846693 0.492374 
4356.98 -0.101596 -0.163436 -0.852214 0.486517 
4356 -0.078122 -0.170330 -0.827872 0.528689 
4353 -0.105104 -0.176337 -0.850065 0.485024 
4352.99 -0.068947 -0.166448 -0.844316 0.504650 
4352.98 -0.109126 -0.176538 -0.844256 0.494123 
4352.97 -0.029099 -0.168050 -0.794486 0.582841 
4351 -0.005863 -0.160454 -0.791286 0.656217 
4350.99 -0.115338 -0.178265 -0.854505 0.474068 
4347 -0.102123 -0.165318 -0.842286 0.502788 
4344 -0.109741 -0.162763 -0.836748 0.511192 
4335 -0.051560 -0.168355 -0.821940 0.541676 
4320 -0.112260 -0.162497 -0.858137 0.473913 
4319 -0.125749 -0.166215 -0.853546 0.477513 
4302 -0.119817 -0.157757 -0.870025 0.451457 
4278 -0.156964 -0.165078 -0.906680 0.516126 
4271 -0.168862 -0.152182 -0.896604 0.380037 
4257 -0.179429 -0.172077 -0.869397 0.427017 
4251 -0.070187 -0.164021 -0.820751 0.542714 
4240 -0.073255 -0.161157 -0.845829 0.503225 
4235 -0.027484 -0.165698 -0.801271 0.574242 
4231 -0.068252 -0.174867 -0.823916 0.534719 
4225 -0.125345 -0.171405 -0.857581 0.468470 
4223 -0.054870 -0.170072 -0.813569 0.553327 
4217 -0.181197 -0.155584 -0.884260 0.401304 
4185 -0.106965 -0.165352 -0.849739 0.489041 
4182 -0.106764 -0.167958 -0.851816 0.484562 
4171 -0.087327 -0.158494 -0.847479 0.499032 
4170 -0.164120 -0.160559 -0.865953 0.444309 
4164 -0.224748 -0.162740 -0.853289 0.476204 
4161 -0.156544 -0.161527 -0.873471 0.431799 
4157 -0.058334 -0.157865 -0.845943 0.506020 
4156.99 -0.120286 -0.161178 -0.861723 0.465818 
4130 -0.113769 -0.173372 -0.850962 0.482558 
4114 -0.124643 -0.158950 -0.847958 0.490067 
4067 -0.109811 -0.169069 -0.852498 0.653659 
4064 -0.059368 -0.179897 -0.819927 0.540215 
4035 -0.094662 -0.159752 -0.851207 0.490882 
4033 -0.021882 -0.163061 -0.796430 0.581921 
3903 -0.124921 -0.178321 -0.853455 0.461346 
3759 -0.127653 -0.158500 -0.856351 0.474600 
3589 -0.081604 -0.169044 -0.839645 0.509667 
1512 -0.074673 -0.327581 -0.890077 0.504581 
892 -0.453188 -0.270799 -0.708141 0.913187 
409 0.107045 -0.351298 -0.581337 0.602664 
41 -0.992653 -0.267869 0.078158 0.796433 
14 0.686039 -0.562235 -0.336888 -0.402485 
13 0.862844 -0.752834 -0.642198 -0.181553 
12.99 -0.879242 -0.357454 0.469595 0.103729 
4 -0.520453 -0.064588 -0.723345 -0.799877 
0 0.581049 0.248816 -0.739035 0.947669 
-0.01 0.517138 0.883547 0.348038 -0.824306 
-0.02 0.911978 -0.545259 0.556698 -0.751061 

Generation : 15
58053 -0.088149 -0.164408 -0.845511 0.500310 
49004 -0.129801 -0.165138 -0.864512 0.456618 
46777 -0.073255 -0.161157 -0.845829 0.503225 
46331 -0.083592 -0.160899 -0.850121 0.494387 
38350 -0.120286 -0.161178 -0.861723 0.465818 
31853 -0.078631 -0.165277 -0.846119 0.500582 
28953 -0.068947 -0.166448 -0.844316 0.504650 
28213 -0.105104 -0.176337 -0.850065 0.485024 
27266 -0.085546 -0.164165 -0.839405 0.511010 
26561 -0.164347 -0.169387 -0.872309 0.428224 
25827 -0.056577 -0.165114 -0.821244 0.543226 
23584 -0.089020 -0.164001 -0.846200 0.499124 
21330 -0.120793 -0.160235 -0.864933 0.460026 
21258 -0.101596 -0.163436 -0.852214 0.486517 
20514 -0.110026 -0.156145 -0.853484 0.484849 
18516 -0.119817 -0.157757 -0.870025 0.451457 
17737 -0.051560 -0.168355 -0.821940 0.541676 
17165 -0.096429 -0.158911 -0.852567 0.488444 
16730 -0.074850 -0.164680 -0.832968 0.522917 
16416 -0.054721 -0.163617 -0.800798 0.573549 
16143 -0.124921 -0.178321 -0.853455 0.461346 
15862 -0.109741 -0.162763 -0.836748 0.511192 
15742 -0.058334 -0.157865 -0.845943 0.506020 
15629 -0.076657 -0.173048 -0.832354 0.520927 
15542 -0.106965 -0.165352 -0.849739 0.489041 
15372 -0.041462 -0.165168 -0.802695 0.571560 
14854 -0.072174 -0.168489 -0.823972 0.536164 
14477 -0.115338 -0.178265 -0.854505 0.474068 
13785 -0.156964 -0.165078 -0.906680 0.516126 
12946 -0.076353 -0.168471 -0.827045 0.530834 
12894 -0.021882 -0.163061 -0.796430 0.581921 
12792 -0.156544 -0.161527 -0.873471 0.431799 
12020 -0.066641 -0.164623 -0.769336 0.527026 
11912 -0.081604 -0.169044 -0.839645 0.509667 
11880 -0.029099 -0.168050 -0.794486 0.582841 
10859 -0.065664 -0.165832 -0.823456 0.538617 
10619 0.056072 -0.156082 -0.844799 0.503649 
10296 -0.102123 -0.165318 -0.842286 0.502788 
10065 -0.124643 -0.158950 -0.847958 0.490067 
10002 -0.087327 -0.158494 -0.847479 0.499032 
9729 -0.125749 -0.166215 -0.853546 0.477513 
9554 -0.148712 -0.165427 -0.867167 0.445578 
9294 -0.168862 -0.152182 -0.896604 0.380037 
9171 -0.096273 -0.165553 -0.842996 0.502675 
8407 -0.063633 -0.170109 -0.825238 0.534785 
7996 -0.020228 -0.174674 -0.788036 0.589983 
7004 -0.058774 -0.170088 -0.826023 0.534136 
6982 -0.109762 -0.159165 -0.850868 0.488511 
6890 -0.112260 -0.162497 -0.858137 0.473913 
6120 -0.027484 -0.165698 -0.801271 0.574242 
5842 -0.089480 -0.172984 -0.845301 0.497531 
5614 -0.100698 -0.163512 -0.846256 0.496965 
5566 -0.094662 -0.159752 -0.851207 0.490882 
5550 -0.005863 -0.160454 -0.791286 0.656217 
5464 -0.059368 -0.179897 -0.819927 0.540215 
5417 -0.070187 -0.164021 -0.820751 0.542714 
5218 -0.164120 -0.160559 -0.865953 0.444309 
5166 -0.111144 -0.159321 -0.855827 0.479400 
5094 -0.109126 -0.176538 -0.844256 0.494123 
4976 -0.054870 -0.170072 -0.813569 0.553327 
4951 -0.096447 -0.164580 -0.843402 0.502279 
4809 -0.027833 -0.166730 -0.804490 0.569406 
4580 -0.071501 -0.164186 -0.824016 0.537521 
4421 -0.034470 -0.165438 -0.802003 0.572916 
4166 -0.132047 -0.171900 -0.861072 0.459965 
3154 -0.144373 -0.160756 -0.868589 0.445946 
2970 -0.101897 -0.167332 -0.843128 0.500752 
2687 -0.068252 -0.174867 -0.823916 0.534719 
2670 -0.077094 -0.159969 -0.849437 0.496913 
2654 -0.224748 -0.162740 -0.853289 0.476204 
2506 -0.106764 -0.167958 -0.851816 0.484562 
2405 -0.121755 -0.162694 -0.859753 0.468541 
2371 -0.109811 -0.169069 -0.852498 0.653659 
2087 -0.090996 -0.161555 -0.846072 0.499781 
1960 -0.080850 -0.166060 -0.827653 0.529980 
1956 -0.163376 -0.152680 -0.890042 0.397269 
1953 -0.113769 -0.173372 -0.850962 0.482558 
1950 -0.104569 -0.185481 -0.851056 0.479964 
1941 -0.127653 -0.158500 -0.856351 0.474600 
1601 -0.078122 -0.170330 -0.827872 0.528689 
1526 -0.038065 -0.169137 -0.902278 0.562309 
1371 -0.016678 -0.170883 -0.785961 0.593959 
1238 -0.181197 -0.155584 -0.884260 0.401304 
940 -0.081303 -0.171782 -0.824549 0.532916 
527 -0.066627 -0.168747 -0.831041 0.525792 
265 -0.074673 -0.327581 -0.890077 0.504581 
197 -0.113082 -0.171091 -0.852002 0.481697 
124 -0.125345 -0.171405 -0.857581 0.468470 
122 -0.106978 -0.170983 -0.846693 0.492374 
113 -0.179429 -0.172077 -0.869397 0.427017 
104 -0.453188 -0.270799 -0.708141 0.913187 
21 0.107045 -0.351298 -0.581337 0.602664 
6 -0.992653 -0.267869 0.078158 0.796433 
2 0.862844 -0.752834 -0.642198 -0.181553 
1.99 -0.879242 -0.357454 0.469595 0.103729 
0 0.686039 -0.562235 -0.336888 -0.402485 
-0.01 -0.520453 -0.064588 -0.723345 -0.799877 
-0.02 0.581049 0.248816 -0.739035 0.947669 
-0.03 0.517138 0.883547 0.348038 -0.824306 
-0.04 0.911978 -0.545259 0.556698 -0.751061 

Generation : 16
49551 -0.021882 -0.163061 -0.796430 0.581921 
33866 -0.068947 -0.166448 -0.844316 0.504650 
32321 -0.112210 -0.166181 -0.855005 0.478287 
29180 -0.086007 -0.165166 -0.842234 0.505930 
27475 -0.051560 -0.168355 -0.821940 0.541676 
27123 -0.056577 -0.165114 -0.821244 0.543226 
25882 -0.078631 -0.165277 -0.846119 0.500582 
25070 -0.085546 -0.164165 -0.839405 0.511010 
24098 -0.071474 -0.164672 -0.830800 0.526827 
21348 -0.140791 -0.163751 -0.864817 0.453272 
20103 -0.116600 -0.164837 -0.858921 0.470625 
17639 -0.124921 -0.178321 -0.853455 0.461346 
17145 -0.106965 -0.165352 -0.849739 0.489041 
17122 -0.063633 -0.170109 -0.825238 0.534785 
16743 -0.138374 -0.164607 -0.866425 0.450627 
15238 -0.100082 -0.162472 -0.846492 0.497029 
13292 -0.074850 -0.164680 -0.832968 0.522917 
13200 -0.100686 -0.162331 -0.851628 0.488099 
12980 -0.073255 -0.161157 -0.845829 0.503225 
12691 -0.109762 -0.159165 -0.850868 0.488511 
12597 -0.048004 -0.167445 -0.813739 0.554515 
12477 -0.095508 -0.170383 -0.844965 0.497877 
12332 -0.081604 -0.169044 -0.839645 0.509667 
11521 -0.096273 -0.165553 -0.842996 0.502675 
11290 -0.102123 -0.165318 -0.842286 0.502788 
10971 -0.119817 -0.157757 -0.870025 0.451457 
10907 -0.156544 -0.161527 -0.873471 0.431799 
10618 -0.087327 -0.158494 -0.847479 0.499032 
10458 -0.120793 -0.160235 -0.864933 0.460026 
8894 -0.112260 -0.162497 -0.858137 0.473913 
8690 -0.120286 -0.161178 -0.861723 0.465818 
8518 -0.066641 -0.164623 -0.769336 0.527026 
8365 -0.059368 -0.179897 -0.819927 0.540215 
7954 -0.066897 -0.167016 -0.839992 0.511902 
7568 -0.070187 -0.164021 -0.820751 0.542714 
7430 -0.005863 -0.160454 -0.791286 0.656217 
7384 -0.088149 -0.164408 -0.845511 0.500310 
7315 -0.054870 -0.170072 -0.813569 0.553327 
7301 -0.058334 -0.157865 -0.845943 0.506020 
7129 -0.090922 -0.161846 -0.850844 0.491533 
7114 -0.124643 -0.158950 -0.847958 0.490067 
6889 -0.129801 -0.165138 -0.864512 0.456618 
6489 -0.110026 -0.156145 -0.853484 0.484849 
6323 -0.133787 -0.162720 -0.861046 0.462843 
6228 -0.077001 -0.165348 -0.841970 0.507756 
6212 -0.089480 -0.172984 -0.845301 0.497531 
6099 -0.113864 -0.167623 -0.856883 0.474014 
6064 -0.109741 -0.162763 -0.836748 0.511192 
5645 -0.094662 -0.159752 -0.851207 0.490882 
5545 -0.148712 -0.165427 -0.867167 0.445578 
5474 -0.113918 -0.162843 -0.849075 0.489465 
5370 -0.077335 -0.165084 -0.841656 0.508313 
5320 -0.068489 -0.161910 -0.834719 0.521861 
5205 -0.096429 -0.158911 -0.852567 0.488444 
5146 -0.089020 -0.164001 -0.846200 0.499124 
4970 -0.096074 -0.160752 -0.845610 0.499873 
4640 -0.140791 -0.163751 -0.864817 0.453272 
4463 -0.087319 -0.164333 -0.843574 0.503738 
4388 -0.111144 -0.159321 -0.855827 0.479400 
4368 -0.109126 -0.176538 -0.844256 0.494123 
4227 -0.020228 -0.174674 -0.788036 0.589983 
4047 -0.114349 -0.173186 -0.855701 0.474032 
3799 -0.041462 -0.165168 -0.802695 0.571560 
3509 -0.125749 -0.166215 -0.853546 0.477513 
2950 -0.072174 -0.168489 -0.823972 0.536164 
2902 -0.029099 -0.168050 -0.794486 0.582841 
2701 -0.115338 -0.178265 -0.854505 0.474068 
2370 0.056072 -0.156082 -0.844799 0.503649 
2295 -0.168862 -0.152182 -0.896604 0.380037 
2253 -0.101596 -0.163436 -0.852214 0.486517 
2090 -0.061074 -0.167650 -0.804819 0.566065 
2010 -0.105104 -0.176337 -0.850065 0.485024 
1820 -0.164347 -0.169387 -0.872309 0.495176 
1801 -0.106786 -0.171473 -0.735530 0.494502 
1539 -0.100698 -0.163512 -0.846256 0.496965 
1262 -0.156964 -0.165078 -0.906680 0.516126 
1215 -0.073594 -0.166477 -0.828766 0.529166 
1203 -0.164120 -0.160559 -0.865953 0.444309 
1045 -0.058774 -0.170088 -0.826023 0.534136 
1031 -0.107268 -0.164824 -0.854634 0.480550 
972 -0.054721 -0.163617 -0.800798 0.573549 
884 -0.048837 -0.166079 -0.811720 0.557802 
821 -0.065664 -0.165832 -0.823456 0.538617 
706 -0.078223 -0.158446 -0.849590 0.496964 
578 -0.131629 -0.169504 -0.857192 0.468150 
525 -0.027484 -0.165698 -0.801271 0.574242 
388 -0.076657 -0.173048 -0.832354 0.520927 
256 -0.076353 -0.033936 -0.827045 0.530834 
255.99 -0.127071 -0.163653 -0.864651 0.457657 
117 -0.083592 -0.160899 -0.850121 0.494387 
13 -0.839332 -0.276390 -0.272825 -0.102954 
6 0.582054 -0.811453 -0.247378 0.829986 
0 -0.951370 0.798307 -0.358452 -0.080127 
-0.01 0.684905 0.835944 -0.950024 -0.537603 
-0.02 -0.627762 0.978944 -0.411284 0.992867 
-0.03 0.410052 0.245079 0.441518 -0.376162 
-0.04 0.556013 0.890857 -0.556558 0.884058 
-0.05 0.528229 0.427488 -0.011171 -0.342780 
-0.06 0.542844 0.867563 0.433922 0.804220 
-0.07 0.882479 -0.381896 0.423146 -0.046526 

Generation : 17
70574 -0.054870 -0.170072 -0.813569 0.553327 
54375 -0.049347 -0.164000 -0.816586 0.551231 
44863 -0.068947 -0.166448 -0.844316 0.504650 
44654 -0.073255 -0.161157 -0.845829 0.503225 
43551 -0.089020 -0.164001 -0.846200 0.499124 
33061 -0.100686 -0.162331 -0.851628 0.488099 
30349 -0.087327 -0.158494 -0.847479 0.499032 
21569 -0.113918 -0.162843 -0.849075 0.489465 
21046 -0.138374 -0.164607 -0.866425 0.450627 
20198 -0.058334 -0.157865 -0.845943 0.506020 
19520 -0.096273 -0.165553 -0.842996 0.502675 
18380 -0.075875 -0.165691 -0.844702 0.503257 
18181 -0.068218 -0.166934 -0.828508 0.530144 
17654 -0.148712 -0.165427 -0.867167 0.445578 
17268 -0.079592 -0.166495 -0.844044 0.503522 
16570 -0.066464 -0.167135 -0.839071 0.513429 
15223 -0.063633 -0.170109 -0.825238 0.534785 
14835 -0.079144 -0.167086 -0.838657 0.512322 
13279 -0.088149 -0.164408 -0.845511 0.500310 
13086 -0.077335 -0.165084 -0.841656 0.508313 
12887 -0.096429 -0.158911 -0.852567 0.488444 
11469 -0.105704 -0.165465 -0.851940 0.485434 
11293 -0.103419 -0.171709 -0.853522 0.480959 
11213 -0.053860 -0.165858 -0.818887 0.546822 
10795 -0.109762 -0.159165 -0.850868 0.488511 
10549 -0.041042 -0.164644 -0.816905 0.551248 
10498 -0.119817 -0.157757 -0.870025 0.451457 
9581 -0.055584 -0.167424 -0.821709 0.541917 
9504 -0.095508 -0.170383 -0.844965 0.497877 
9130 -0.087389 -0.164998 -0.837376 0.513751 
9017 -0.077001 -0.165348 -0.841970 0.507756 
8835 -0.121653 -0.161132 -0.856156 0.475641 
8748 -0.071114 -0.166663 -0.828322 0.530140 
8435 -0.133787 -0.162720 -0.861046 0.462843 
8374 -0.085546 -0.164165 -0.839405 0.511010 
8217 -0.139979 -0.162152 -0.861324 0.460689 
8100 -0.124921 -0.178321 -0.853455 0.461346 
8002 -0.116600 -0.164837 -0.858921 0.470625 
7831 -0.102123 -0.165318 -0.842286 0.502788 
7829 -0.110026 -0.156145 -0.853484 0.484849 
7823 -0.066641 -0.164623 -0.769336 0.527026 
7291 -0.113864 -0.167623 -0.856883 0.474014 
6855 -0.066897 -0.167016 -0.839992 0.511902 
6849 -0.075189 -0.165005 -0.838835 0.513299 
6597 -0.109741 -0.162763 -0.836748 0.511192 
6510 -0.081604 -0.169044 -0.839645 0.509667 
6061 -0.058537 -0.166092 -0.829837 0.529487 
5766 -0.106965 -0.159073 -0.849739 0.489041 
5585 -0.005863 -0.160454 -0.791286 0.656217 
5490 -0.086576 -0.161012 -0.846485 0.500042 
5230 -0.090922 -0.161846 -0.850844 0.491533 
4853 -0.124643 -0.158950 -0.847958 0.490067 
4556 -0.120793 -0.160235 -0.864933 0.460026 
4302 -0.116425 -0.172454 -0.854226 0.476448 
4132 -0.096074 -0.160752 -0.845610 0.499873 
4111 -0.094662 -0.159752 -0.851207 0.490882 
3714 -0.086007 -0.165166 -0.842234 0.505930 
3371 -0.109126 -0.176538 -0.844256 0.494123 
3318 -0.156544 -0.161527 -0.873471 0.431799 
3277 -0.129801 -0.165138 -0.864512 0.456618 
2946 -0.089480 -0.172984 -0.845301 0.497531 
2752 -0.120286 -0.161178 -0.861723 0.465818 
2662 -0.051560 -0.168355 -0.821940 0.541676 
2637 -0.140791 -0.163751 -0.864817 0.453272 
2585 -0.056577 -0.165114 -0.821244 0.543226 
2503 -0.067834 -0.168553 -0.835935 0.517881 
2502 -0.059368 -0.179897 -0.819927 0.540215 
2341 -0.071474 -0.164672 -0.830800 0.526827 
2091 -0.116941 -0.170822 -0.856237 0.473289 
1699 -0.115355 -0.162912 -0.858387 0.472573 
1690 -0.039863 -0.162523 -0.808806 0.563764 
1524 -0.070004 -0.165579 -0.831722 0.525283 
1518 -0.111144 -0.159321 -0.855827 0.479400 
1515 -0.064510 -0.172364 -0.820357 0.541427 
1489 -0.028051 -0.163402 -0.801937 0.573942 
1464 -0.078631 -0.165277 -0.846119 0.500582 
1448 -0.095127 -0.175001 -0.843051 0.499590 
1105 -0.021882 -0.163061 -0.796430 0.581921 
999 -0.109397 -0.160296 -0.860199 0.471588 
894 -0.140791 -0.163751 -0.864817 0.453272 
829 -0.100082 -0.162472 -0.846492 0.497029 
672 -0.112210 -0.166181 -0.776104 0.478287 
651 -0.112260 -0.162497 -0.858137 0.473913 
637 -0.074850 -0.164680 -0.832968 0.522917 
618 -0.087319 -0.164333 -0.843574 0.503738 
492 -0.066317 -0.167548 -0.828250 0.530596 
314 -0.070187 -0.164021 -0.820751 0.542714 
295 -0.048004 -0.167445 -0.813739 0.554515 
282 -0.092066 -0.287013 -0.844216 0.501638 
279 -0.068489 -0.161910 -0.834719 0.521861 
1 -0.415244 -0.675934 0.592119 0.932160 
0.99 -0.921454 -0.079761 0.671567 0.949123 
0 -0.952981 0.962186 -0.272620 -0.433191 
-0.01 -0.096010 0.138195 0.392587 0.592173 
-0.02 0.351330 0.464104 0.187731 0.890147 
-0.03 -0.646595 0.805534 0.408518 0.516540 
-0.04 -0.564242 -0.759534 0.920334 -0.678044 
-0.05 0.361621 0.639689 -0.194082 0.878101 
-0.06 0.854716 0.538026 0.970750 -0.055438 
-0.07 -0.431357 -0.525257 0.919488 -0.962943 
